    0.592569214764032237E+00    0.783893334222279066E+02    0.190357501155923963E+02    0.583947501289663684E+01   -0.971275621626095017E+04   -0.548423388338149198E+04   -0.177456196452259178E+04    0.146671917743661197E+03    0.113168769932273754E+05    0.833004908827074502E+02
    0.588080281858767262E+00    0.783144262483211122E+02    0.189911429872741948E+02    0.574544109851337126E+01   -0.971280917533800312E+04   -0.548410776784801783E+04   -0.177475549628098156E+04    0.146742098172117096E+03    0.113168538093553088E+05    0.845700565623586300E+02
    0.558168595601964856E+00    0.782868319054461494E+02    0.188334239295173305E+02    0.685704303134560789E+01   -0.994640893966064505E+04   -0.559531067795008494E+04   -0.180807683119005060E+04    0.149023969153328324E+03    0.115481498727225699E+05    0.853388718605722403E+02
    0.561317648847541428E+00    0.783959375976575501E+02    0.186561302928520725E+02    0.648614503458938696E+01   -0.995363981023200904E+04   -0.559878436264327866E+04   -0.180888273741884495E+04    0.149070457441286976E+03    0.115553293254421842E+05    0.860453309176707108E+02
    0.564477871751922766E+00    0.782769549063859245E+02    0.188642441818821212E+02    0.626721195246758178E+01   -0.990894293968512648E+04   -0.557774167341172142E+04   -0.180244602599133555E+04    0.148554602432318433E+03    0.115111536879247433E+05    0.862485266389612804E+02
    0.578654787881274668E+00    0.783394656418967088E+02    0.189537006766351865E+02    0.642020532155954626E+01   -0.987400467877952724E+04   -0.556026259596768523E+04   -0.179828878815450389E+04    0.148539020862852965E+03    0.114762489037900723E+05    0.874662458602100372E+02
    0.524380683587659879E+00    0.782537748814078498E+02    0.186175543373305601E+02    0.747231718645372212E+01   -0.105340153737565743E+05   -0.587470387020985709E+04   -0.189205119753637973E+04    0.154871996459738341E+03    0.121298725073121332E+05    0.874835338833521945E+02
    0.546112693629520529E+00    0.783340858649213487E+02    0.186889640356670199E+02    0.740862211630841472E+01   -0.102966441994136530E+05   -0.576123699097527424E+04   -0.185862916540224319E+04    0.152737728417517673E+03    0.118946540956889166E+05    0.874838631797425137E+02
    0.531657019997833880E+00    0.782630310892349002E+02    0.185475697446342558E+02    0.762607074683320629E+01   -0.104269482401766509E+05   -0.582339277044594655E+04   -0.187704638522873074E+04    0.153961530894383145E+03    0.120237206808921310E+05    0.874946170130985479E+02
    0.573083519774097216E+00    0.783296274377000685E+02    0.190073192110807483E+02    0.650561253181986565E+01   -0.100706448368081510E+05   -0.565308744191227652E+04   -0.182694279758001130E+04    0.150749369761675382E+03    0.116706727907285240E+05    0.875030185926943034E+02
    0.574701053220106006E+00    0.784206104285934202E+02    0.189792856525542106E+02    0.659607155512245136E+01   -0.980758842209295290E+04   -0.552905871032489904E+04   -0.178830903496834026E+04    0.147723523250564853E+03    0.114106430457917104E+05    0.877391107530216772E+02
    0.575569779662130854E+00    0.782908078661361628E+02    0.188388441551070898E+02    0.613748387697378028E+01   -0.985836401827001100E+04   -0.555321886441632068E+04   -0.179561456288659542E+04    0.148230663412994375E+03    0.114609071867888561E+05    0.878961031892438172E+02
    0.534021543847043700E+00    0.782701824805590007E+02    0.187123268262929408E+02    0.715587947927497403E+01   -0.103576746638464447E+05   -0.579112457044964322E+04   -0.186652064463976899E+04    0.153004764844192948E+03    0.119554082750183225E+05    0.879102032071837698E+02
    0.527544508606338169E+00    0.781659184358802008E+02    0.186536447721636485E+02    0.745231467011789572E+01   -0.105660464650633876E+05   -0.588890825440182198E+04   -0.189766387922445460E+04    0.155599296144624446E+03    0.121611817474214949E+05    0.880429779235098096E+02
    0.542774170814783297E+00    0.783786765424837029E+02    0.188280845621464259E+02    0.748175311014648958E+01   -0.101626024972673695E+05   -0.569845332051022251E+04   -0.183848958789086441E+04    0.151027485998598991E+03    0.117623215688073233E+05    0.881434847559566492E+02
    0.528361238026050062E+00    0.782965211091828905E+02    0.186846914189552109E+02    0.748479924642344852E+01   -0.102282856846803734E+05   -0.572969331460164994E+04   -0.184798515308721289E+04    0.151694091825664998E+03    0.118273285319952502E+05    0.883212914305880190E+02
    0.545330065194333691E+00    0.782590874598754027E+02    0.188860321218535994E+02    0.712440556861679042E+01   -0.103968742782083646E+05   -0.580794354597579695E+04   -0.187391884312123739E+04    0.154111387616352602E+03    0.119935170833849861E+05    0.883591239020666279E+02
    0.538224250600520704E+00    0.783475463763182063E+02    0.187744790339169398E+02    0.679115008977065759E+01   -0.103128053368899600E+05   -0.576941520913860768E+04   -0.186040781522749899E+04    0.152702504245207791E+03    0.119108437398198730E+05    0.883851365438287360E+02
    0.584384523020383573E+00    0.783963313391420229E+02    0.188162907406938267E+02    0.609609636020772161E+01   -0.976718929664479947E+04   -0.551044797439977992E+04   -0.178197601676159138E+04    0.147084646582880993E+03    0.113708843587323117E+05    0.883956883107730391E+02
    0.520129204123574329E+00    0.782502934769765659E+02    0.185789330245502313E+02    0.751686779424033080E+01   -0.103077182571215781E+05   -0.576826803133382418E+04   -0.185860585454137913E+04    0.152171589933152291E+03    0.119062717845422540E+05    0.884086564062777285E+02
    0.568629465816362423E+00    0.783145270199456434E+02    0.188324784344549840E+02    0.604420249193262205E+01   -0.986964511086122366E+04   -0.555958841875225153E+04   -0.179627340720480220E+04    0.147945800487165172E+03    0.114724653231926040E+05    0.884846363325311529E+02
    0.544155509113728231E+00    0.783940013651750149E+02    0.187399468421856703E+02    0.713082852943490764E+01   -0.986775382416903449E+04   -0.555984861193510005E+04   -0.179487805217417986E+04    0.147477837847497426E+03    0.114710232207221525E+05    0.884983423063384436E+02
    0.570181960145182853E+00    0.783416242763896093E+02    0.188653549504708202E+02    0.662973387700135941E+01   -0.998315455039905646E+04   -0.561248290195880418E+04   -0.181351907445089137E+04    0.149493717545511231E+03    0.115844340169310162E+05    0.885102664384759095E+02
    0.534623723752198021E+00    0.782655565787020322E+02    0.186541340637028377E+02    0.678371098380573834E+01   -0.102800017629116537E+05   -0.575451632339919888E+04   -0.185513209189032932E+04    0.152112588137929151E+03    0.118786233325593057E+05    0.887064416703296246E+02
    0.543953169037703965E+00    0.783834957449722083E+02    0.188004242882509978E+02    0.668266858011301590E+01   -0.100595920666228903E+05   -0.565019063526558512E+04   -0.182312383014662350E+04    0.149724620266369698E+03    0.116606139443756692E+05    0.888070831733260491E+02
    0.569247685052798214E+00    0.782974974944388862E+02    0.188187349694273180E+02    0.667819572576958986E+01   -0.101272267707953652E+05   -0.567964480021176132E+04   -0.183544316827845023E+04    0.151458421132918318E+03    0.117265406897772300E+05    0.888483333857584512E+02
    0.553527650878199995E+00    0.783368937400188656E+02    0.188446668352587174E+02    0.679108605991567593E+01   -0.101761749329929626E+05   -0.570453085338153687E+04   -0.184085899528045275E+04    0.151314086836807490E+03    0.117756129930473944E+05    0.888517514374363060E+02
    0.591727310621554592E+00    0.783865095894214647E+02    0.189820068723201985E+02    0.620149439547038117E+01   -0.976932183304633145E+04   -0.551034707237494331E+04   -0.178337850461441144E+04    0.147543981367687167E+03    0.113725693430363026E+05    0.888601318431023230E+02
    0.554671438485819124E+00    0.783170601286539920E+02    0.186934513821665576E+02    0.682821685619438856E+01   -0.100542245021213348E+05   -0.564680241799259056E+04   -0.182329674418469517E+04    0.150012493128216306E+03    0.116549689377951345E+05    0.888801209791982672E+02
    0.554319901380703861E+00    0.782842717251049862E+02    0.186754155356722258E+02    0.666139384331168749E+01   -0.100849289793766420E+05   -0.566123605498275901E+04   -0.182781547568904170E+04    0.150382322993032886E+03    0.116853023410437509E+05    0.888817967006984730E+02
    0.536257970018241936E+00    0.782836546527254882E+02    0.185869937373318166E+02    0.681300371774853097E+01   -0.103774619373125861E+05   -0.580030908877285583E+04   -0.186955567298837059E+04    0.153293278491103990E+03    0.119749028447991768E+05    0.889011226379974602E+02
    0.522259903511028911E+00    0.782581390581203635E+02    0.185177828928167969E+02    0.728055231003550407E+01   -0.105064439161888131E+05   -0.586125971977959853E+04   -0.188841224143080376E+04    0.154731385134132864E+03    0.121024388486580283E+05    0.890012513018019433E+02
    0.540807848347189091E+00    0.782358546701786111E+02    0.186804225832864219E+02    0.707039356940653541E+01   -0.103128092891233027E+05   -0.576894076786526148E+04   -0.186098928049529877E+04    0.152901752735341745E+03    0.119106504788400398E+05    0.892102905973239046E+02
    0.543522516157240343E+00    0.783516185093650392E+02    0.187344033633732856E+02    0.684979649716552341E+01   -0.100958388617402416E+05   -0.566700957391944758E+04   -0.182876669520209180E+04    0.150252932287217050E+03    0.116963353682464221E+05    0.892228311556638545E+02
    0.549417080053044793E+00    0.784031272616288817E+02    0.186511009629124267E+02    0.677582265972803821E+01   -0.991716576236457877E+04   -0.558285789565024606E+04   -0.180244834192685335E+04    0.148164579276993578E+03    0.115197489156816409E+05    0.892450990923338594E+02
    0.563422628433430384E+00    0.784184561157240694E+02    0.187865090721322332E+02    0.620273282772800183E+01   -0.998062476431276991E+04   -0.561185845548178077E+04   -0.181252919660434509E+04    0.149239420016996291E+03    0.115821473637000090E+05    0.892579810971004122E+02
    0.564910671201683146E+00    0.783999877540163936E+02    0.186916166274630733E+02    0.652991298239064566E+01   -0.978668189008099762E+04   -0.552071847125190561E+04   -0.178384234035239251E+04    0.146896436502085010E+03    0.113905451716413336E+05    0.892935061848501164E+02
    0.548996521516259772E+00    0.782694440872849668E+02    0.186589477630809242E+02    0.660210138586873718E+01   -0.102339185752609028E+05   -0.573147426998969877E+04   -0.184955543299496412E+04    0.152089973806125101E+03    0.118325771034924128E+05    0.893003252765146840E+02
    0.546210524587426582E+00    0.783637800001061464E+02    0.188029435740811799E+02    0.668472914940183127E+01   -0.100378356281742308E+05   -0.564009958510700289E+04   -0.181985512740009949E+04    0.149415721117030472E+03    0.116391675640618487E+05    0.893098338770284528E+02
    0.558933577986835184E+00    0.782527307422176079E+02    0.187145869486346186E+02    0.649932845124861647E+01   -0.100741249281079872E+05   -0.565629256732641261E+04   -0.182604254352126873E+04    0.150191474260984535E+03    0.116746893940907430E+05    0.894573176814774769E+02
    0.524064258529477578E+00    0.782931875082989848E+02    0.185393929719790691E+02    0.724344114953544693E+01   -0.103703214440496959E+05   -0.579758241852730589E+04   -0.186798845561299640E+04    0.152968834897435443E+03    0.119680813584463940E+05    0.895397072021583682E+02
    0.559743767574570561E+00    0.782623254427792290E+02    0.188191749908717689E+02    0.618310092077015661E+01   -0.102080670065023933E+05   -0.571893970754249312E+04   -0.184619078836384779E+04    0.151929148585404391E+03    0.118068970620129785E+05    0.895942704616098382E+02
    0.550831811623469170E+00    0.782621402023963384E+02    0.187219742406825027E+02    0.707346046137873330E+01   -0.102939998235075072E+05   -0.575974133099105984E+04   -0.185853191844875960E+04    0.152807348080004431E+03    0.118919482963795890E+05    0.895963997614832550E+02
    0.552205946491977517E+00    0.783042991452574739E+02    0.188169383955080995E+02    0.706135904949572080E+01   -0.102448538658847719E+05   -0.573656614651039490E+04   -0.185126617376298918E+04    0.152236728291162905E+03    0.118433721722112841E+05    0.896294551894683451E+02
    0.539533872341169340E+00    0.782710773382657976E+02    0.186303978059705138E+02    0.737089101840935079E+01   -0.103541717188574785E+05   -0.578880490815287794E+04   -0.186668711844626478E+04    0.153229437824112665E+03    0.119516866825414909E+05    0.896856260781619312E+02
    0.553026553743481530E+00    0.783243944192163326E+02    0.187925789101229022E+02    0.668721207708477294E+01   -0.992518825936117173E+04   -0.558595613859222158E+04   -0.180423115762077850E+04    0.148518240763469493E+03    0.115274270291940084E+05    0.897057506608656183E+02
    0.553026553743481530E+00    0.783243944192163326E+02    0.187925789101229022E+02    0.668721207708477294E+01   -0.992518825936117173E+04   -0.558595613859222158E+04   -0.180423115762077850E+04    0.148518240763469493E+03    0.115274270291940084E+05    0.897057506608656183E+02
    0.543680417570797991E+00    0.782473738272994837E+02    0.186758957896883757E+02    0.668967626993975539E+01   -0.102514133445114167E+05   -0.574039704043092115E+04   -0.185162804053469790E+04    0.152040173672466580E+03    0.118501178477494250E+05    0.897145164206612549E+02
    0.560325620233457888E+00    0.783141567568381305E+02    0.188101327694238414E+02    0.698393540765608201E+01   -0.991494996603252184E+04   -0.558071419389412495E+04   -0.180321792739525404E+04    0.148571660237012850E+03    0.115171401772019344E+05    0.897217147526753536E+02
    0.561276143676225581E+00    0.782372163902387996E+02    0.188278022451553646E+02    0.687733540780335328E+01   -0.101006317123967965E+05   -0.566772655257779297E+04   -0.183092907535111976E+04    0.150911725903703768E+03    0.117004839135183192E+05    0.897416117389420833E+02
    0.525953648116898931E+00    0.783331822116430629E+02    0.186084222750434414E+02    0.777377476896984021E+01   -0.101904048957106279E+05   -0.571287517179325914E+04   -0.184139533183159438E+04    0.150845122516910834E+03    0.117902885821610489E+05    0.897677675707864466E+02
    0.568058627258478666E+00    0.783551194150194021E+02    0.187046697004472122E+02    0.664403129307103146E+01   -0.999642783569941639E+04   -0.561875454301887385E+04   -0.181544655729058468E+04    0.149645535024212961E+03    0.115975496444147502E+05    0.898186349723164312E+02
    0.538045140875225036E+00    0.782831167760954969E+02    0.187187368648109747E+02    0.754757363303810891E+01   -0.102135015676359271E+05   -0.572277585524661117E+04   -0.184571538851735386E+04    0.151493022578866913E+03    0.118127494198623172E+05    0.898277558391500293E+02
    0.556070918304733874E+00    0.783242458904615830E+02    0.187845945783778525E+02    0.745254382530700088E+01   -0.101244041166021852E+05   -0.567947383862700008E+04   -0.183391766137380523E+04    0.150975195899407595E+03    0.117241882813699976E+05    0.898615418886375323E+02
    0.562673166803835390E+00    0.782988122658538828E+02    0.186710568550722336E+02    0.634287528858871585E+01   -0.101217856136165574E+05   -0.567765677141719516E+04   -0.183408722638626887E+04    0.151172352037905227E+03    0.117213769595928534E+05    0.898677718326867705E+02
    0.562673166803835390E+00    0.782988122658538828E+02    0.186710568550722336E+02    0.634287528858871585E+01   -0.101217856136165574E+05   -0.567765677141719516E+04   -0.183408722638626887E+04    0.151172352037905227E+03    0.117213769595928534E+05    0.898677718326867705E+02
    0.542175472453634733E+00    0.782608652154453068E+02    0.185987372590384510E+02    0.715755371280767072E+01   -0.103712319145776019E+05   -0.579625056242486426E+04   -0.186970778356676328E+04    0.153661159081972045E+03    0.119683147072482698E+05    0.899211359616598003E+02
    0.538481224612253784E+00    0.783540119858857906E+02    0.186430681765354329E+02    0.738868627398331412E+01   -0.101633847573218864E+05   -0.569945883545396282E+04   -0.183813022833672539E+04    0.150801122858873953E+03    0.117633224932040084E+05    0.899514945332937401E+02
    0.573299454852450485E+00    0.783389706115966504E+02    0.188144376445195647E+02    0.647576682538979753E+01   -0.985788673300853770E+04   -0.555308510948515686E+04   -0.179553075874783599E+04    0.148192391545442547E+03    0.114604682017759933E+05    0.900236873840849228E+02
    0.539914927401180633E+00    0.782571125616619696E+02    0.186747360933516227E+02    0.690256454557131605E+01   -0.104800402192770161E+05   -0.584814039625029636E+04   -0.188517583066111888E+04    0.154683678613337008E+03    0.120760974420494549E+05    0.900395981446271492E+02
    0.558374942097775384E+00    0.783074557650249545E+02    0.188588317130005976E+02    0.739788677163200070E+01   -0.100407423051552923E+05   -0.563977134271568866E+04   -0.182183908519020679E+04    0.150108274149098833E+03    0.116413973870555528E+05    0.901170697113441861E+02
    0.558374942097775384E+00    0.783074557650249545E+02    0.188588317130005976E+02    0.739788677163200070E+01   -0.100407423051552923E+05   -0.563977134271568866E+04   -0.182183908519020679E+04    0.150108274149098833E+03    0.116413973870555528E+05    0.901170697113441861E+02
    0.540671014855788945E+00    0.783051725377606544E+02    0.186897293365531247E+02    0.679086859720895042E+01   -0.101669974535749261E+05   -0.570060500555472663E+04   -0.183919170125994083E+04    0.151063954459257047E+03    0.117666764861216961E+05    0.901337165592092902E+02
    0.535397885671002771E+00    0.782424979157091229E+02    0.186009108228901745E+02    0.697492781483205615E+01   -0.103577479967074614E+05   -0.579103761346901138E+04   -0.186666398581318117E+04    0.153058334539677560E+03    0.119554257075275455E+05    0.901639040613579539E+02
    0.549457561927646276E+00    0.782966255301377316E+02    0.187092869279302576E+02    0.672190173828050330E+01   -0.102213777373243320E+05   -0.572557540423800583E+04   -0.184774069900515656E+04    0.151944519682706641E+03    0.118201820743291610E+05    0.902006987711856993E+02
    0.578394766614129030E+00    0.783144746891782972E+02    0.188138574432470591E+02    0.617890941384438008E+01   -0.999207872906693774E+04   -0.561647616488434960E+04   -0.181504422329724525E+04    0.149680719400786899E+03    0.115931728073213635E+05    0.902117818101471727E+02
    0.533016031749637076E+00    0.782523278958710193E+02    0.185783104813478452E+02    0.755694135860645844E+01   -0.103049383901022175E+05   -0.576596292277442990E+04   -0.185918089644591350E+04    0.152530056604214138E+03    0.119031452594006096E+05    0.902192614195506906E+02
    0.536983047119771184E+00    0.782565665963970787E+02    0.187788183499665315E+02    0.688192049904513858E+01   -0.103972881103596319E+05   -0.580904912831021829E+04   -0.187305097303849425E+04    0.153757996546148121E+03    0.119942723612279442E+05    0.902217921405493684E+02
    0.552879475450760216E+00    0.783181210128239087E+02    0.186349335356592647E+02    0.630976500429031883E+01   -0.101315614806472913E+05   -0.568318411253773138E+04   -0.183460422457067034E+04    0.150927100224558615E+03    0.117313866168716468E+05    0.902534424746227444E+02
    0.552162721627257769E+00    0.783393012495869669E+02    0.186838189801858654E+02    0.624080922185488518E+01   -0.997582889608020560E+04   -0.561033243577455232E+04   -0.181120657731880215E+04    0.148908502343569154E+03    0.115776714693201575E+05    0.902583525819432282E+02
    0.552162721627257769E+00    0.783393012495869669E+02    0.186838189801858654E+02    0.624080922185488518E+01   -0.997582889608020560E+04   -0.561033243577455232E+04   -0.181120657731880215E+04    0.148908502343569154E+03    0.115776714693201575E+05    0.902583525819432282E+02
    0.555811311737804958E+00    0.783170285986797836E+02    0.187834521538691597E+02    0.746977155736056186E+01   -0.101054887845169105E+05   -0.567046486552971055E+04   -0.183119654190816323E+04    0.150789895658024619E+03    0.117054581247486240E+05    0.902701516747839179E+02
    0.555811311737804958E+00    0.783170285986797836E+02    0.187834521538691597E+02    0.746977155736056186E+01   -0.101054887845169105E+05   -0.567046486552971055E+04   -0.183119654190816323E+04    0.150789895658024619E+03    0.117054581247486240E+05    0.902701516747839179E+02
    0.535694587040506098E+00    0.783338343834029445E+02    0.187057543659995211E+02    0.758826859145500077E+01   -0.100833345988635283E+05   -0.566169736512372674E+04   -0.182631679169765289E+04    0.149881409530276898E+03    0.116841927400346285E+05    0.902753280723874525E+02
    0.545142687886570942E+00    0.782406456764559834E+02    0.186981710453125345E+02    0.709863008719052146E+01   -0.102207561223621942E+05   -0.572584717555831867E+04   -0.184725227349761713E+04    0.151724686748961631E+03    0.118197797119634288E+05    0.902778865463669433E+02
    0.545142687886570942E+00    0.782406456764559834E+02    0.186981710453125345E+02    0.709863008719052146E+01   -0.102207561223621942E+05   -0.572584717555831867E+04   -0.184725227349761713E+04    0.151724686748961631E+03    0.118197797119634288E+05    0.902778865463669433E+02
    0.546353020398614553E+00    0.782569611718915610E+02    0.187159547793766663E+02    0.639765256946008432E+01   -0.103056350295323937E+05   -0.576578399094715769E+04   -0.185975174444120466E+04    0.152729402106762080E+03    0.119036528403610755E+05    0.903177345612869544E+02
    0.533813375664029088E+00    0.782906238467298010E+02    0.185767179912714617E+02    0.682580371527945484E+01   -0.103722238879209090E+05   -0.579787402529580686E+04   -0.186876020482469494E+04    0.153217667879303946E+03    0.119697413168443181E+05    0.903427887517828907E+02
    0.569197850770334579E+00    0.783592182889131266E+02    0.189652757365382811E+02    0.678866737558417199E+01   -0.995755486255324649E+04   -0.560027268699081287E+04   -0.180986811944533156E+04    0.149252938696106810E+03    0.115590745799723536E+05    0.903482240923298150E+02
    0.539927862261777802E+00    0.783115683066412203E+02    0.186897916944288980E+02    0.752730811233685060E+01   -0.102822194637032899E+05   -0.575516170305025116E+04   -0.185585655329251381E+04    0.152292317608679525E+03    0.118806683385577180E+05    0.903896042316087431E+02
    0.564692576793287881E+00    0.783040274356590373E+02    0.186920629361122579E+02    0.650234602381777727E+01   -0.996772752631506046E+04   -0.560538988777668510E+04   -0.181117352622833118E+04    0.149260708353942363E+03    0.115692305858629989E+05    0.904002992920922281E+02
    0.546353000647985310E+00    0.782863025266621548E+02    0.185298049209006557E+02    0.688347324707030683E+01   -0.101601413115203377E+05   -0.569707791597273535E+04   -0.183843580960748159E+04    0.151093859572480028E+03    0.117597941855618556E+05    0.904073882347842357E+02
    0.564520774509971179E+00    0.783285911863456477E+02    0.188267559057931351E+02    0.695256742837587627E+01   -0.100712422639278320E+05   -0.565412564205970375E+04   -0.182636591954129517E+04    0.150472112930296845E+03    0.116715343871749537E+05    0.904132798983719823E+02
    0.574944564065917207E+00    0.783541321387670280E+02    0.186952530690346030E+02    0.607128973894127544E+01   -0.995359280565003428E+04   -0.559822080202987308E+04   -0.180949072846456056E+04    0.149283391881219444E+03    0.115550813435594846E+05    0.904252435404269050E+02
    0.558862378315649888E+00    0.783488746754909755E+02    0.187157276548873703E+02    0.704758849462853743E+01   -0.993389773718330616E+04   -0.558986901358645355E+04   -0.180568666973275640E+04    0.148691733492738905E+03    0.115359645515017473E+05    0.904377367538440637E+02
    0.557851001642188815E+00    0.783222440569177536E+02    0.187272737324090635E+02    0.697774353485500765E+01   -0.100285642257681193E+05   -0.563439722970469575E+04   -0.181979033254094247E+04    0.149830825921423838E+03    0.116294948716445342E+05    0.904972919379166996E+02
    0.539559498545773120E+00    0.782865854492797411E+02    0.185829651152164104E+02    0.662164310880731133E+01   -0.103089049154413005E+05   -0.576796975438743266E+04   -0.185954724713317933E+04    0.152509773792817782E+03    0.119071348861635943E+05    0.905236260626451070E+02
    0.539559498545773120E+00    0.782865854492797411E+02    0.185829651152164104E+02    0.662164310880731133E+01   -0.103089049154413005E+05   -0.576796975438743266E+04   -0.185954724713317933E+04    0.152509773792817782E+03    0.119071348861635943E+05    0.905236260626451070E+02
    0.563147319498120913E+00    0.782506251672315472E+02    0.188689848727739893E+02    0.655480256211743040E+01   -0.100594803627162455E+05   -0.564888747676641924E+04   -0.182440097515872526E+04    0.150217976051433851E+03    0.116600280206817861E+05    0.905379895188331574E+02
    0.563147319498120913E+00    0.782506251672315472E+02    0.188689848727739893E+02    0.655480256211743040E+01   -0.100594803627162455E+05   -0.564888747676641924E+04   -0.182440097515872526E+04    0.150217976051433851E+03    0.116600280206817861E+05    0.905379895188331574E+02
    0.544906778984205697E+00    0.783158330900433270E+02    0.186256565566694654E+02    0.725896942214005580E+01   -0.100267327766346243E+05   -0.563455763372743786E+04   -0.181846930623315598E+04    0.149406578288464033E+03    0.116280725178568391E+05    0.905493344040406782E+02
    0.544906778984205697E+00    0.783158330900433270E+02    0.186256565566694654E+02    0.725896942214005580E+01   -0.100267327766346243E+05   -0.563455763372743786E+04   -0.181846930623315598E+04    0.149406578288464033E+03    0.116280725178568391E+05    0.905493344040406782E+02
    0.548454912281936102E+00    0.783241034307333450E+02    0.187796810378001737E+02    0.713656315563724597E+01   -0.101524591529593417E+05   -0.569370838631136758E+04   -0.183702727064169312E+04    0.150900981651240812E+03    0.117523058326765513E+05    0.905530138749593760E+02
    0.582543674946013446E+00    0.783332693171766010E+02    0.188469201949670726E+02    0.614255779254270884E+01   -0.981063682223456817E+04   -0.553062423421393760E+04   -0.178874180739375106E+04    0.147716400272040062E+03    0.114136991465983010E+05    0.906095649545263768E+02
    0.587537591358620159E+00    0.783742386609496435E+02    0.188925405190795708E+02    0.586584231835676739E+01   -0.983631943919801779E+04   -0.554231547410075746E+04   -0.179282299868874429E+04    0.148165667619927262E+03    0.114389385430549064E+05    0.906096558343880361E+02
    0.550428096519567589E+00    0.783309895769965010E+02    0.189032115770177107E+02    0.710373280233879978E+01   -0.100711992299940575E+05   -0.565508392791290953E+04   -0.182542891441324218E+04    0.150086932861689860E+03    0.116718676634463209E+05    0.906767959633394440E+02
    0.550428096519567589E+00    0.783309895769965010E+02    0.189032115770177107E+02    0.710373280233879978E+01   -0.100711992299940575E+05   -0.565508392791290953E+04   -0.182542891441324218E+04    0.150086932861689860E+03    0.116718676634463209E+05    0.906767959633394440E+02
    0.543127814448596147E+00    0.783209912479306638E+02    0.186320949275717638E+02    0.674190564549548288E+01   -0.100750234408130946E+05   -0.565766118120729971E+04   -0.182526879407152023E+04    0.149834565441160578E+03    0.116759336751659703E+05    0.907020591359846122E+02
    0.552895151400905616E+00    0.783447706285388108E+02    0.187794128396961781E+02    0.692537175448394127E+01   -0.101986926824397378E+05   -0.571488936849402126E+04   -0.184443003242562122E+04    0.151672934477532635E+03    0.117977760264772060E+05    0.907214453715864835E+02
    0.552895151400905616E+00    0.783447706285388108E+02    0.187794128396961781E+02    0.692537175448394127E+01   -0.101986926824397378E+05   -0.571488936849402126E+04   -0.184443003242562122E+04    0.151672934477532635E+03    0.117977760264772060E+05    0.907214453715864835E+02
    0.563946967493405116E+00    0.783036124061688810E+02    0.187223340472573128E+02    0.676312356161888051E+01   -0.998096656546850863E+04   -0.561194043465625418E+04   -0.181281541912969578E+04    0.149290324885343239E+03    0.115824382762529021E+05    0.907495773389721734E+02
    0.536626487806559860E+00    0.782243357258626872E+02    0.187058286212316958E+02    0.741767869342348796E+01   -0.103384706004120271E+05   -0.578103859173423007E+04   -0.186472868033274790E+04    0.153196993168766653E+03    0.119360160184450397E+05    0.907648733067956783E+02
    0.565040608931391408E+00    0.783207096715782143E+02    0.188182954682300263E+02    0.657208934995269622E+01   -0.997684621609377609E+04   -0.560941141221974976E+04   -0.181273399337507180E+04    0.149470738568521455E+03    0.115781403886591306E+05    0.907834452078740242E+02
    0.565040608931391408E+00    0.783207096715782143E+02    0.188182954682300263E+02    0.657208934995269622E+01   -0.997684621609377609E+04   -0.560941141221974976E+04   -0.181273399337507180E+04    0.149470738568521455E+03    0.115781403886591306E+05    0.907834452078740242E+02
    0.545805394473187877E+00    0.782352446090766591E+02    0.186343626191026566E+02    0.691859205733181248E+01   -0.102694517370629637E+05   -0.574822224369519972E+04   -0.185491588365631128E+04    0.152513387391700775E+03    0.118676877161732173E+05    0.908346930255555662E+02
    0.555394469297028737E+00    0.783088829297699363E+02    0.186880339260457440E+02    0.640138873122536189E+01   -0.100631991617990479E+05   -0.565080957473906528E+04   -0.182469713372742171E+04    0.150190291658330068E+03    0.116637656451756375E+05    0.908559888657529768E+02
    0.541827747816087668E+00    0.783271583879438964E+02    0.188000069916085693E+02    0.736216728193387926E+01   -0.101406908974961916E+05   -0.568801360882210429E+04   -0.183541587131202232E+04    0.150824214678812496E+03    0.117406134295726024E+05    0.908626605909736043E+02
    0.552565533537131559E+00    0.782359784518216941E+02    0.187475647319046637E+02    0.687547367881602423E+01   -0.101652330230168700E+05   -0.569895621108209616E+04   -0.183973757803078070E+04    0.151361964653369000E+03    0.117646252858339376E+05    0.908740398664874220E+02
    0.552565533537131559E+00    0.782359784518216941E+02    0.187475647319046637E+02    0.687547367881602423E+01   -0.101652330230168700E+05   -0.569895621108209616E+04   -0.183973757803078070E+04    0.151361964653369000E+03    0.117646252858339376E+05    0.908740398664874220E+02
    0.544285208417613964E+00    0.783279384707680038E+02    0.187920666412149160E+02    0.733985623499489748E+01   -0.100045371869584014E+05   -0.562398398900281973E+04   -0.181531127838032080E+04    0.149192531368306163E+03    0.116060941836610891E+05    0.908872779593833826E+02
    0.545723925667928822E+00    0.782893843553038096E+02    0.186798660016458626E+02    0.748103981713902222E+01   -0.102515750832289759E+05   -0.573986365973961074E+04   -0.185217311430898690E+04    0.152273698588243263E+03    0.118500519280356530E+05    0.909006908102428355E+02
    0.559107703327541228E+00    0.783117136045531339E+02    0.187512677718762397E+02    0.706721083147296714E+01   -0.991322923402612469E+04   -0.558026714907042606E+04   -0.180260720133427117E+04    0.148406997898329706E+03    0.115155814553846067E+05    0.909022156531955829E+02
    0.557461126409291685E+00    0.783787378840396372E+02    0.187571258676270958E+02    0.702193922513572844E+01   -0.999022849158511599E+04   -0.561664695582354761E+04   -0.181370857218254218E+04    0.149253253582691002E+03    0.115917312043706370E+05    0.909037054136683338E+02
    0.557461126409291685E+00    0.783787378840396372E+02    0.187571258676270958E+02    0.702193922513572844E+01   -0.999022849158511599E+04   -0.561664695582354761E+04   -0.181370857218254218E+04    0.149253253582691002E+03    0.115917312043706370E+05    0.909037054136683338E+02
    0.543589015092849293E+00    0.783096647132060752E+02    0.187137911664970780E+02    0.713239547174790456E+01   -0.102873530921848105E+05   -0.575727467715904550E+04   -0.185682009216948882E+04    0.152464124987324681E+03    0.118856337683156344E+05    0.909057745314387944E+02
    0.552582571453654636E+00    0.783057894712245286E+02    0.187254702825752055E+02    0.699016495497162715E+01   -0.101816371813620572E+05   -0.570706684346128804E+04   -0.184174059655536757E+04    0.151396641450983822E+03    0.117809915246809796E+05    0.909616438417399280E+02
    0.545450234484621266E+00    0.783197204523933266E+02    0.187269388494217104E+02    0.695414495680890976E+01   -0.102682470929839656E+05   -0.574837005150092864E+04   -0.185396321422424921E+04    0.152206054615764401E+03    0.118667885036181051E+05    0.909720760517257219E+02
    0.571480171359823097E+00    0.783609017820061666E+02    0.188287578389980368E+02    0.651626202695290591E+01   -0.985643967104241347E+04   -0.555281240030806202E+04   -0.179481375589162303E+04    0.148006113227223835E+03    0.114592019080517057E+05    0.909784197371729277E+02
    0.552149211929303441E+00    0.782734968188826201E+02    0.188062778863120279E+02    0.709659999407495246E+01   -0.101760911398763365E+05   -0.570424407834664635E+04   -0.184114200382223316E+04    0.151417243063684850E+03    0.117754270260830635E+05    0.909794863302750798E+02
    0.552149211929303441E+00    0.782734968188826201E+02    0.188062778863120279E+02    0.709659999407495246E+01   -0.101760911398763365E+05   -0.570424407834664635E+04   -0.184114200382223316E+04    0.151417243063684850E+03    0.117754270260830635E+05    0.909794863302750798E+02
    0.556114144268079480E+00    0.783340774385770118E+02    0.186976100449266305E+02    0.694112552679377881E+01   -0.101717201240222967E+05   -0.570218330927697298E+04   -0.184046720599117862E+04    0.151360215945452040E+03    0.117711154952638717E+05    0.909987937600152890E+02
    0.556114144268079480E+00    0.783340774385770118E+02    0.186976100449266305E+02    0.694112552679377881E+01   -0.101717201240222967E+05   -0.570218330927697298E+04   -0.184046720599117862E+04    0.151360215945452040E+03    0.117711154952638717E+05    0.909987937600152890E+02
    0.556996162221114588E+00    0.783858747175852955E+02    0.186596463686388780E+02    0.681411295076381318E+01   -0.100580301904902008E+05   -0.564853641258937296E+04   -0.182376538576175244E+04    0.150066271925276425E+03    0.116587199641977131E+05    0.910141268438518978E+02
    0.574137639705496805E+00    0.783447189480424697E+02    0.187971902895679470E+02    0.655864988624364642E+01   -0.995254826904839138E+04   -0.559781500654741103E+04   -0.180923341148004351E+04    0.149236741323696123E+03    0.115540823035542107E+05    0.910184402121511624E+02
    0.574137639705496805E+00    0.783447189480424697E+02    0.187971902895679470E+02    0.655864988624364642E+01   -0.995254826904839138E+04   -0.559781500654741103E+04   -0.180923341148004351E+04    0.149236741323696123E+03    0.115540823035542107E+05    0.910184402121511624E+02
    0.551747736823773538E+00    0.783013891566452855E+02    0.188430802207502559E+02    0.678269270932795632E+01   -0.102977572982017064E+05   -0.576166983514300500E+04   -0.185889771535643877E+04    0.152785308902807230E+03    0.118957261814162721E+05    0.910215202067324185E+02
    0.551277738068551182E+00    0.783233040967051437E+02    0.188123803028332688E+02    0.719269601722948604E+01   -0.100749121689237509E+05   -0.565646076667356101E+04   -0.182633789755695580E+04    0.150282656705777299E+03    0.116753846038375450E+05    0.910711382126211788E+02
    0.551277738068551182E+00    0.783233040967051437E+02    0.188123803028332688E+02    0.719269601722948604E+01   -0.100749121689237509E+05   -0.565646076667356101E+04   -0.182633789755695580E+04    0.150282656705777299E+03    0.116753846038375450E+05    0.910711382126211788E+02
    0.545278801023950543E+00    0.782671590497547811E+02    0.185697978039474343E+02    0.681140318293609326E+01   -0.102859297698482442E+05   -0.575664363019787106E+04   -0.185664326355725530E+04    0.152439163822407778E+03    0.118842341892929253E+05    0.910822791430044987E+02
    0.549522377442374532E+00    0.783233539495642219E+02    0.187817540742063613E+02    0.740872750053987339E+01   -0.100849444096038587E+05   -0.566165698048418835E+04   -0.182738973149063236E+04    0.150213667492779024E+03    0.116854825896669827E+05    0.910852884830012357E+02
    0.551129259624200563E+00    0.783410060801512884E+02    0.187141116421818730E+02    0.645403176346889573E+01   -0.100952378123838062E+05   -0.566649300752649378E+04   -0.182890968069253267E+04    0.150340125104224256E+03    0.116956505871590743E+05    0.910991462993736150E+02
    0.562048801942413467E+00    0.783412570842029083E+02    0.188439716835404099E+02    0.618190643407822193E+01   -0.993325022209192502E+04   -0.558968184563010800E+04   -0.180554501597248168E+04    0.148642752132720915E+03    0.115353689895111675E+05    0.911045807446462987E+02
    0.573266448841822096E+00    0.783323321820946887E+02    0.188628711542420398E+02    0.625003090208483947E+01   -0.100398292340674543E+05   -0.563886677100443922E+04   -0.182213833532589865E+04    0.150276457645896727E+03    0.116403271424688992E+05    0.911050581127671819E+02
    0.573266448841822096E+00    0.783323321820946887E+02    0.188628711542420398E+02    0.625003090208483947E+01   -0.100398292340674543E+05   -0.563886677100443922E+04   -0.182213833532589865E+04    0.150276457645896727E+03    0.116403271424688992E+05    0.911050581127671819E+02
    0.560390268257758617E+00    0.783435522747022475E+02    0.186586778358944017E+02    0.643529479748632394E+01   -0.998670038821370144E+04   -0.561464023537518187E+04   -0.181353084476547474E+04    0.149348476473062732E+03    0.115881111420085963E+05    0.911284967208983971E+02
    0.545961214739850598E+00    0.783478851102986624E+02    0.185401240834007801E+02    0.692707879738326149E+01   -0.101235527032732971E+05   -0.568014658919117301E+04   -0.183274968008990959E+04    0.150547342216482377E+03    0.117237500599045961E+05    0.911458945749220533E+02
    0.557186176850010928E+00    0.782714556577081737E+02    0.187774011587216343E+02    0.713761097497456731E+01   -0.101257309514662247E+05   -0.568022997203556770E+04   -0.183398532525571136E+04    0.150939077156160238E+03    0.117255494797359843E+05    0.911583180479305071E+02
    0.548064986314939828E+00    0.783387150581986589E+02    0.187496255925902027E+02    0.649683178164484865E+01   -0.101789272089633250E+05   -0.570614105724408182E+04   -0.184101436561667970E+04    0.151228875049951938E+03    0.117784480335693079E+05    0.911659111981415009E+02
    0.550830655180615358E+00    0.782596869553211860E+02    0.187797825191428771E+02    0.682069700092184128E+01   -0.103245495380798420E+05   -0.577393882924767968E+04   -0.186313032590999455E+04    0.153234934834801635E+03    0.119220675516259362E+05    0.911701380126975778E+02
    0.552317490571101022E+00    0.782788770136678096E+02    0.188512140962330257E+02    0.649183362797259456E+01   -0.102392546368176136E+05   -0.573382499460748204E+04   -0.185060431045311975E+04    0.152221466236219328E+03    0.118377883788668769E+05    0.911914253894345563E+02
    0.533738678745211415E+00    0.782858966636933218E+02    0.186664087667019842E+02    0.764114040611775547E+01   -0.102905942700606320E+05   -0.575894117977613223E+04   -0.185724251745186348E+04    0.152456671741675962E+03    0.118888766557918552E+05    0.912158562938277413E+02
    0.576740122430461022E+00    0.783494317048181870E+02    0.188413402122886211E+02    0.627106756905403007E+01   -0.988949833088376727E+04   -0.556782737481434924E+04   -0.180021528467374037E+04    0.148611136738794130E+03    0.114916634874133288E+05    0.912360565667264467E+02
    0.557450611622940295E+00    0.783315134734986600E+02    0.186609192678794180E+02    0.645429250082587558E+01   -0.101052823136774878E+05   -0.567106965755878628E+04   -0.183053207656603013E+04    0.150516863064800390E+03    0.117055199533172272E+05    0.912855882104202294E+02
    0.559878840678227352E+00    0.783336932875062786E+02    0.187293637075395090E+02    0.646968479790495099E+01   -0.100143888927781882E+05   -0.562721885481069876E+04   -0.181806646933587490E+04    0.149855003993011223E+03    0.116152964281738405E+05    0.912887466957440239E+02
    0.527726543386456415E+00    0.782771919127135902E+02    0.187003578322068691E+02    0.777888299245587778E+01   -0.103706994397343406E+05   -0.579709498775249995E+04   -0.186866917429916066E+04    0.153233817746336513E+03    0.119681998138916915E+05    0.913055567920021360E+02
    0.551977972921857574E+00    0.783566266205130830E+02    0.186399398055145795E+02    0.630077001284560190E+01   -0.101308922213586739E+05   -0.568308080191848148E+04   -0.183431839506335768E+04    0.150834208083640561E+03    0.117308098278149009E+05    0.913137604919168666E+02
    0.571601915782743331E+00    0.783516180560445434E+02    0.187316904958792136E+02    0.618666608249194194E+01   -0.996492492949309963E+04   -0.560360556976668340E+04   -0.181105447197945296E+04    0.149394505540417526E+03    0.115662993736228673E+05    0.913335515201676884E+02
    0.571601915782743331E+00    0.783516180560445434E+02    0.187316904958792136E+02    0.618666608249194194E+01   -0.996492492949309963E+04   -0.560360556976668340E+04   -0.181105447197945296E+04    0.149394505540417526E+03    0.115662993736228673E+05    0.913335515201676884E+02
    0.565371964705528529E+00    0.783717664171859809E+02    0.188531336627864050E+02    0.667321050312409270E+01   -0.100538170832038541E+05   -0.564587008065330883E+04   -0.182375925303366603E+04    0.150277009801708630E+03    0.116543061628017549E+05    0.913714618631121880E+02
    0.535314076009391293E+00    0.782904881016059733E+02    0.187825747722772896E+02    0.745585584062733009E+01   -0.102737657324499560E+05   -0.575099049940278474E+04   -0.185477133913099738E+04    0.152269062891085071E+03    0.118722366274640190E+05    0.913762012255089360E+02
    0.556304708800146264E+00    0.783646353509285092E+02    0.186279959456256492E+02    0.679858614848631415E+01   -0.993004838243398808E+04   -0.558850972746450498E+04   -0.180468511094003861E+04    0.148470138362804448E+03    0.115323326453521913E+05    0.914046125492794630E+02
    0.554007903369905463E+00    0.783867404635745544E+02    0.188339013734195788E+02    0.713748479803466385E+01   -0.100339073109773381E+05   -0.563740673104634425E+04   -0.182000196657370861E+04    0.149691806863553268E+03    0.116349710905712909E+05    0.914122671345002686E+02
    0.554267441057784360E+00    0.783505884779533659E+02    0.187440534383035953E+02    0.653235546801148015E+01   -0.100587643228308916E+05   -0.564941400312691349E+04   -0.182343322353460621E+04    0.149872276363194942E+03    0.116596455927403076E+05    0.914884593950030052E+02
    0.554267441057784360E+00    0.783505884779533659E+02    0.187440534383035953E+02    0.653235546801148015E+01   -0.100587643228308916E+05   -0.564941400312691349E+04   -0.182343322353460621E+04    0.149872276363194942E+03    0.116596455927403076E+05    0.914884593950030052E+02
    0.570149092238414590E+00    0.783338862529833193E+02    0.187538173529461858E+02    0.609033604697624753E+01   -0.989424766464712957E+04   -0.557055366334796508E+04   -0.180044998971946870E+04    0.148476231595161664E+03    0.114965399885516690E+05    0.915060175038083230E+02
    0.570149092238414590E+00    0.783338862529833193E+02    0.187538173529461858E+02    0.609033604697624753E+01   -0.989424766464712957E+04   -0.557055366334796508E+04   -0.180044998971946870E+04    0.148476231595161664E+03    0.114965399885516690E+05    0.915060175038083230E+02
    0.532931029669217904E+00    0.782636015948701385E+02    0.185631827345077411E+02    0.760036077224251638E+01   -0.103365225589278762E+05   -0.578070326293730341E+04   -0.186387442158084332E+04    0.152944550965468096E+03    0.119343151005121126E+05    0.915079699010114354E+02
    0.532931029669217904E+00    0.782636015948701385E+02    0.185631827345077411E+02    0.760036077224251638E+01   -0.103365225589278762E+05   -0.578070326293730341E+04   -0.186387442158084332E+04    0.152944550965468096E+03    0.119343151005121126E+05    0.915079699010114354E+02
    0.558908612892665024E+00    0.783062987691081105E+02    0.188132442528224786E+02    0.663138798577197175E+01   -0.101832316688463834E+05   -0.570673782933528128E+04   -0.184299629875419305E+04    0.151838593814645265E+03    0.117821540350722171E+05    0.915154626056770155E+02
    0.555998194187564465E+00    0.782334386044780672E+02    0.186990799845870619E+02    0.645748963068266679E+01   -0.102794920914862778E+05   -0.575237601783085483E+04   -0.185688668337824856E+04    0.152845671001554962E+03    0.118774048159817175E+05    0.915557075864131207E+02
    0.556824290363127195E+00    0.782907373376629607E+02    0.187134081207162524E+02    0.641950067543793335E+01   -0.101903170262312706E+05   -0.571065675853161974E+04   -0.184342600192078862E+04    0.151688385471030017E+03    0.117893853008310834E+05    0.915754109470490221E+02
    0.549640586248053120E+00    0.782868196452367329E+02    0.186167005197803093E+02    0.680537721974638377E+01   -0.101636920173305862E+05   -0.569844150407271536E+04   -0.183919270068241667E+04    0.151250385676730019E+03    0.117631920178631135E+05    0.915918717230507156E+02
    0.549640586248053120E+00    0.782868196452367329E+02    0.186167005197803093E+02    0.680537721974638377E+01   -0.101636920173305862E+05   -0.569844150407271536E+04   -0.183919270068241667E+04    0.151250385676730019E+03    0.117631920178631135E+05    0.915918717230507156E+02
    0.564317357791921381E+00    0.783320350663161378E+02    0.188450136757995814E+02    0.644124398375633511E+01   -0.100662698206026616E+05   -0.565155316529521951E+04   -0.182577923085603061E+04    0.150497820021901873E+03    0.116665381295011048E+05    0.916009362149537907E+02
    0.530145878170399487E+00    0.782457669250457002E+02    0.186277592911552041E+02    0.736624935284601889E+01   -0.103807766045474254E+05   -0.580182931956117500E+04   -0.187011122345013291E+04    0.153350548404760701E+03    0.119781612202304732E+05    0.916024616492467487E+02
    0.549429029285958381E+00    0.783305326383652414E+02    0.185578603595071705E+02    0.652666398957323501E+01   -0.101485341331199070E+05   -0.569160810807339567E+04   -0.183670729410649483E+04    0.150958015106228657E+03    0.117483232758555441E+05    0.916295664930088520E+02
    0.549429029285958381E+00    0.783305326383652414E+02    0.185578603595071705E+02    0.652666398957323501E+01   -0.101485341331199070E+05   -0.569160810807339567E+04   -0.183670729410649483E+04    0.150958015106228657E+03    0.117483232758555441E+05    0.916295664930088520E+02
    0.545223823277957154E+00    0.783208776331781138E+02    0.187881735102454570E+02    0.733573244029239291E+01   -0.101518795869824717E+05   -0.569279351425251025E+04   -0.183757706844284849E+04    0.151149957904113108E+03    0.117514819077218199E+05    0.916439081307048582E+02
    0.565180628569020183E+00    0.783211497371386542E+02    0.187752517735530695E+02    0.611361338944509658E+01   -0.101158174005451838E+05   -0.567545674482167942E+04   -0.183262242139898490E+04    0.150860914843057401E+03    0.117157189088005816E+05    0.916511695127739472E+02
    0.543054500136023854E+00    0.783271345872777829E+02    0.186178529260814543E+02    0.719414427690018687E+01   -0.100252406370694844E+05   -0.563379916678588779E+04   -0.181835227890486362E+04    0.149418340851523737E+03    0.116265673922550322E+05    0.916728508934852044E+02
    0.560988685732149106E+00    0.783288797879426397E+02    0.188203977200181107E+02    0.657366278992607000E+01   -0.995027547575995413E+04   -0.559781435960547878E+04   -0.180798704631489318E+04    0.148801210217165334E+03    0.115522350454254120E+05    0.916811119269397352E+02
    0.544596616367157171E+00    0.782725358851773336E+02    0.187054943737385670E+02    0.709517169439584894E+01   -0.103762712802161968E+05   -0.579902849971243631E+04   -0.187013384310562537E+04    0.153561551911601043E+03    0.119734565219696397E+05    0.916830758357851039E+02
    0.543444655488014905E+00    0.783222221861946792E+02    0.187551844578905431E+02    0.713537640143777629E+01   -0.101759141795780033E+05   -0.570452046051452089E+04   -0.184067799586986348E+04    0.151265378380139737E+03    0.117753979306576894E+05    0.917027421124594753E+02
    0.544821058927024593E+00    0.783455585723558698E+02    0.186839643875533206E+02    0.699362449674059938E+01   -0.101781657023474745E+05   -0.570583581080508338E+04   -0.184083239707906614E+04    0.151200682238468119E+03    0.117777108181323620E+05    0.917561173683784403E+02
    0.573304315930410424E+00    0.783263633829566004E+02    0.187903750638035874E+02    0.663193599405640377E+01   -0.991965541429279256E+04   -0.558235396283746468E+04   -0.180442328670764596E+04    0.148843000670140839E+03    0.115215857558307271E+05    0.917898150102901553E+02
    0.559005785554431478E+00    0.783878170437278641E+02    0.188235158359784549E+02    0.702083208281964843E+01   -0.100088212598328992E+05   -0.562512356432455090E+04   -0.181674855821849314E+04    0.149581252213866662E+03    0.116100011555175843E+05    0.918635790142288613E+02
    0.551865570481824053E+00    0.782962924148812363E+02    0.187546494065428071E+02    0.720892360039610569E+01   -0.100691798135783392E+05   -0.565394175211253696E+04   -0.182535211336979614E+04    0.150146665462534173E+03    0.116697859907216207E+05    0.918678837630286722E+02
    0.551865570481824053E+00    0.782962924148812363E+02    0.187546494065428071E+02    0.720892360039610569E+01   -0.100691798135783392E+05   -0.565394175211253696E+04   -0.182535211336979614E+04    0.150146665462534173E+03    0.116697859907216207E+05    0.918678837630286722E+02
    0.554245399927779436E+00    0.782913404832449942E+02    0.187037892322550441E+02    0.638914410958353329E+01   -0.102258874231768677E+05   -0.572765167169880897E+04   -0.184851939146202926E+04    0.152017103730223113E+03    0.118246232151836630E+05    0.918756829523037766E+02
    0.543204741544440428E+00    0.782767873455796490E+02    0.186321821392708102E+02    0.714316319235915209E+01   -0.101906182318369574E+05   -0.571154656693965899E+04   -0.184284167208678946E+04    0.151408955015850808E+03    0.117899534478635269E+05    0.918877008206415127E+02
    0.543204741544440428E+00    0.782767873455796490E+02    0.186321821392708102E+02    0.714316319235915209E+01   -0.101906182318369574E+05   -0.571154656693965899E+04   -0.184284167208678946E+04    0.151408955015850808E+03    0.117899534478635269E+05    0.918877008206415127E+02
    0.559631550702750502E+00    0.783475971706321985E+02    0.186902387207230447E+02    0.682577709471252625E+01   -0.992483165600815482E+04   -0.558564805883024383E+04   -0.180437541168933694E+04    0.148572157246246661E+03    0.115270206204819769E+05    0.918964906035248390E+02
    0.559631550702750502E+00    0.783475971706321985E+02    0.186902387207230447E+02    0.682577709471252625E+01   -0.992483165600815482E+04   -0.558564805883024383E+04   -0.180437541168933694E+04    0.148572157246246661E+03    0.115270206204819769E+05    0.918964906035248390E+02
    0.558678889739476547E+00    0.784027231032360845E+02    0.188370124409409918E+02    0.664849807871401399E+01   -0.983515186705079032E+04   -0.554371535494790260E+04   -0.179083395493757030E+04    0.147399352506669800E+03    0.114385118821572432E+05    0.919072302764943174E+02
    0.540711030804301940E+00    0.783298478311051838E+02    0.187285570535241490E+02    0.727133962914637966E+01   -0.101968893987113024E+05   -0.571482516864596255E+04   -0.184337194952418895E+04    0.151348973293323183E+03    0.117962821044416232E+05    0.919224833043068514E+02
    0.560803960656717115E+00    0.783499193246417178E+02    0.187763187104232045E+02    0.650482914638604548E+01   -0.100515292470328986E+05   -0.564560324043543915E+04   -0.182268430153713143E+04    0.149936608305884931E+03    0.116523514785317511E+05    0.919426429073809430E+02
    0.537850672683251485E+00    0.782983567002499115E+02    0.186413306906886866E+02    0.734659147671181945E+01   -0.103470199426018280E+05   -0.578567654581817715E+04   -0.186541920346864003E+04    0.153056318388601994E+03    0.119447036788147507E+05    0.919779559241501090E+02
    0.569468865693917747E+00    0.783063537990962004E+02    0.188450114116267535E+02    0.622958172992958037E+01   -0.996986774883300131E+04   -0.560654036747734699E+04   -0.181132904168357095E+04    0.149223135056600000E+03    0.115714127228553498E+05    0.919801470298860835E+02
    0.553623503359917501E+00    0.783838103412589788E+02    0.187365259823314254E+02    0.661914996554162194E+01   -0.100567748411934481E+05   -0.564832127291975576E+04   -0.182323078368907295E+04    0.149904340424874050E+03    0.116576221899838238E+05    0.919832243520661166E+02
    0.551775933948207786E+00    0.782446677856121937E+02    0.187491629261844821E+02    0.674023191025323332E+01   -0.103314021626735830E+05   -0.577746179687116091E+04   -0.186396529614154315E+04    0.153207297231012063E+03    0.119289484250059886E+05    0.919925366534143194E+02
    0.545209244695035400E+00    0.783580424514144198E+02    0.187159244576392787E+02    0.728324359027811852E+01   -0.101361440550996867E+05   -0.568596780789209333E+04   -0.183473692678102952E+04    0.150737983763577347E+03    0.117361543310639572E+05    0.920111127471283794E+02
    0.537895045846546904E+00    0.783521179041561737E+02    0.186309247014142194E+02    0.742641629624016009E+01   -0.101274507995973327E+05   -0.568215580259946546E+04   -0.183309964522313362E+04    0.150522175905981413E+03    0.117276687695723558E+05    0.920168554882920233E+02
    0.539256830808056087E+00    0.782960841336101652E+02    0.187614384351204144E+02    0.722157998374905219E+01   -0.101078186340359080E+05   -0.567277825400582697E+04   -0.183039417365407735E+04    0.150347007992949273E+03    0.117082159777419511E+05    0.920198746619500696E+02
    0.567788731984440020E+00    0.783029096773925204E+02    0.188447506290712639E+02    0.667304580404450398E+01   -0.996567152234992682E+04   -0.560418363586170017E+04   -0.181106792159119186E+04    0.149323580554693137E+03    0.115671186431343540E+05    0.920427325843503894E+02
    0.564702738103661339E+00    0.782833949022258082E+02    0.187372885316424167E+02    0.650414447514101646E+01   -0.100865709017654863E+05   -0.566130797165878448E+04   -0.182872531533644042E+04    0.150670742853543771E+03    0.116866646453747380E+05    0.920611630989522780E+02
    0.553851023266970555E+00    0.783160825495574642E+02    0.186652143851481291E+02    0.639970614479149091E+01   -0.100990134276923818E+05   -0.566784806399124318E+04   -0.182986587250181037E+04    0.150548663404195821E+03    0.116992208904133749E+05    0.921300540679765732E+02
    0.543730522232642843E+00    0.783270546128518106E+02    0.186562554617922984E+02    0.679280121464322750E+01   -0.100829500399202207E+05   -0.566126728391675897E+04   -0.182651312665975593E+04    0.149973246251822786E+03    0.116837197233417264E+05    0.921312797353345729E+02
    0.565599935600449077E+00    0.783170962951679712E+02    0.189217452148376317E+02    0.660599792989096279E+01   -0.100708300781859143E+05   -0.565386072759589842E+04   -0.182634231013020008E+04    0.150490138603414493E+03    0.116711062637850246E+05    0.921519594393845694E+02
    0.577617102019933104E+00    0.783222557779749451E+02    0.188117172875767338E+02    0.623695646409414461E+01   -0.993516925580917632E+04   -0.558936088400953759E+04   -0.180700638626626392E+04    0.149141804133495555E+03    0.115368041730372679E+05    0.921545802574837865E+02
    0.558108393054680296E+00    0.782982621615089442E+02    0.186748161229214240E+02    0.653071388903692096E+01   -0.100832394960033780E+05   -0.566026202749131789E+04   -0.182770177772982947E+04    0.150424621760684914E+03    0.116835722639715259E+05    0.921549462401805926E+02
    0.547429601038540992E+00    0.782848216159359538E+02    0.188092914611877013E+02    0.702102443674544574E+01   -0.103126843616507049E+05   -0.576872579912433139E+04   -0.186111081215874333E+04    0.152956578452378608E+03    0.119104795879967824E+05    0.921789659208149317E+02
    0.555135301744316578E+00    0.783477192972862184E+02    0.187584977196840690E+02    0.671477075430178516E+01   -0.101498257799562271E+05   -0.569169480475748423E+04   -0.183737604683543213E+04    0.151172054726049680E+03    0.117494111414656891E+05    0.922112902483090267E+02
    0.561426488951447311E+00    0.783395452748510763E+02    0.187929254754606170E+02    0.634808046293305317E+01   -0.994570450238606827E+04   -0.559559484468361370E+04   -0.180731773411234349E+04    0.148769467193044164E+03    0.115476941300720318E+05    0.922182624385034586E+02
    0.566669824952656942E+00    0.783258653661573589E+02    0.189204146338295658E+02    0.627676582243643644E+01   -0.100383399095229033E+05   -0.563844630592808153E+04   -0.182165108066892640E+04    0.150151704989523523E+03    0.116389567872428997E+05    0.922211754312440064E+02
    0.563303973893096388E+00    0.783474922618607081E+02    0.187719516556381336E+02    0.650486060225611684E+01   -0.101242118899771958E+05   -0.567921650550544200E+04   -0.183398108120601455E+04    0.151031745976324430E+03    0.117239412676086868E+05    0.922579703850339428E+02
    0.553394136503560508E+00    0.783258338147765159E+02    0.187774184882947672E+02    0.631782905003482931E+01   -0.101503825768452134E+05   -0.569200767461047963E+04   -0.183740368966116762E+04    0.151159847563304140E+03    0.117499770807728310E+05    0.922703158595846133E+02
    0.549024891175486029E+00    0.783134359263601425E+02    0.187879505544754082E+02    0.703207755030692550E+01   -0.102431725558029721E+05   -0.573584956290070113E+04   -0.185094628724612153E+04    0.152193171341672013E+03    0.118417295486678959E+05    0.923020030461375853E+02
    0.557678315482898035E+00    0.782693971924975784E+02    0.187298409300747295E+02    0.667979709337832261E+01   -0.101807397343815883E+05   -0.570558456104418110E+04   -0.184257688851140892E+04    0.151799608088698506E+03    0.117796995203055922E+05    0.923149603568648160E+02
    0.548611280303852533E+00    0.782731926754855323E+02    0.186878821730869937E+02    0.726031175387876715E+01   -0.102356928254119903E+05   -0.573218523210012063E+04   -0.185000479069403741E+04    0.152163320133798834E+03    0.118342800870233295E+05    0.923295233211435118E+02
    0.548611280303852533E+00    0.782731926754855323E+02    0.186878821730869937E+02    0.726031175387876715E+01   -0.102356928254119903E+05   -0.573218523210012063E+04   -0.185000479069403741E+04    0.152163320133798834E+03    0.118342800870233295E+05    0.923295233211435118E+02
    0.549144755888540725E+00    0.783322672317977862E+02    0.187049715881908583E+02    0.717489436432684169E+01   -0.100362467297084204E+05   -0.563843988806031211E+04   -0.182041251058966964E+04    0.149750079240454482E+03    0.116372497348051256E+05    0.923423888424005952E+02
    0.571810698663815953E+00    0.783366477273667385E+02    0.189018021713103330E+02    0.652666358110825939E+01   -0.994571871254493817E+04   -0.559448962674592804E+04   -0.180832783751076590E+04    0.149198502179071369E+03    0.115472934639375162E+05    0.923808955129816951E+02
    0.548315134725722686E+00    0.782987550776662999E+02    0.188113931234167424E+02    0.657116135856669370E+01   -0.101901838386069903E+05   -0.571134852817216142E+04   -0.184274347648254388E+04    0.151395957499930546E+03    0.117895374182793257E+05    0.923866547485770297E+02
    0.531682167546953188E+00    0.782744791865075769E+02    0.186591949708446805E+02    0.760885646957747941E+01   -0.102930409636356708E+05   -0.576048995433609525E+04   -0.185721343730606009E+04    0.152330814887921633E+03    0.118914466610034269E+05    0.923999268587785849E+02
    0.557774325986896247E+00    0.783846525843125619E+02    0.187089911052231272E+02    0.668995010674932900E+01   -0.993341614563517214E+04   -0.558972401431294020E+04   -0.180551660462410882E+04    0.148652538406886549E+03    0.115355215845178518E+05    0.924281422171679452E+02
    0.541820313669000297E+00    0.782876769529197531E+02    0.187666433110726238E+02    0.727837598408677167E+01   -0.102182439074835165E+05   -0.572422247802651964E+04   -0.184717637631276511E+04    0.151858879828077221E+03    0.118171339885477355E+05    0.924331951624506161E+02
    0.569680908182775503E+00    0.783356603658309893E+02    0.188456682932233619E+02    0.670460248817283233E+01   -0.993255372414094018E+04   -0.558882376136594485E+04   -0.180591828904497356E+04    0.148836431314421930E+03    0.115344873604094028E+05    0.924344532762623459E+02
    0.552228775845029163E+00    0.783619049301260020E+02    0.187573040758934262E+02    0.668463213212072738E+01   -0.994406530511956225E+04   -0.559538355800709905E+04   -0.180648410751955271E+04    0.148527621206596109E+03    0.115462903944120044E+05    0.924434822541649055E+02
    0.557802265954105536E+00    0.783215323788568440E+02    0.187216745856572935E+02    0.678124884193422073E+01   -0.988615420496638762E+04   -0.556770525249851926E+04   -0.179840743869210201E+04    0.148012820867606422E+03    0.114888989737538541E+05    0.924464549745927258E+02
    0.541691975697330297E+00    0.783472196994951844E+02    0.187240016120478536E+02    0.721601575866091949E+01   -0.101253084846059410E+05   -0.568088825360564351E+04   -0.183312559726647646E+04    0.150604683487285968E+03    0.117254489391592833E+05    0.924590418526785101E+02
    0.558860793661995814E+00    0.783086413796580416E+02    0.188615815309894970E+02    0.659222374755284868E+01   -0.100518693003647641E+05   -0.564549670962355958E+04   -0.182303611497196152E+04    0.150047395523312559E+03    0.116525835554147052E+05    0.924616993400382086E+02
    0.547600021886847865E+00    0.783143214872929718E+02    0.186635572726017642E+02    0.681185885858570650E+01   -0.100477428265253457E+05   -0.564425543561707127E+04   -0.182179348586440597E+04    0.149731956835550648E+03    0.116487613526042387E+05    0.924941801134463617E+02
    0.551047638455178457E+00    0.782889150166536467E+02    0.187889625633267308E+02    0.697326935736704545E+01   -0.100558120818978114E+05   -0.564764745460402537E+04   -0.182334313831704162E+04    0.149982713065508420E+03    0.116565843235721350E+05    0.925042363361865085E+02
    0.543405488280269466E+00    0.783071757604467962E+02    0.186802175715595773E+02    0.732352312957162166E+01   -0.101424223744656956E+05   -0.568868100341437093E+04   -0.183586104105964705E+04    0.150907329737799500E+03    0.117422602760091904E+05    0.925180645279444178E+02
    0.537636203708637073E+00    0.782936364707409496E+02    0.187169011809405887E+02    0.693641372848224069E+01   -0.103356859555389419E+05   -0.578034933240752616E+04   -0.186371897150267409E+04    0.152918002950459851E+03    0.119335082184578769E+05    0.925201523346733552E+02
    0.542836110856393494E+00    0.782586532113505484E+02    0.185909374666492830E+02    0.692607981513381255E+01   -0.102596110657796235E+05   -0.574408576071059906E+04   -0.185298696912411810E+04    0.152200791914503668E+03    0.118581556579525986E+05    0.925376987393791381E+02
    0.569577039863717882E+00    0.783213755741959119E+02    0.188302633812361506E+02    0.623724395529764397E+01   -0.100924536857925341E+05   -0.566359315598146895E+04   -0.182996731827851090E+04    0.150919485108199297E+03    0.116923053229629095E+05    0.925587050826123203E+02
    0.547050595693189479E+00    0.783055234216942182E+02    0.186651020750857235E+02    0.709210784084341483E+01   -0.101801973770818586E+05   -0.570618944552028188E+04   -0.184165061492384098E+04    0.151457046952683783E+03    0.117794885696904930E+05    0.925775837011625811E+02
    0.541329472565714953E+00    0.783594522648178042E+02    0.187668263028959572E+02    0.713215629173007226E+01   -0.100415349759427409E+05   -0.564171928204647884E+04   -0.182046656614380845E+04    0.149506154509950449E+03    0.116427739143150957E+05    0.926083174947434316E+02
    0.563721620895480724E+00    0.783037826937756165E+02    0.188546957888038023E+02    0.677061390777158056E+01   -0.100083599235944093E+05   -0.562444111087401416E+04   -0.181715499640317034E+04    0.149761376888704717E+03    0.116093626622003012E+05    0.926084139496327197E+02
    0.541978692543310325E+00    0.782754534712327370E+02    0.186842417143388850E+02    0.705724566025407185E+01   -0.103776795896535041E+05   -0.579923973868845042E+04   -0.187074482797889482E+04    0.153755853521463223E+03    0.119746699144440281E+05    0.926099520411693646E+02
    0.535789545273924639E+00    0.782859748260960089E+02    0.186407683275025811E+02    0.762227287238938889E+01   -0.102225422500046188E+05   -0.572703207863296484E+04   -0.184710209673710642E+04    0.151606675025053619E+03    0.118216760847899568E+05    0.926178970731687485E+02
    0.559968614264747089E+00    0.783039520124557953E+02    0.188201123486589594E+02    0.688669197439661751E+01   -0.101396493207576896E+05   -0.568636763824266563E+04   -0.183645883144052232E+04    0.151265688426060166E+03    0.117391470262038983E+05    0.926431962494842907E+02
    0.542256017572459115E+00    0.782899639747776064E+02    0.186418012744984374E+02    0.705547600046755718E+01   -0.102667193416140453E+05   -0.574741596640762054E+04   -0.185397957243674227E+04    0.152283670665910563E+03    0.118651798237645671E+05    0.926582472128998802E+02
    0.563163560487622172E+00    0.783112492648864844E+02    0.187915439259358372E+02    0.674128515193935485E+01   -0.101282512081770383E+05   -0.568099533807605167E+04   -0.183472797350294672E+04    0.151127323947109261E+03    0.117278893420766854E+05    0.926720826934404158E+02
    0.533858817234162286E+00    0.782523986101637092E+02    0.186795824243112882E+02    0.736735674427223142E+01   -0.103766023367330836E+05   -0.579957807356515514E+04   -0.186983375178487722E+04    0.153416957745970905E+03    0.119739256744392260E+05    0.926985971468723591E+02
    0.555944007970764154E+00    0.783114940614729704E+02    0.187682692843664505E+02    0.706393919454666452E+01   -0.100270136462504470E+05   -0.563410447695627226E+04   -0.181907480131598254E+04    0.149637037435421348E+03    0.116281323194706565E+05    0.927219037994983353E+02
    0.555491399875169156E+00    0.783060218761394538E+02    0.187113527877164891E+02    0.684925051877674207E+01   -0.101973096418799923E+05   -0.571418160972567330E+04   -0.184425325051003483E+04    0.151678998638232628E+03    0.117963852660253342E+05    0.927223200258256810E+02
    0.548171342802549311E+00    0.783701197195027390E+02    0.187426295784181427E+02    0.710008126303539555E+01   -0.999319967104501848E+04   -0.561841336439831503E+04   -0.181381555335316330E+04    0.149148418587763359E+03    0.115948004807098787E+05    0.927425267361558099E+02
    0.559249367888139393E+00    0.782900675314304095E+02    0.187518227537037703E+02    0.634730496882426287E+01   -0.101732160669734058E+05   -0.570229374113921858E+04   -0.184125629245242976E+04    0.151613934071308108E+03    0.117723609949814127E+05    0.927520209537952240E+02
    0.542659162820605667E+00    0.782944287492386479E+02    0.186066140971776726E+02    0.713351100766160684E+01   -0.102158599493475194E+05   -0.572327750412960359E+04   -0.184669840116618502E+04    0.151767056130535110E+03    0.118148384915179595E+05    0.927845908273959878E+02
    0.542451666627509432E+00    0.783402124282285115E+02    0.187584961264453653E+02    0.739305151996236276E+01   -0.101678996889061636E+05   -0.570064228531344997E+04   -0.183964569558029575E+04    0.151219153502497136E+03    0.117674272972906729E+05    0.927872812380986716E+02
    0.563481179489517148E+00    0.782915258605462583E+02    0.187082102199716367E+02    0.638903345896722730E+01   -0.100044939899048477E+05   -0.562260028063431491E+04   -0.181662600111971210E+04    0.149726805303330138E+03    0.116055305914877827E+05    0.927903393300255743E+02
    0.546231805083562505E+00    0.783777307528111464E+02    0.187049284279285892E+02    0.694095308692637403E+01   -0.101117142793730090E+05   -0.567442984332425385E+04   -0.183106343019559336E+04    0.150455830492795400E+03    0.117120053999594547E+05    0.928385767540904965E+02
    0.561532175794009936E+00    0.783143330824064776E+02    0.187295682293588825E+02    0.639661744964466461E+01   -0.100655243952811015E+05   -0.565152693599476061E+04   -0.182537802096325163E+04    0.150363391245867376E+03    0.116659217503024411E+05    0.928436896343861520E+02
    0.565843527982859085E+00    0.782969080221211016E+02    0.187878225358944810E+02    0.637042437063550793E+01   -0.100194475217891413E+05   -0.562976742475210722E+04   -0.181874348076468527E+04    0.149851358512413697E+03    0.116203626808715126E+05    0.928949782788952660E+02
    0.554849773669989665E+00    0.782907259160336793E+02    0.188066012178152171E+02    0.673150825211316750E+01   -0.101526858233245148E+05   -0.569339906934334886E+04   -0.183749155458388918E+04    0.151065820093871793E+03    0.117523757282630741E+05    0.929302540823873642E+02
    0.540012320885715935E+00    0.783191881129635021E+02    0.187804025495599696E+02    0.694021842641723996E+01   -0.101511113277973764E+05   -0.569320175952807949E+04   -0.183673831240647974E+04    0.150839618599111589E+03    0.117510166190247128E+05    0.929464350757952502E+02
    0.539119588756972967E+00    0.783106903686881850E+02    0.187612812672284015E+02    0.741212241973790409E+01   -0.102123545056800267E+05   -0.572200466459261224E+04   -0.184576655095946421E+04    0.151572021435938836E+03    0.118115253637892692E+05    0.929584289131671255E+02
    0.539062397442045316E+00    0.782863826655302830E+02    0.186719320287909198E+02    0.709066436737279382E+01   -0.102491508917976535E+05   -0.573963723763582402E+04   -0.185097951705343939E+04    0.151888318254280904E+03    0.118480049228438529E+05    0.929628773224846725E+02
    0.559830806420971050E+00    0.783484254267201976E+02    0.187944842426715155E+02    0.678035465706312301E+01   -0.993190063548369108E+04   -0.558923261860814273E+04   -0.180511875011018037E+04    0.148549538612838717E+03    0.115341097625780676E+05    0.929635989913776939E+02
    0.540398708592541577E+00    0.782759903155641439E+02    0.186013075474268135E+02    0.710887334080556155E+01   -0.102725509814024044E+05   -0.575014182269725188E+04   -0.185491396420146793E+04    0.152368322685481303E+03    0.118709256001528265E+05    0.929977128566557241E+02
    0.547829987697041165E+00    0.783223759180142594E+02    0.187626092361493342E+02    0.742925108285847635E+01   -0.101350841937910864E+05   -0.568494835350822632E+04   -0.183501005976666374E+04    0.150923710997025324E+03    0.117349117861635696E+05    0.930023091739556236E+02
    0.559597240729386991E+00    0.783635237670952165E+02    0.187978507070867487E+02    0.674421587062753591E+01   -0.999932262212485148E+04   -0.562058847934576261E+04   -0.181542380420666245E+04    0.149497103334135858E+03    0.116005868123783694E+05    0.930129334364987557E+02
    0.551005163433288869E+00    0.782733449067312392E+02    0.187206540410056412E+02    0.700314587383194631E+01   -0.101978749479383932E+05   -0.571458373786915672E+04   -0.184422852190630101E+04    0.151634203704160740E+03    0.117969941200206813E+05    0.930525486554991659E+02
    0.537237123247589432E+00    0.783298862545263148E+02    0.186333273767115131E+02    0.747195915623358609E+01   -0.101323384751351605E+05   -0.568454873789869271E+04   -0.183380188429304394E+04    0.150549700426021758E+03    0.117325290547853656E+05    0.930863781038368643E+02
    0.547515395156501272E+00    0.783313112830347080E+02    0.186293929382040808E+02    0.660620112622178368E+01   -0.102048577003155315E+05   -0.571805052588348826E+04   -0.184510261783398960E+04    0.151651445032918502E+03    0.118039540309733839E+05    0.931091480800381248E+02
    0.557286021620916450E+00    0.782990242002844070E+02    0.188660877931150175E+02    0.683899245755301166E+01   -0.101944072385779582E+05   -0.571232045012896015E+04   -0.184432799760859371E+04    0.151840289977249228E+03    0.117933273018549262E+05    0.931194506263790771E+02
    0.543055552578680212E+00    0.782882233165609875E+02    0.188075805812611634E+02    0.731707612333324686E+01   -0.101995179245792478E+05   -0.571553248723749039E+04   -0.184430934965029041E+04    0.151589808240321986E+03    0.117986763192926282E+05    0.931948186421380314E+02
    0.570960151867379251E+00    0.783211761802223663E+02    0.187689487417766969E+02    0.631039861701809368E+01   -0.991987626968426230E+04   -0.558276691785026469E+04   -0.180413246450462725E+04    0.148724496298329683E+03    0.115219201944076631E+05    0.932114784555984102E+02
    0.574441566946153226E+00    0.783253413943455143E+02    0.188812916153595118E+02    0.643119893694672040E+01   -0.989948590314453031E+04   -0.557263566854622786E+04   -0.180161036297718647E+04    0.148688322700963624E+03    0.115015716256586547E+05    0.932478411132268832E+02
    0.556656093323305678E+00    0.783357456867493624E+02    0.186613475557994057E+02    0.650041371937964652E+01   -0.100889494467132918E+05   -0.566295424541622469E+04   -0.182845393180530982E+04    0.150484354130071836E+03    0.116892214508333309E+05    0.932534473918336175E+02
    0.557081953992326850E+00    0.782842861751974226E+02    0.188195819010181573E+02    0.650111094027869996E+01   -0.102520024370154188E+05   -0.573947647781610067E+04   -0.185277568270976144E+04    0.152502981945603437E+03    0.118502595742684680E+05    0.933124530777251380E+02
    0.559148424946916522E+00    0.783422613689288880E+02    0.186917979326596502E+02    0.650740954919078085E+01   -0.991848338217481796E+04   -0.558277207677476963E+04   -0.180330310113901487E+04    0.148452587284042409E+03    0.115207883627842930E+05    0.934476822230396493E+02
    0.553406349940989029E+00    0.783819421590938248E+02    0.187265125121887444E+02    0.687526850878575768E+01   -0.997033725739484726E+04   -0.560732668270889008E+04   -0.181077551930184291E+04    0.149006306551440900E+03    0.115720848563691743E+05    0.939746282597390064E+02
    0.553406349940989029E+00    0.783819421590938248E+02    0.187265125121887444E+02    0.687526850878575768E+01   -0.997033725739484726E+04   -0.560732668270889008E+04   -0.181077551930184291E+04    0.149006306551440900E+03    0.115720848563691743E+05    0.939746282597390064E+02
    0.560859947490804256E+00    0.783027061628236254E+02    0.187729365039484328E+02    0.671038053843192905E+01   -0.100640515086665728E+05   -0.565068997054647662E+04   -0.182532644616150014E+04    0.150405099466839602E+03    0.116644102112144446E+05    0.937615636565098924E+02
    0.554766666191460422E+00    0.782933244807882147E+02    0.188163548329928574E+02    0.683474099063103857E+01   -0.101549638519081527E+05   -0.569402617162757178E+04   -0.183828056559627339E+04    0.151271460499215550E+03    0.117544494380747055E+05    0.937173178383274745E+02
    0.535137939911800253E+00    0.783124917023866089E+02    0.186417416233452116E+02    0.732563568285810707E+01   -0.102506109953598170E+05   -0.574010528900273675E+04   -0.185134079122763205E+04    0.151989696113115514E+03    0.118493604429385887E+05    0.933004819622341728E+02
    0.554485348405704181E+00    0.782807340556795310E+02    0.187337164827999558E+02    0.678538305788115537E+01   -0.102259352764217110E+05   -0.572750315311960185E+04   -0.184866843347021586E+04    0.152083434858333248E+03    0.118246066603323798E+05    0.937642802572873819E+02
    0.554479494818999497E+00    0.783078439722814750E+02    0.187425515299207532E+02    0.711839619575455629E+01   -0.100585919663019013E+05   -0.564862893036789683E+04   -0.182403730871685684E+04    0.150143211820500937E+03    0.116592060299335517E+05    0.934520233732339136E+02
    0.547138931114096172E+00    0.783288442213005141E+02    0.186902812234335443E+02    0.692408772467732625E+01   -0.100946864377257698E+05   -0.566608325567362954E+04   -0.182889474948629118E+04    0.150387035045277912E+03    0.116950493809096424E+05    0.938053054535657509E+02
    0.546972259382880410E+00    0.782795905820440794E+02    0.186783907899664960E+02    0.686470073937024150E+01   -0.102684966838853979E+05   -0.574771561743153143E+04   -0.185474791293700491E+04    0.152514693323164380E+03    0.118667313991803094E+05    0.936250227795062244E+02
    0.555837372685254905E+00    0.783388982040601576E+02    0.187491724232243335E+02    0.682487798283991687E+01   -0.101275046693788190E+05   -0.568107084835380283E+04   -0.183421316119657058E+04    0.150956661667699507E+03    0.117273039700522022E+05    0.941958544032601424E+02
    0.555837372685254905E+00    0.783388982040601576E+02    0.187491724232243335E+02    0.682487798283991687E+01   -0.101275046693788190E+05   -0.568107084835380283E+04   -0.183421316119657058E+04    0.150956661667699507E+03    0.117273039700522022E+05    0.941958544032601424E+02
    0.547960555306520325E+00    0.783199404758812534E+02    0.186172725734482931E+02    0.670783763491147766E+01   -0.101357837924126688E+05   -0.568583400244474524E+04   -0.183463170028037734E+04    0.150718106172378185E+03    0.117358123666968240E+05    0.935476239708715411E+02
    0.550729894652910223E+00    0.783303725808425781E+02    0.186334199352309753E+02    0.665119188791071903E+01   -0.100674456308679873E+05   -0.565348541285975625E+04   -0.182472113197643603E+04    0.149981626294570646E+03    0.116682134063648155E+05    0.940237997971360500E+02
    0.550729894652910223E+00    0.783303725808425781E+02    0.186334199352309753E+02    0.665119188791071903E+01   -0.100674456308679873E+05   -0.565348541285975625E+04   -0.182472113197643603E+04    0.149981626294570646E+03    0.116682134063648155E+05    0.940237997971360500E+02
    0.550928933884980543E+00    0.783640585361429203E+02    0.187527308003988793E+02    0.713584026695555895E+01   -0.100048825140818099E+05   -0.562358554708633983E+04   -0.181586603520257495E+04    0.149414811421783469E+03    0.116062209137344871E+05    0.937789633339363888E+02
    0.550928933884980543E+00    0.783640585361429203E+02    0.187527308003988793E+02    0.713584026695555895E+01   -0.100048825140818099E+05   -0.562358554708633983E+04   -0.181586603520257495E+04    0.149414811421783469E+03    0.116062209137344871E+05    0.937789633339363888E+02
    0.557549433275821404E+00    0.783557939603501552E+02    0.188092291696919141E+02    0.673901682084984444E+01   -0.998758440538895229E+04   -0.561502471055334627E+04   -0.181376592218363203E+04    0.149376045216042172E+03    0.115889691874773944E+05    0.941259610350308407E+02
    0.557549433275821404E+00    0.783557939603501552E+02    0.188092291696919141E+02    0.673901682084984444E+01   -0.998758440538895229E+04   -0.561502471055334627E+04   -0.181376592218363203E+04    0.149376045216042172E+03    0.115889691874773944E+05    0.941259610350308407E+02
    0.553666755666228805E+00    0.783084182532383863E+02    0.187154238618801614E+02    0.686037416049108906E+01   -0.100224277450111986E+05   -0.563222201301922814E+04   -0.181814590098492636E+04    0.149476752065334438E+03    0.116237041934437693E+05    0.932988618262521641E+02
    0.549424883197878522E+00    0.783040070745412606E+02    0.187273408181807497E+02    0.702554314564141347E+01   -0.101752785266720784E+05   -0.570364689302881652E+04   -0.184120804015915633E+04    0.151490098192654557E+03    0.117745425090578174E+05    0.943676774995295062E+02
    0.549424883197878522E+00    0.783040070745412606E+02    0.187273408181807497E+02    0.702554314564141347E+01   -0.101752785266720784E+05   -0.570364689302881652E+04   -0.184120804015915633E+04    0.151490098192654557E+03    0.117745425090578174E+05    0.943676774995295062E+02
    0.561277080054308430E+00    0.783592505335705027E+02    0.188243864509154051E+02    0.672259092808407921E+01   -0.990455413076290824E+04   -0.557611641983156187E+04   -0.180130826664891197E+04    0.148321135571406131E+03    0.115069957195727911E+05    0.934300042280535052E+02
    0.555310310046111977E+00    0.783447993568147183E+02    0.188331703839502893E+02    0.668025482296582496E+01   -0.101098894743315504E+05   -0.567281661719080694E+04   -0.183157065155865689E+04    0.150729452062697305E+03    0.117099190437686393E+05    0.932799166543400275E+02
    0.551995612877962727E+00    0.783229304888359934E+02    0.187178437899329566E+02    0.671811162470988954E+01   -0.101105935802901968E+05   -0.567305507112138275E+04   -0.183173110299413179E+04    0.150776853087180086E+03    0.117105713040921964E+05    0.935579231977452110E+02
    0.561160954938811907E+00    0.783098459117126708E+02    0.187725809908200638E+02    0.655447676827773940E+01   -0.100935723499679589E+05   -0.566503054766517107E+04   -0.182932696032533090E+04    0.150583309544647250E+03    0.116937506344239428E+05    0.940573705910802573E+02
    0.559441794581067908E+00    0.783200647401545496E+02    0.188511316463027327E+02    0.673275573329546440E+01   -0.100930583043302431E+05   -0.566467248528603523E+04   -0.182929983257750041E+04    0.150617887299640444E+03    0.116932010025861164E+05    0.934481322321601482E+02
    0.552725432455940857E+00    0.782772833878613454E+02    0.187847588135574313E+02    0.655940267918350983E+01   -0.102156036821169710E+05   -0.572280300314197575E+04   -0.184697236574818885E+04    0.151893503344299660E+03    0.118144657331898179E+05    0.941975818851662865E+02
    0.552725432455940857E+00    0.782772833878613454E+02    0.187847588135574313E+02    0.655940267918350983E+01   -0.102156036821169710E+05   -0.572280300314197575E+04   -0.184697236574818885E+04    0.151893503344299660E+03    0.118144657331898179E+05    0.941975818851662865E+02
    0.557632859805060166E+00    0.783159325764221990E+02    0.186928784420085385E+02    0.666601719960438466E+01   -0.100967448306017650E+05   -0.566682376758578357E+04   -0.182945694919575635E+04    0.150502381448415235E+03    0.116969981757043934E+05    0.937787302423799503E+02
    0.546514409456080319E+00    0.782751882599081341E+02    0.187542352954893445E+02    0.713030285804605413E+01   -0.102722591934467982E+05   -0.574939583143476102E+04   -0.185542115350539939E+04    0.152597251313269368E+03    0.118704146876488576E+05    0.934005029398000062E+02
    0.563793634395172605E+00    0.783501145108628805E+02    0.188347232924079613E+02    0.669087870334860035E+01   -0.997483121955156275E+04   -0.560865862268723959E+04   -0.181216636007080206E+04    0.149360047793300055E+03    0.115762372769375252E+05    0.939300154405661374E+02
    0.558843832005461505E+00    0.782952080752537825E+02    0.187954415709198024E+02    0.693040924799493929E+01   -0.101609682075732471E+05   -0.569642627631960931E+04   -0.183951988956505534E+04    0.151504580954632218E+03    0.117602250510905596E+05    0.939765421648780830E+02
    0.558843832005461505E+00    0.782952080752537825E+02    0.187954415709198024E+02    0.693040924799493929E+01   -0.101609682075732471E+05   -0.569642627631960931E+04   -0.183951988956505534E+04    0.151504580954632218E+03    0.117602250510905596E+05    0.939765421648780830E+02
    0.543085552983908260E+00    0.783227466959555301E+02    0.187376020811902713E+02    0.701127490389608887E+01   -0.102383438493881113E+05   -0.573404756434578667E+04   -0.184984905650870451E+04    0.151956143081051778E+03    0.118371350122779986E+05    0.933971369648743917E+02
    0.557133106735824390E+00    0.783485792660431457E+02    0.187273890589073346E+02    0.698649072436300234E+01   -0.100425538135749684E+05   -0.564124523056095404E+04   -0.182152877017312221E+04    0.149889318408058358E+03    0.116434211293560147E+05    0.936855063254859317E+02
    0.549358930731814077E+00    0.783134010640819298E+02    0.187429718777396062E+02    0.674135239582543644E+01   -0.102267049122377466E+05   -0.572807458378866886E+04   -0.184852550960424765E+04    0.152006599625619941E+03    0.118254504462356581E+05    0.933991173674972117E+02
    0.559451288573709959E+00    0.783136336487060163E+02    0.187758076967213725E+02    0.655459250327464904E+01   -0.101064547398890118E+05   -0.567114436273045612E+04   -0.183117187964837444E+04    0.150714985938442538E+03    0.117065002855984021E+05    0.939047360582905810E+02
    0.552353304033139425E+00    0.783398909525601681E+02    0.187869144992284127E+02    0.706849575408884068E+01   -0.100752134977635906E+05   -0.565649915412761129E+04   -0.182646235990906121E+04    0.150323310283540224E+03    0.116756469259823843E+05    0.936657806958359060E+02
    0.544162950128503242E+00    0.782889532276432192E+02    0.186983546187271514E+02    0.683075443032836471E+01   -0.101340830877398676E+05   -0.568504331352752433E+04   -0.183436996023731695E+04    0.150694127696797352E+03    0.117341368427780289E+05    0.933736635967067770E+02
    0.568726477813433551E+00    0.783552257326110322E+02    0.188553835856747511E+02    0.654811351709278799E+01   -0.985739830998175239E+04   -0.555347974836785215E+04   -0.179480161011078917E+04    0.147937726395178601E+03    0.114602295501725439E+05    0.937576537274246391E+02
    0.568726477813433551E+00    0.783552257326110322E+02    0.188553835856747511E+02    0.654811351709278799E+01   -0.985739830998175239E+04   -0.555347974836785215E+04   -0.179480161011078917E+04    0.147937726395178601E+03    0.114602295501725439E+05    0.937576537274246391E+02
    0.540026718614140866E+00    0.782892924471295544E+02    0.186747422800546055E+02    0.727752561156357025E+01   -0.102146752308521882E+05   -0.572328643651741913E+04   -0.184598534841796209E+04    0.151528904477817690E+03    0.118138892119505363E+05    0.942341925373201548E+02
    0.540026718614140866E+00    0.782892924471295544E+02    0.186747422800546055E+02    0.727752561156357025E+01   -0.102146752308521882E+05   -0.572328643651741913E+04   -0.184598534841796209E+04    0.151528904477817690E+03    0.118138892119505363E+05    0.942341925373201548E+02
    0.551359100585051443E+00    0.783562267813939997E+02    0.186785091958516851E+02    0.661292737540303932E+01   -0.101177190009633741E+05   -0.567673983460095860E+04   -0.183248027511903979E+04    0.150731371799406844E+03    0.117177405832452205E+05    0.936404054572104627E+02
    0.562960438030182919E+00    0.783432941078747689E+02    0.188211462669012768E+02    0.650532139681754007E+01   -0.991326970817199253E+04   -0.558030934577885819E+04   -0.180255758811108853E+04    0.148391818587992191E+03    0.115156400773645710E+05    0.933086756023653123E+02
    0.548961056840455597E+00    0.782817570398119216E+02    0.187657976155889230E+02    0.664551856101328298E+01   -0.102200782827949442E+05   -0.572519527798743275E+04   -0.184738645307170464E+04    0.151837451020325886E+03    0.118189916616965784E+05    0.932714566722765710E+02
    0.553795629894737185E+00    0.782997104039110212E+02    0.188106087963247539E+02    0.682894782187774307E+01   -0.101377133300825008E+05   -0.568622633371613483E+04   -0.183538279313107682E+04    0.150938513493169069E+03    0.117375298317873148E+05    0.942072130984141864E+02
    0.547555522947561379E+00    0.782773123169110363E+02    0.186826848705301458E+02    0.702267819558197193E+01   -0.101831578012560331E+05   -0.570793210698045732E+04   -0.184184214007457922E+04    0.151358682227374601E+03    0.117825488097840807E+05    0.945506502528538988E+02
    0.547555522947561379E+00    0.782773123169110363E+02    0.186826848705301458E+02    0.702267819558197193E+01   -0.101831578012560331E+05   -0.570793210698045732E+04   -0.184184214007457922E+04    0.151358682227374601E+03    0.117825488097840807E+05    0.945506502528538988E+02
    0.547555522947561379E+00    0.782773123169110363E+02    0.186826848705301458E+02    0.702267819558197193E+01   -0.101831578012560331E+05   -0.570793210698045732E+04   -0.184184214007457922E+04    0.151358682227374601E+03    0.117825488097840807E+05    0.945506502528538988E+02
    0.551151784163696479E+00    0.783551197325868998E+02    0.187293369080235017E+02    0.661229657584010599E+01   -0.100162867409337068E+05   -0.562928028202805490E+04   -0.181730034925217660E+04    0.149425532673012299E+03    0.116176135593791641E+05    0.940004684222618181E+02
    0.551911419953091564E+00    0.783105722036906400E+02    0.186893971751777599E+02    0.696606166612384747E+01   -0.101405139427496306E+05   -0.568746934687164230E+04   -0.183591785722360419E+04    0.151008503713331351E+03    0.117402585272977558E+05    0.936063686270275213E+02
    0.560458028787399920E+00    0.783563220235296569E+02    0.188240970592726669E+02    0.658719839007457786E+01   -0.100253290236514677E+05   -0.563315726013198218E+04   -0.181896290450241986E+04    0.149674057898298827E+03    0.116264150646159669E+05    0.938481889317662308E+02
    0.558879362990578721E+00    0.783469418431343314E+02    0.186640194079339743E+02    0.665376621564202342E+01   -0.998581329723656017E+04   -0.561423873869464569E+04   -0.181340954031200863E+04    0.149333666333591935E+03    0.115872373480204024E+05    0.933982157943108007E+02
    0.554852215351975597E+00    0.782943493149375342E+02    0.188229114484886040E+02    0.700569101356538226E+01   -0.101646840734246325E+05   -0.569831275097800790E+04   -0.183995456306826486E+04    0.151495957275770934E+03    0.117639485427456711E+05    0.935501210419986933E+02
