    0.583693041264468221E-01    0.544956696043447497E+01    0.121624355561150015E+02    0.263274811668546272E+04   -0.423889354658098546E+04    0.871363376601765776E+04   -0.903546519098254430E+04    0.459587380276288786E+04   -0.917681517653801848E+03    0.118293274584003676E+02
    0.615312000070432907E-01    0.577483594372986886E+01    0.122932338369890939E+02    0.262946204812894621E+04   -0.422391633301450020E+04    0.868674441038709483E+04   -0.901153910781371451E+04    0.458521206286713823E+04   -0.915750349406406599E+03    0.137665366284555652E+02
    0.549395272671183502E-01    0.624380472481069582E+01    0.124274673393410513E+02    0.261562457086440963E+04   -0.414922793407235076E+04    0.852750386315963624E+04   -0.884390750907412257E+04    0.449806827950633669E+04   -0.897849103004157314E+03    0.148212849751124374E+02
    0.605921220804934574E-01    0.581114984893270936E+01    0.122809636937212954E+02    0.261368820349392536E+04   -0.413841759800044747E+04    0.850356443281922293E+04   -0.881762652335470739E+04    0.448377502551245925E+04   -0.894768711836912530E+03    0.154400285632361864E+02
    0.569231947750919176E-01    0.562852066032063814E+01    0.122283415453264208E+02    0.260985386250716556E+04   -0.411813829128189627E+04    0.846157540905142378E+04   -0.877510742539567946E+04    0.446274204099969484E+04   -0.890710853386828717E+03    0.161304039635386509E+02
    0.553295248018109906E-01    0.586149834756994181E+01    0.123070673284512981E+02    0.263405463445852092E+04   -0.424855849017210767E+04    0.873901972263100470E+04   -0.906637531651768586E+04    0.461367857744830326E+04   -0.921608908306829107E+03    0.164034006340710192E+02
    0.537344263152902540E-01    0.567423537537622202E+01    0.122550910069435020E+02    0.261811267470798111E+04   -0.415929258156465949E+04    0.854195592698216387E+04   -0.885205262816204049E+04    0.449885772251102662E+04   -0.897361956269627512E+03    0.167030260440941873E+02
    0.566461198630916138E-01    0.545985110202426682E+01    0.121770576378151691E+02    0.264245311789496691E+04   -0.428955804110367990E+04    0.881794361307152576E+04   -0.914137008603536015E+04    0.464890344202413235E+04   -0.928157140109330044E+03    0.167931869215013982E+02
    0.534898631629175461E-01    0.549039407614015040E+01    0.122012090604584014E+02    0.263221765214137849E+04   -0.423440820004098077E+04    0.869996397746978982E+04   -0.901609029158781777E+04    0.458287836964161852E+04   -0.914347114634929198E+03    0.169400385548223831E+02
    0.594239163295528505E-01    0.575880992844410589E+01    0.122854595548017862E+02    0.262288382609292967E+04   -0.418609758996837354E+04    0.860068395146606235E+04   -0.891474331003723273E+04    0.453145931868920798E+04   -0.903972558203088738E+03    0.170391816613216847E+02
    0.590243016739892268E-01    0.528451143748382535E+01    0.121265524335542825E+02    0.264527966959047808E+04   -0.430570283820432905E+04    0.885399858930104165E+04   -0.918071595510498082E+04    0.466990450678573143E+04   -0.932550103398302895E+03    0.170640476262530001E+02
    0.531655210433403247E-01    0.528539749823724669E+01    0.121277082284833693E+02    0.263842414908251476E+04   -0.426850433127577890E+04    0.877442670887062013E+04   -0.909681416291480127E+04    0.462627103945989074E+04   -0.923590131774141355E+03    0.172742594503406224E+02
    0.555416562247852616E-01    0.594696559570075767E+01    0.123462454772201653E+02    0.262041995410826075E+04   -0.417305363608907101E+04    0.857380756546394150E+04   -0.888790605321271869E+04    0.451854025082327098E+04   -0.901589017182221596E+03    0.173535472836203937E+02
    0.606028688637507557E-01    0.600449082909084719E+01    0.123508469565002734E+02    0.262034717710713448E+04   -0.417165404555069017E+04    0.856865276783812988E+04   -0.888017015740147508E+04    0.451330429609119983E+04   -0.900261235406891387E+03    0.175886845088158452E+02
    0.564443279437773018E-01    0.560654662760423683E+01    0.122491188446492298E+02    0.262517322190657569E+04   -0.419756234008165848E+04    0.862434582029173180E+04   -0.894006409459818315E+04    0.454547163101026490E+04   -0.907147527831110438E+03    0.175960468060051838E+02
    0.602724859127328760E-01    0.582094367085742093E+01    0.122977265276116601E+02    0.260672894885005053E+04   -0.410140868888591558E+04    0.842571943321976869E+04   -0.873670006994100549E+04    0.444221245834069487E+04   -0.886337886232532242E+03    0.177275893178439645E+02
    0.557930610281558020E-01    0.579471528229602040E+01    0.122944026894091873E+02    0.264272953843126970E+04   -0.429358823651763942E+04    0.883148550248753236E+04   -0.916026735781000025E+04    0.466082160872188615E+04   -0.930971292077661701E+03    0.178121849609422789E+02
    0.583064414961979791E-01    0.576465481581127115E+01    0.122852731719291590E+02    0.263581682152246640E+04   -0.425534237118114652E+04    0.874765813298706962E+04   -0.906937762135618505E+04    0.461211622897024699E+04   -0.920655179251734012E+03    0.180623951429776071E+02
    0.582668607657726920E-01    0.612129781421304742E+01    0.124006991378384459E+02    0.262183380215106217E+04   -0.418277144489628517E+04    0.859925515124169942E+04   -0.891984279655486716E+04    0.453781885285398857E+04   -0.906083308251010180E+03    0.180950883837105039E+02
    0.600677941410463767E-01    0.613554362748535276E+01    0.123997947377223277E+02    0.261513813442334458E+04   -0.414482641845779744E+04    0.851397191406009006E+04   -0.882501057452750683E+04    0.448575148354931662E+04   -0.894807289776231755E+03    0.181177186916252531E+02
    0.555110996161174777E-01    0.576287146720436194E+01    0.122675479432918380E+02    0.261978190383437914E+04   -0.417147092369393613E+04    0.857490104494797743E+04   -0.889411667699366808E+04    0.452447550112774479E+04   -0.903361315588151911E+03    0.181200059899904247E+02
    0.552536181230174686E-01    0.601947750628762890E+01    0.123685898467273780E+02    0.261148341751269299E+04   -0.412688828373900560E+04    0.847988381334236692E+04   -0.879377540248779405E+04    0.447202415458414816E+04   -0.892512082426119605E+03    0.181234451576659801E+02
    0.580023754378382883E-01    0.594007598585134478E+01    0.123227766600317832E+02    0.263392507907341860E+04   -0.424623696366122203E+04    0.873080862346785034E+04   -0.905446089469835715E+04    0.460583404198565677E+04   -0.919659815990581365E+03    0.182145055744431090E+02
    0.573470512788555459E-01    0.580075395561530893E+01    0.122865376795888555E+02    0.263301621487995362E+04   -0.423953254230438688E+04    0.871263184681136590E+04   -0.903124936369259376E+04    0.459169954298340872E+04   -0.916348940168596869E+03    0.183836537227587016E+02
    0.577746398525318117E-01    0.541622061399433274E+01    0.121552600297946611E+02    0.264198449125420530E+04   -0.428849105128678275E+04    0.881816693266585207E+04   -0.914355187980451228E+04    0.465070281482887003E+04   -0.928600088801935271E+03    0.184643073727660756E+02
    0.535074817966622943E-01    0.545388365382774598E+01    0.121872353595990202E+02    0.263551339572739562E+04   -0.425509740043636702E+04    0.875037371167591664E+04   -0.907583417481525066E+04    0.461740437656696577E+04   -0.922148184106239455E+03    0.185167198184168562E+02
    0.567513004338946747E-01    0.607241997219123242E+01    0.123730063942865858E+02    0.262030262392133955E+04   -0.417299531279535950E+04    0.857518319536517083E+04   -0.889114193482079645E+04    0.452122242332466794E+04   -0.902355062835129161E+03    0.185838499679193774E+02
    0.578784394267969834E-01    0.587038352108207917E+01    0.123214474965340628E+02    0.261349871450125784E+04   -0.413752342162570403E+04    0.850219997835722279E+04   -0.881705436124444896E+04    0.448407443370836791E+04   -0.894980835148407436E+03    0.186246658318033056E+02
    0.560159214957518040E-01    0.555393574297576276E+01    0.122108202933560861E+02    0.262729708258457367E+04   -0.421245493672982047E+04    0.866345699379190410E+04   -0.898892315537222385E+04    0.457477956693380565E+04   -0.913944058596577520E+03    0.186845315069029638E+02
    0.604220144535606990E-01    0.596381770150275781E+01    0.123251186091549840E+02    0.261873356211704777E+04   -0.416477745963667076E+04    0.855838852319847683E+04   -0.887444253436143117E+04    0.451313955140110102E+04   -0.900827084853980864E+03    0.187379563849663207E+02
    0.541797066570409505E-01    0.575043940965215494E+01    0.122850018203947577E+02    0.263260105065246307E+04   -0.423709329471621822E+04    0.870715398312728757E+04   -0.902535908685338654E+04    0.458864892422215871E+04   -0.915738167880004539E+03    0.187550182256993949E+02
    0.554958049685860891E-01    0.581259193289559839E+01    0.122927925181526234E+02    0.260794543843050269E+04   -0.410623288903904540E+04    0.843265048959173146E+04   -0.874089680869431686E+04    0.444302918415827116E+04   -0.886278245034482779E+03    0.188208563925977614E+02
    0.613861538104212984E-01    0.595835319027569632E+01    0.123501006072145731E+02    0.261869824194991588E+04   -0.416441680359716247E+04    0.855702629267803786E+04   -0.887215309514033470E+04    0.451139381044875699E+04   -0.900333891920605311E+03    0.189898431475066509E+02
    0.548972369613272143E-01    0.586027841322276188E+01    0.123060098271915397E+02    0.262190072515942529E+04   -0.418154726759954792E+04    0.859287229156835019E+04   -0.890876581117873320E+04    0.452963665063512599E+04   -0.903882485364889931E+03    0.189989442636920138E+02
    0.590254497158153452E-01    0.559426277044857923E+01    0.122208385322765167E+02    0.263012840345277436E+04   -0.422652679892153719E+04    0.869075425111920231E+04   -0.901472600376693117E+04    0.458664463608318783E+04   -0.916059716394258430E+03    0.190232618893434129E+02
    0.612979112337167370E-01    0.561179127231377883E+01    0.122299134487159371E+02    0.262174782995343503E+04   -0.418091357720341421E+04    0.859222925053037579E+04   -0.890917776399338800E+04    0.453058625204544569E+04   -0.904256853070695570E+03    0.192626247898589185E+02
    0.575899436907016532E-01    0.555773678239044688E+01    0.121909282130206460E+02    0.263616328382898200E+04   -0.425910929197511359E+04    0.876010685576178548E+04   -0.908745513456398112E+04    0.462421616376916336E+04   -0.923711544045795449E+03    0.192706354435076470E+02
    0.605048633399308672E-01    0.595331096815467209E+01    0.123449803112809740E+02    0.261517697970762811E+04   -0.414619869938388092E+04    0.851938684760787874E+04   -0.883327260438571102E+04    0.449131273837825483E+04   -0.896189934945806158E+03    0.193375172234222852E+02
    0.605059737038448897E-01    0.577453854456398297E+01    0.122735029423307669E+02    0.262148053660335700E+04   -0.418053395428830481E+04    0.859361458830829906E+04   -0.891291446914161497E+04    0.453371373292570206E+04   -0.905147012935998987E+03    0.193835090497573539E+02
    0.580091896189014883E-01    0.558135018981408937E+01    0.122129491965637609E+02    0.263101810975962417E+04   -0.423226094123100029E+04    0.870431516739403742E+04   -0.902974473710779603E+04    0.459452253862315229E+04   -0.917636433504051638E+03    0.194071939968884593E+02
    0.573906902726494667E-01    0.609069955677354713E+01    0.123904083063264956E+02    0.261494619615930924E+04   -0.414480160361507569E+04    0.851653096310468754E+04   -0.883086153027755063E+04    0.449058615841240953E+04   -0.896184462136195293E+03    0.194231668059643034E+02
    0.542891694553437193E-01    0.580766090729231355E+01    0.122914539863488184E+02    0.261796946803391847E+04   -0.416080925351877067E+04    0.855046508654354875E+04   -0.886684022431129051E+04    0.450963666138127519E+04   -0.900207770804896427E+03    0.194611229065381721E+02
    0.598218911774100193E-01    0.566699472448301567E+01    0.122453816341039570E+02    0.262454836706436981E+04   -0.419407097911113124E+04    0.861658227507139782E+04   -0.893145581104242774E+04    0.454070761578899328E+04   -0.906095043646611543E+03    0.194968856933884069E+02
    0.557930520983570960E-01    0.548852541878087763E+01    0.121755284904507306E+02    0.264025861853180095E+04   -0.427928796100667023E+04    0.879936260837937334E+04   -0.912517153432557825E+04    0.464213303745067606E+04   -0.927082282590111390E+03    0.195080638112121569E+02
    0.569265674994737583E-01    0.567243193758701736E+01    0.122433778513806200E+02    0.263340287953358757E+04   -0.424416012260979369E+04    0.872801579377979760E+04   -0.905338268928478101E+04    0.460634717558550619E+04   -0.920011457969977982E+03    0.195164991940375323E+02
    0.604580205047120373E-01    0.569977984390588066E+01    0.122445688549766736E+02    0.262038070511198021E+04   -0.417441370907094552E+04    0.858003562228893497E+04   -0.889784972690305040E+04    0.452536033296881760E+04   -0.903298672751452273E+03    0.195534782616230167E+02
    0.574426404132048277E-01    0.562754916587885390E+01    0.122334261036451117E+02    0.262295302817844413E+04   -0.418675448780603892E+04    0.860307519112886985E+04   -0.891869146001102126E+04    0.453445276856190230E+04   -0.904819108258686583E+03    0.195974826002192053E+02
    0.569100657821824812E-01    0.597577281286756623E+01    0.123654132344440768E+02    0.262393283068544861E+04   -0.419303864092836011E+04    0.861878262174851807E+04   -0.893787612214924411E+04    0.454590613371047402E+04   -0.907493522844566769E+03    0.196430770167961519E+02
    0.559332999568881856E-01    0.619219458979576665E+01    0.124209122649508146E+02    0.261542237879145796E+04   -0.414626696711555178E+04    0.851723588640995877E+04   -0.882900377755307818E+04    0.448826514411346398E+04   -0.895435489400486631E+03    0.196437806753533870E+02
    0.569658289592396699E-01    0.605346285500709858E+01    0.123813314320891426E+02    0.261764755223383418E+04   -0.415973573006531205E+04    0.854894640070175228E+04   -0.886544176797363798E+04    0.450874884726961136E+04   -0.899949441852155132E+03    0.196510594937708696E+02
    0.570192216434389568E-01    0.572972268505351856E+01    0.122747473142571746E+02    0.263472470768956919E+04   -0.425068750494797769E+04    0.874042123831086428E+04   -0.906461389506071646E+04    0.461112879700259509E+04   -0.920757911879350559E+03    0.196515050382634726E+02
    0.562682221786997908E-01    0.551408141248687045E+01    0.121887331836382735E+02    0.263365188200143348E+04   -0.424454802106052375E+04    0.872674901602855061E+04   -0.904970446345463097E+04    0.460313164706698899E+04   -0.919069371278883636E+03    0.196957375405848722E+02
    0.577379102044637826E-01    0.560087900040755127E+01    0.122171603695988527E+02    0.263435719712036689E+04   -0.424990689000394559E+04    0.874113075036697046E+04   -0.906765383306568765E+04    0.461379322656817385E+04   -0.921508640371205047E+03    0.197507134028015230E+02
    0.575709951660742167E-01    0.590536938675706757E+01    0.123128130676988174E+02    0.262544905390279109E+04   -0.419861871232206522E+04    0.862514912682692920E+04   -0.893885585318348785E+04    0.454352976902982118E+04   -0.906437596374564691E+03    0.197700769497674251E+02
    0.557795188754591081E-01    0.540393677521989702E+01    0.121641186204709211E+02    0.263557265740911680E+04   -0.425648350427935566E+04    0.875560249974663748E+04   -0.908377558207681068E+04    0.462283876765155401E+04   -0.923542285308335977E+03    0.197893526300864586E+02
    0.598322952471744551E-01    0.600335711439872188E+01    0.123451608543644564E+02    0.262279323223849224E+04   -0.418515155023254556E+04    0.859812281703642657E+04   -0.891193804368371821E+04    0.453018044271413328E+04   -0.903790629231232856E+03    0.197898019585589928E+02
    0.546270237200004380E-01    0.532583775109209601E+01    0.121347639110957548E+02    0.264366626821939144E+04   -0.429907470390661001E+04    0.884416921448098219E+04   -0.917469820317532867E+04    0.466889843325447509E+04   -0.932750227522254818E+03    0.198372432665267908E+02
    0.584897891489426641E-01    0.578186394126833836E+01    0.122924800461624919E+02    0.262456569312909824E+04   -0.419614733358618832E+04    0.862493656857933092E+04   -0.894399994114942820E+04    0.454893909266649007E+04   -0.908081572176579357E+03    0.200409196512029055E+02
    0.555970466898383711E-01    0.587871326522061111E+01    0.123214087928159834E+02    0.261315920344565711E+04   -0.413436858514522373E+04    0.849267591478899158E+04   -0.880409514006943209E+04    0.447583425078021719E+04   -0.892991466931897094E+03    0.201219916301603874E+02
    0.599821178024452922E-01    0.582642372750366988E+01    0.123039829849767202E+02    0.261518291540016617E+04   -0.414458469319822234E+04    0.851293892290280382E+04   -0.882390451760000178E+04    0.448541806831450594E+04   -0.894831930279543940E+03    0.201694217324549392E+02
    0.606698498020137589E-01    0.564291643309032498E+01    0.122346669841558917E+02    0.262707496755907141E+04   -0.420873463730893764E+04    0.864959585500214234E+04   -0.896754456547346672E+04    0.455988303534620536E+04   -0.910063122055142003E+03    0.202004333077682681E+02
    0.597120254602820089E-01    0.558529805566295412E+01    0.122236774494985347E+02    0.262575700545892505E+04   -0.420310427861322842E+04    0.864079174387952480E+04   -0.896170130212843833E+04    0.455865409682243171E+04   -0.910186003341290416E+03    0.202187933720450488E+02
    0.585034270924060171E-01    0.567028489025670268E+01    0.122607550257094928E+02    0.263005065895717598E+04   -0.422629117348587806E+04    0.869025592052281536E+04   -0.901377894946252854E+04    0.458572544470885259E+04   -0.915747837121424482E+03    0.202188183694512169E+02
    0.598458351915699543E-01    0.581493115711894681E+01    0.122896189970996694E+02    0.262611728548866859E+04   -0.420265858712381487E+04    0.863451036060479237E+04   -0.894922284989818036E+04    0.454900983217572502E+04   -0.907540859154253894E+03    0.202336817311637454E+02
    0.579546961787475168E-01    0.602324153223531322E+01    0.123674835989235419E+02    0.262350819655472833E+04   -0.418860934714865380E+04    0.860495855614208449E+04   -0.891890571791242110E+04    0.453383744799915348E+04   -0.904574507835114105E+03    0.202666765903092525E+02
    0.589384997481562714E-01    0.552200457365101105E+01    0.121869453909232615E+02    0.263100624123140778E+04   -0.423105283610825609E+04    0.869948467338066439E+04   -0.902248854497252796E+04    0.458972332183619346E+04   -0.916461052424436161E+03    0.202808449312801145E+02
    0.566795614161924033E-01    0.595817786359560309E+01    0.123281282865344561E+02    0.261361964997425093E+04   -0.413727465910808496E+04    0.849944514041759430E+04   -0.881152056212683419E+04    0.447971272763179604E+04   -0.893765898462505220E+03    0.203048162025186123E+02
    0.575687314965578761E-01    0.602101718135242248E+01    0.123661619199480324E+02    0.261798916537329296E+04   -0.416267543356605529E+04    0.855778410206756780E+04   -0.887760123557910993E+04    0.451658861231356968E+04   -0.901872385897420145E+03    0.203763106203553193E+02
    0.555116073565852658E-01    0.552233898061654660E+01    0.121895291541298771E+02    0.263890311185303926E+04   -0.427366187069790612E+04    0.879087330501136603E+04   -0.911983518727130286E+04    0.464119351651263787E+04   -0.927261186191150500E+03    0.203865705506939605E+02
    0.569616593774945751E-01    0.593428288039575413E+01    0.123427663709330790E+02    0.262029263728586329E+04   -0.417369651819873070E+04    0.857836490967846657E+04   -0.889630394342589716E+04    0.452481764416652186E+04   -0.903264265268586996E+03    0.203870494550506827E+02
    0.572148740531009045E-01    0.582980045303211458E+01    0.123000563797750129E+02    0.261631011089722597E+04   -0.415000024895879324E+04    0.852278521631168223E+04   -0.883215765946001557E+04    0.448844353558179682E+04   -0.895163721666110632E+03    0.205107982443251373E+02
    0.592496498360590429E-01    0.538643048447375961E+01    0.121623768433092501E+02    0.263023575486249138E+04   -0.422547602704845303E+04    0.868460073618870774E+04   -0.900367018358876703E+04    0.457829253039971354E+04   -0.913770565453414520E+03    0.205757326582172979E+02
    0.580975696811507486E-01    0.546180237853497985E+01    0.121891576254842118E+02    0.263195563360017923E+04   -0.423497739734617971E+04    0.870577254677487872E+04   -0.902742187408833342E+04    0.459166906663428745E+04   -0.916784338299841011E+03    0.207069420799602604E+02
    0.583029353628111147E-01    0.570077051456014150E+01    0.122724986233691560E+02    0.262581974133423137E+04   -0.420260304873964651E+04    0.863770668075923459E+04   -0.895615224395425503E+04    0.455452348898071432E+04   -0.909078930514532772E+03    0.207296482525353554E+02
    0.583029353628111147E-01    0.570077051456014150E+01    0.122724986233691560E+02    0.262581974133423137E+04   -0.420260304873964651E+04    0.863770668075923459E+04   -0.895615224395425503E+04    0.455452348898071432E+04   -0.909078930514532772E+03    0.207296482525353554E+02
    0.574099624326582930E-01    0.593328629057968904E+01    0.123108327317748270E+02    0.262047463057330879E+04   -0.417477064311420327E+04    0.858079532169152299E+04   -0.889896349591673788E+04    0.452624010352333971E+04   -0.903562234937095809E+03    0.207369158062307406E+02
    0.551548280818444092E-01    0.568010563953989145E+01    0.122432250967135747E+02    0.262428414598377231E+04   -0.419349509501710509E+04    0.861724929139575943E+04   -0.893426299644279061E+04    0.454332063964790814E+04   -0.906880179662968203E+03    0.208287137662052366E+02
    0.572665519837579559E-01    0.590355663091708927E+01    0.123125912276238871E+02    0.261995508911342540E+04   -0.417041482323533819E+04    0.856848938535589696E+04   -0.888315641809185036E+04    0.451671603607814632E+04   -0.901373300854753438E+03    0.208931221078308198E+02
    0.580804003354762760E-01    0.578320539195175520E+01    0.122683745424094255E+02    0.262238411231582404E+04   -0.418214867949137624E+04    0.859026867939109979E+04   -0.890244811689234120E+04    0.452478199659589791E+04   -0.902621945832236861E+03    0.208991260603836650E+02
    0.580804003354762760E-01    0.578320539195175520E+01    0.122683745424094255E+02    0.262238411231582404E+04   -0.418214867949137624E+04    0.859026867939109979E+04   -0.890244811689234120E+04    0.452478199659589791E+04   -0.902621945832236861E+03    0.208991260603836650E+02
    0.592551353218818203E-01    0.564530306202590459E+01    0.122486594424701671E+02    0.261932671466777174E+04   -0.416804559942228389E+04    0.856529366288903839E+04   -0.888147705497012248E+04    0.451661056475307305E+04   -0.901492797156761753E+03    0.209148646928696351E+02
    0.592551353218818203E-01    0.564530306202590459E+01    0.122486594424701671E+02    0.261932671466777174E+04   -0.416804559942228389E+04    0.856529366288903839E+04   -0.888147705497012248E+04    0.451661056475307305E+04   -0.901492797156761753E+03    0.209148646928696351E+02
    0.593019851431848474E-01    0.557335602349888237E+01    0.122205077056808022E+02    0.262456494242831877E+04   -0.419516033963868722E+04    0.862089740615957817E+04   -0.893791863314730290E+04    0.454495825599072668E+04   -0.907128913515046975E+03    0.209213929190696923E+02
    0.593019851431848474E-01    0.557335602349888237E+01    0.122205077056808022E+02    0.262456494242831877E+04   -0.419516033963868722E+04    0.862089740615957817E+04   -0.893791863314730290E+04    0.454495825599072668E+04   -0.907128913515046975E+03    0.209213929190696923E+02
    0.579653533087866810E-01    0.582351958910822098E+01    0.122990461899470773E+02    0.262325557081232137E+04   -0.418779185460235931E+04    0.860389849986528861E+04   -0.891803829773443795E+04    0.453332457861536113E+04   -0.904431414665964667E+03    0.209236699785993885E+02
    0.552038239308159651E-01    0.577578733717672765E+01    0.122988858959299119E+02    0.262252699607051591E+04   -0.418470769668225421E+04    0.859965786829823810E+04   -0.891651294753194816E+04    0.453425215212040894E+04   -0.905002900209348240E+03    0.209246429001764582E+02
    0.577098589620746727E-01    0.598200435281273712E+01    0.123485291521555691E+02    0.261226632958559912E+04   -0.413056802122369572E+04    0.848635089602013431E+04   -0.879894468261489965E+04    0.447377806166449318E+04   -0.892668586222232875E+03    0.209370063593270324E+02
    0.555031709976806856E-01    0.602490794593347090E+01    0.123504030248883936E+02    0.262269009615775576E+04   -0.418609950985078467E+04    0.860339511251023214E+04   -0.892092355060670343E+04    0.453662552524231432E+04   -0.905475298993085971E+03    0.209621206999651584E+02
    0.555031709976806856E-01    0.602490794593347090E+01    0.123504030248883936E+02    0.262269009615775576E+04   -0.418609950985078467E+04    0.860339511251023214E+04   -0.892092355060670343E+04    0.453662552524231432E+04   -0.905475298993085971E+03    0.209621206999651584E+02
    0.573530918952975324E-01    0.536743782899298694E+01    0.121442990523220651E+02    0.262500791192957649E+04   -0.419874497097600670E+04    0.863100417775404094E+04   -0.895109116883436036E+04    0.455310666888561445E+04   -0.909067951225795355E+03    0.209838330599353284E+02
    0.552414452928223082E-01    0.567808461159896449E+01    0.122439381106545095E+02    0.263449749422755440E+04   -0.424727695282997593E+04    0.872886843078774655E+04   -0.904831312464514485E+04    0.460066655494698716E+04   -0.918229702249706634E+03    0.210086253524400242E+02
    0.552414452928223082E-01    0.567808461159896449E+01    0.122439381106545095E+02    0.263449749422755440E+04   -0.424727695282997593E+04    0.872886843078774655E+04   -0.904831312464514485E+04    0.460066655494698716E+04   -0.918229702249706634E+03    0.210086253524400242E+02
    0.557996289646956051E-01    0.586478696874463168E+01    0.122983693849945226E+02    0.262189212743111011E+04   -0.417948905281440693E+04    0.858455202560773796E+04   -0.889632299519972548E+04    0.452151388963266527E+04   -0.901928151286894263E+03    0.210172891658766439E+02
    0.552462369010513904E-01    0.556647309613170105E+01    0.122278321588687628E+02    0.263162977753966197E+04   -0.423373195162837055E+04    0.870383899023407685E+04   -0.902572950306729581E+04    0.459075391397614112E+04   -0.916546208307830966E+03    0.210338485137243545E+02
    0.552462369010513904E-01    0.556647309613170105E+01    0.122278321588687628E+02    0.263162977753966197E+04   -0.423373195162837055E+04    0.870383899023407685E+04   -0.902572950306729581E+04    0.459075391397614112E+04   -0.916546208307830966E+03    0.210338485137243545E+02
    0.585217866937822670E-01    0.541613055791961973E+01    0.121582148430561734E+02    0.263259050462053028E+04   -0.423991777660116350E+04    0.871905887045656345E+04   -0.904376819536652147E+04    0.460110165245527969E+04   -0.918854222428449361E+03    0.210607694251958542E+02
    0.584304778198512509E-01    0.586498320484532698E+01    0.122999890483761760E+02    0.262817994889201964E+04   -0.421593940706092144E+04    0.866736992445017677E+04   -0.898855088205632455E+04    0.457188235851855097E+04   -0.912730644121528599E+03    0.210650142705090175E+02
    0.565939733869868719E-01    0.565478588846443042E+01    0.122384065339938122E+02    0.263145287067398431E+04   -0.423404838606039448E+04    0.870735344766879825E+04   -0.903255237091169874E+04    0.459598379029170337E+04   -0.917978146281968634E+03    0.210689843241382633E+02
    0.567180627909610602E-01    0.597814756853881946E+01    0.123321392045557019E+02    0.262235010145253227E+04   -0.418294238384976506E+04    0.859434836033174906E+04   -0.890949253290313754E+04    0.452995232835620391E+04   -0.904001445589227274E+03    0.210797100119498531E+02
    0.575936778949367525E-01    0.606138106171451341E+01    0.123793473985530351E+02    0.261996882517883978E+04   -0.417086654154711414E+04    0.856999924307056790E+04   -0.888501151831369862E+04    0.451764217038892639E+04   -0.901519903619975594E+03    0.211408945041881751E+02
    0.563870747531407326E-01    0.549005754702390725E+01    0.121843706780206134E+02    0.262951452489591338E+04   -0.422354669163723975E+04    0.868512468888847070E+04   -0.900957873030349219E+04    0.458439321514638596E+04   -0.915693378582331206E+03    0.211423355126623349E+02
    0.566549643729153535E-01    0.607051565335496246E+01    0.123814217007349825E+02    0.261446796300160440E+04   -0.414110068378278902E+04    0.850607580762109501E+04   -0.881701551967794330E+04    0.448187101417382746E+04   -0.894081484385488238E+03    0.212071132144348731E+02
    0.570194315078211209E-01    0.589943767824183496E+01    0.123181305395560496E+02    0.262177919750710043E+04   -0.417920032561642165E+04    0.858458355111947640E+04   -0.889696288320183521E+04    0.452211756813560442E+04   -0.902100349617366874E+03    0.212723318509840347E+02
    0.585156861809180973E-01    0.563222361016681994E+01    0.122356463392237291E+02    0.262686960383329688E+04   -0.420583206975771463E+04    0.863973320080824669E+04   -0.895356520117876426E+04    0.455093575582532958E+04   -0.907924897690668899E+03    0.212735582142104320E+02
    0.576536216423604794E-01    0.605003404722741944E+01    0.123759545843884808E+02    0.262035383629118951E+04   -0.417405132678542213E+04    0.857890637660638095E+04   -0.889635122658352157E+04    0.452442711274530757E+04   -0.903072942154710745E+03    0.213044558761767604E+02
    0.567289904415721122E-01    0.571097986210358766E+01    0.122707623169502007E+02    0.262846957825829395E+04   -0.421506841527485631E+04    0.866034939061095793E+04   -0.897585807988749730E+04    0.456264718239292142E+04   -0.910323108115768719E+03    0.213428719353351326E+02
    0.567289904415721122E-01    0.571097986210358766E+01    0.122707623169502007E+02    0.262846957825829395E+04   -0.421506841527485631E+04    0.866034939061095793E+04   -0.897585807988749730E+04    0.456264718239292142E+04   -0.910323108115768719E+03    0.213428719353351326E+02
    0.575042810829114737E-01    0.590599055240198734E+01    0.123219000937346017E+02    0.262209722037419260E+04   -0.418400514442881013E+04    0.860112928303814806E+04   -0.892066189532504359E+04    0.453749076546690594E+04   -0.905838466235308715E+03    0.213532143184030296E+02
    0.575042810829114737E-01    0.590599055240198734E+01    0.123219000937346017E+02    0.262209722037419260E+04   -0.418400514442881013E+04    0.860112928303814806E+04   -0.892066189532504359E+04    0.453749076546690594E+04   -0.905838466235308715E+03    0.213532143184030296E+02
    0.549508676996836656E-01    0.549847918755796528E+01    0.121934355929607623E+02    0.262259374572916249E+04   -0.418509153420121129E+04    0.860066846755702136E+04   -0.891798088231445399E+04    0.453534382278470002E+04   -0.905318964129648180E+03    0.213555856074602595E+02
    0.572965340820309268E-01    0.545830283425533036E+01    0.121810831885803434E+02    0.263559216771427600E+04   -0.425408969231477022E+04    0.874481413311029974E+04   -0.906609977121869088E+04    0.461022181539760550E+04   -0.920223305471786603E+03    0.213986137119500484E+02
    0.567086935369338629E-01    0.564791303754285057E+01    0.122398524242718878E+02    0.261752502376508619E+04   -0.415676944516876301E+04    0.853806836337531240E+04   -0.884961956930958331E+04    0.449849356232288665E+04   -0.897479885708455299E+03    0.214625066128420521E+02
    0.567086935369338629E-01    0.564791303754285057E+01    0.122398524242718878E+02    0.261752502376508619E+04   -0.415676944516876301E+04    0.853806836337531240E+04   -0.884961956930958331E+04    0.449849356232288665E+04   -0.897479885708455299E+03    0.214625066128420521E+02
    0.550685077274931378E-01    0.603642534974174794E+01    0.123773667658768858E+02    0.262083726930525427E+04   -0.417525913583261718E+04    0.857885347770944645E+04   -0.889398506581001311E+04    0.452226023388671365E+04   -0.902491369011544066E+03    0.214701409128219680E+02
    0.557409678084371182E-01    0.580855158059693011E+01    0.122893626394383997E+02    0.262771507342168752E+04   -0.421369689440284310E+04    0.866326380511208117E+04   -0.898502943976242568E+04    0.457050080833986158E+04   -0.912542947754473175E+03    0.214768110800178249E+02
    0.564494141153252665E-01    0.572283785589455185E+01    0.122502960224321775E+02    0.262800372492748193E+04   -0.421388209026914046E+04    0.866085583814216079E+04   -0.897971694685970397E+04    0.456639952329089374E+04   -0.911448279872427520E+03    0.214768962543678050E+02
    0.578638733790962090E-01    0.582374303614387756E+01    0.122868367218461358E+02    0.260904895787275063E+04   -0.411281209318994934E+04    0.844795143156470840E+04   -0.875823369371824811E+04    0.445259494029482448E+04   -0.888334650170940677E+03    0.214888106047798395E+02
    0.569330274791492175E-01    0.557572043066763090E+01    0.122174873127148249E+02    0.263728560261005896E+04   -0.426167448060433526E+04    0.875807540290281031E+04   -0.907743777367579969E+04    0.461496971919904991E+04   -0.921004535643865211E+03    0.214905714631029561E+02
    0.569330274791492175E-01    0.557572043066763090E+01    0.122174873127148249E+02    0.263728560261005896E+04   -0.426167448060433526E+04    0.875807540290281031E+04   -0.907743777367579969E+04    0.461496971919904991E+04   -0.921004535643865211E+03    0.214905714631029561E+02
    0.542805658652655287E-01    0.561504486833137673E+01    0.122333387801455622E+02    0.262780601710947712E+04   -0.421232412980859681E+04    0.865666370231280598E+04   -0.897456759743711882E+04    0.456343544212470078E+04   -0.910797390639733180E+03    0.215045465062793895E+02
    0.557108235334242002E-01    0.606502902096567009E+01    0.123841921084982793E+02    0.262009536149391533E+04   -0.417157673850116043E+04    0.857152277148892972E+04   -0.888666979658981290E+04    0.451860812427987730E+04   -0.901764545777738590E+03    0.215244300940024829E+02
    0.575376221205534735E-01    0.600015325113059994E+01    0.123478042891012656E+02    0.261623653478128699E+04   -0.415232874530517893E+04    0.853367537739581712E+04   -0.884989075278901146E+04    0.450087779724846405E+04   -0.898357145715359252E+03    0.215418675111465880E+02
    0.572951315878199793E-01    0.564957880071782004E+01    0.122470929574096878E+02    0.262973167678602340E+04   -0.422175219903568632E+04    0.867446781756221208E+04   -0.899071947715499300E+04    0.457044386791477427E+04   -0.911954546224430487E+03    0.215969478747172872E+02
    0.593839796153754346E-01    0.579093206189452125E+01    0.122906659013114670E+02    0.263306551058938066E+04   -0.424120699762483855E+04    0.871895455164212399E+04   -0.904055969456148887E+04    0.459780406028060952E+04   -0.917844159672760043E+03    0.216178273038328044E+02
    0.555539835377124452E-01    0.584840085317052782E+01    0.123005617724952181E+02    0.261815543878289373E+04   -0.416206571072075440E+04    0.855353434480065698E+04   -0.887034078462408070E+04    0.451154767617744801E+04   -0.900616945471381769E+03    0.216416786724923469E+02
    0.565521714018631869E-01    0.601610951174870756E+01    0.123697602899479584E+02    0.262722460773225703E+04   -0.420970242389854593E+04    0.865209810812495380E+04   -0.897072795299717291E+04    0.456187026056720879E+04   -0.910549171525214774E+03    0.216605885662576334E+02
    0.565521714018631869E-01    0.601610951174870756E+01    0.123697602899479584E+02    0.262722460773225703E+04   -0.420970242389854593E+04    0.865209810812495380E+04   -0.897072795299717291E+04    0.456187026056720879E+04   -0.910549171525214774E+03    0.216605885662576334E+02
    0.547228695507418900E-01    0.556902157901745198E+01    0.121968277757501689E+02    0.263113080010522754E+04   -0.423043612235531145E+04    0.869574303921780847E+04   -0.901632633667044138E+04    0.458553253487494840E+04   -0.915430081055357618E+03    0.216789720653694431E+02
    0.577030914353478253E-01    0.567982280337530909E+01    0.122589246289075788E+02    0.262820702550519354E+04   -0.421652785410439265E+04    0.866974777189812812E+04   -0.899242807072836149E+04    0.457469524796614496E+04   -0.913481634142979487E+03    0.216827429505422415E+02
    0.591173643781240168E-01    0.578473874338993532E+01    0.122874968870195236E+02    0.263416824286919291E+04   -0.424727749284261245E+04    0.873237918721260212E+04   -0.905537570281649096E+04    0.460592120180544771E+04   -0.919603302830297139E+03    0.216827882241604826E+02
    0.591173643781240168E-01    0.578473874338993532E+01    0.122874968870195236E+02    0.263416824286919291E+04   -0.424727749284261245E+04    0.873237918721260212E+04   -0.905537570281649096E+04    0.460592120180544771E+04   -0.919603302830297139E+03    0.216827882241604826E+02
    0.573453541573718112E-01    0.588902877108262768E+01    0.123311092841165006E+02    0.262292639494371952E+04   -0.418716923635657258E+04    0.860530647160542867E+04   -0.892265171324496077E+04    0.453744157582605476E+04   -0.905640674668727115E+03    0.216862825768828280E+02
    0.573453541573718112E-01    0.588902877108262768E+01    0.123311092841165006E+02    0.262292639494371952E+04   -0.418716923635657258E+04    0.860530647160542867E+04   -0.892265171324496077E+04    0.453744157582605476E+04   -0.905640674668727115E+03    0.216862825768828280E+02
    0.582997879986343198E-01    0.566666457212753905E+01    0.122305224094316731E+02    0.262940131464754313E+04   -0.422046369726456123E+04    0.867277752352013886E+04   -0.899003406351727972E+04    0.457062460934323099E+04   -0.912090585351515529E+03    0.216909647541813726E+02
    0.582997879986343198E-01    0.566666457212753905E+01    0.122305224094316731E+02    0.262940131464754313E+04   -0.422046369726456123E+04    0.867277752352013886E+04   -0.899003406351727972E+04    0.457062460934323099E+04   -0.912090585351515529E+03    0.216909647541813726E+02
    0.565231887923858464E-01    0.543713468721449900E+01    0.121661168195290585E+02    0.262780556479364350E+04   -0.421170895550094247E+04    0.865403941430225132E+04   -0.897047270924361146E+04    0.456066860716067640E+04   -0.910115137653789247E+03    0.217173852895109896E+02
    0.589729767165995053E-01    0.573741161203427019E+01    0.122479460124264552E+02    0.262460647102467874E+04   -0.419644745425356268E+04    0.862553581501701228E+04   -0.894440264787360502E+04    0.454897057022086847E+04   -0.908049190901269981E+03    0.217663184217453498E+02
    0.583553413186597841E-01    0.563639980073155744E+01    0.122450489511990721E+02    0.262362390527093339E+04   -0.419111368502879213E+04    0.861411889940526089E+04   -0.893239829234200624E+04    0.454279270687404187E+04   -0.906808977586339779E+03    0.218197486721108795E+02
    0.583553413186597841E-01    0.563639980073155744E+01    0.122450489511990721E+02    0.262362390527093339E+04   -0.419111368502879213E+04    0.861411889940526089E+04   -0.893239829234200624E+04    0.454279270687404187E+04   -0.906808977586339779E+03    0.218197486721108795E+02
    0.556325950576989081E-01    0.535195838365963006E+01    0.121354389894809227E+02    0.263356733446363933E+04   -0.424430369830212749E+04    0.872668139410469485E+04   -0.905017718304439768E+04    0.460371909783334650E+04   -0.919272976608210001E+03    0.218240449077687266E+02
    0.556325950576989081E-01    0.535195838365963006E+01    0.121354389894809227E+02    0.263356733446363933E+04   -0.424430369830212749E+04    0.872668139410469485E+04   -0.905017718304439768E+04    0.460371909783334650E+04   -0.919272976608210001E+03    0.218240449077687266E+02
    0.572833197176338890E-01    0.576015892413941977E+01    0.122831068097754521E+02    0.262312132134108515E+04   -0.418758037895895177E+04    0.860515513982827542E+04   -0.892170297155802655E+04    0.453666221420594957E+04   -0.905441351471903658E+03    0.218273453609398089E+02
    0.572833197176338890E-01    0.576015892413941977E+01    0.122831068097754521E+02    0.262312132134108515E+04   -0.418758037895895177E+04    0.860515513982827542E+04   -0.892170297155802655E+04    0.453666221420594957E+04   -0.905441351471903658E+03    0.218273453609398089E+02
    0.574731305550666843E-01    0.539377347531458984E+01    0.121553516722854873E+02    0.264289234380820608E+04   -0.429413837319429240E+04    0.883186158210300164E+04   -0.915977874588902341E+04    0.466011769374059440E+04   -0.930741612518071406E+03    0.218764021552513341E+02
    0.567273447746214701E-01    0.548710833636865392E+01    0.121868133217533217E+02    0.263240904801008674E+04   -0.423760316711648375E+04    0.871142388331197071E+04   -0.903300801725806741E+04    0.459414789004540944E+04   -0.917157926114430211E+03    0.219193305549795490E+02
    0.567273447746214701E-01    0.548710833636865392E+01    0.121868133217533217E+02    0.263240904801008674E+04   -0.423760316711648375E+04    0.871142388331197071E+04   -0.903300801725806741E+04    0.459414789004540944E+04   -0.917157926114430211E+03    0.219193305549795490E+02
    0.581424571940718088E-01    0.592659635954653119E+01    0.123264076212870304E+02    0.262447734060543144E+04   -0.419651470025148137E+04    0.862742978109845171E+04   -0.894830623458651462E+04    0.455199325634946308E+04   -0.908866430064394990E+03    0.219236905556512518E+02
    0.581424571940718088E-01    0.592659635954653119E+01    0.123264076212870304E+02    0.262447734060543144E+04   -0.419651470025148137E+04    0.862742978109845171E+04   -0.894830623458651462E+04    0.455199325634946308E+04   -0.908866430064394990E+03    0.219236905556512518E+02
    0.571803867213173042E-01    0.545046956823206141E+01    0.121742420843069201E+02    0.263411108678401297E+04   -0.424737273728002674E+04    0.873370526468207754E+04   -0.905825712278370884E+04    0.460835971811192030E+04   -0.920332624076449974E+03    0.219689716973555456E+02
    0.566210139913660288E-01    0.563916035552457817E+01    0.122390726792824527E+02    0.262509186790219883E+04   -0.419737491403900549E+04    0.862397811962349806E+04   -0.893919524566817381E+04    0.454453402889623339E+04   -0.906815218259790072E+03    0.220018117737088197E+02
    0.574276515067933466E-01    0.598372937223427037E+01    0.123434625850784769E+02    0.261580548341403619E+04   -0.414998661325075045E+04    0.852887337197934175E+04   -0.884526844166577212E+04    0.449881571152585639E+04   -0.898027149556881795E+03    0.220055696240748873E+02
    0.574276515067933466E-01    0.598372937223427037E+01    0.123434625850784769E+02    0.261580548341403619E+04   -0.414998661325075045E+04    0.852887337197934175E+04   -0.884526844166577212E+04    0.449881571152585639E+04   -0.898027149556881795E+03    0.220055696240748873E+02
    0.595610366276646819E-01    0.576347035180768152E+01    0.122654252730060502E+02    0.262639239902482132E+04   -0.420541412472430966E+04    0.864310152772354922E+04   -0.896115237347611037E+04    0.455672691635144292E+04   -0.909439110225291643E+03    0.220159615719554580E+02
    0.572579444232600640E-01    0.587128696236422254E+01    0.123154704808287487E+02    0.262233359375292548E+04   -0.418418888448421058E+04    0.859961850577059340E+04   -0.891747209941384062E+04    0.453517079970660325E+04   -0.905250691541339961E+03    0.220266457016902315E+02
    0.563900852147841691E-01    0.557198335539371037E+01    0.122101083791811842E+02    0.262107866833752223E+04   -0.417586023441288125E+04    0.857872574220797651E+04   -0.889248975146636622E+04    0.452085463185989556E+04   -0.902091743623378193E+03    0.220305057659362440E+02
    0.563900852147841691E-01    0.557198335539371037E+01    0.122101083791811842E+02    0.262107866833752223E+04   -0.417586023441288125E+04    0.857872574220797651E+04   -0.889248975146636622E+04    0.452085463185989556E+04   -0.902091743623378193E+03    0.220305057659362440E+02
    0.591206173994162018E-01    0.598571530854182754E+01    0.123547610947837985E+02    0.262110419376110985E+04   -0.417856790750311302E+04    0.858967001736759630E+04   -0.890908040486661230E+04    0.453189861516600922E+04   -0.904810318629912786E+03    0.220520197390282178E+02
    0.586758866297363083E-01    0.545196991731486236E+01    0.121794509491828045E+02    0.263670955469658065E+04   -0.426160052087128588E+04    0.876417083301135062E+04   -0.909011797349327207E+04    0.462461311578426466E+04   -0.923563371733941267E+03    0.220674188616971847E+02
    0.586758866297363083E-01    0.545196991731486236E+01    0.121794509491828045E+02    0.263670955469658065E+04   -0.426160052087128588E+04    0.876417083301135062E+04   -0.909011797349327207E+04    0.462461311578426466E+04   -0.923563371733941267E+03    0.220674188616971847E+02
    0.591680520806807178E-01    0.575383228450091977E+01    0.122693500983348525E+02    0.263507958462003626E+04   -0.425232623104399318E+04    0.874349205477709074E+04   -0.906754140193069179E+04    0.461253665451704001E+04   -0.921028733159504554E+03    0.220796944878759724E+02
    0.585623336011057288E-01    0.602337263748723384E+01    0.123625230902433376E+02    0.262034101707270293E+04   -0.417246974785445127E+04    0.857252051902895982E+04   -0.888680320465670957E+04    0.451821887423431690E+04   -0.901590693173886962E+03    0.220850392505838258E+02
    0.578846158007488773E-01    0.558687244550465767E+01    0.122237108075263130E+02    0.261667535542793576E+04   -0.415231380824777261E+04    0.852861568988075305E+04   -0.883944562101384872E+04    0.449293250588755745E+04   -0.896247875023131428E+03    0.221008140681935252E+02
    0.578846158007488773E-01    0.558687244550465767E+01    0.122237108075263130E+02    0.261667535542793576E+04   -0.415231380824777261E+04    0.852861568988075305E+04   -0.883944562101384872E+04    0.449293250588755745E+04   -0.896247875023131428E+03    0.221008140681935252E+02
    0.571701502094230860E-01    0.567795199715184395E+01    0.122565547937494816E+02    0.262839361995008130E+04   -0.421652477140554765E+04    0.866747704801274813E+04   -0.898760964404898186E+04    0.457094947839661290E+04   -0.912471870079693190E+03    0.221079717872594976E+02
    0.554110422691865001E-01    0.553222499042462523E+01    0.121924827258006268E+02    0.262980470024255192E+04   -0.422465111114604861E+04    0.868654641276647635E+04   -0.901014679027812417E+04    0.458422749592728997E+04   -0.915567233219573609E+03    0.221460168206825934E+02
    0.554143312414673989E-01    0.566799144806010524E+01    0.122372920859219008E+02    0.262167935262974515E+04   -0.418086251048360009E+04    0.859317065846550395E+04   -0.891164952436172644E+04    0.453281719533620253E+04   -0.904942750194081896E+03    0.221766078860185445E+02
    0.590468289504148605E-01    0.579719168766050252E+01    0.122771666015362797E+02    0.262347459696966780E+04   -0.419004616235425328E+04    0.861139639928273755E+04   -0.892907563029371340E+04    0.454078230311439802E+04   -0.906319064673714024E+03    0.221780728367595863E+02
    0.553935884156182209E-01    0.592295670989983059E+01    0.123270414676690514E+02    0.262602817217888924E+04   -0.420540261735367130E+04    0.864758813980810373E+04   -0.897092624243587488E+04    0.456455497403096524E+04   -0.911630123755268073E+03    0.221801654138775000E+02
    0.553935884156182209E-01    0.592295670989983059E+01    0.123270414676690514E+02    0.262602817217888924E+04   -0.420540261735367130E+04    0.864758813980810373E+04   -0.897092624243587488E+04    0.456455497403096524E+04   -0.911630123755268073E+03    0.221801654138775000E+02
    0.557150715969536234E-01    0.580761633943987832E+01    0.122814126839868845E+02    0.262846799067843267E+04   -0.421720132690563969E+04    0.867010176448359198E+04   -0.899220538847254102E+04    0.457456093901749955E+04   -0.913509899966506282E+03    0.222173668165174902E+02
    0.557150715969536234E-01    0.580761633943987832E+01    0.122814126839868845E+02    0.262846799067843267E+04   -0.421720132690563969E+04    0.867010176448359198E+04   -0.899220538847254102E+04    0.457456093901749955E+04   -0.913509899966506282E+03    0.222173668165174902E+02
    0.554884772784648150E-01    0.572673420789474008E+01    0.122707612475071777E+02    0.263049698890112995E+04   -0.422594485260226429E+04    0.868369760011318431E+04   -0.900092245012764215E+04    0.457608430313301324E+04   -0.913194387704166957E+03    0.222180717500237961E+02
    0.581638553462207192E-01    0.597433536005868504E+01    0.123492917956638095E+02    0.261423614040598477E+04   -0.414089877496331792E+04    0.850779860377333898E+04   -0.882098714967482010E+04    0.448498750167559865E+04   -0.894921722104837500E+03    0.222559345341751396E+02
    0.573410821162579909E-01    0.590411921272815921E+01    0.123342044236974431E+02    0.262712797217002617E+04   -0.420997183227888399E+04    0.865436569331586725E+04   -0.897496803445440673E+04    0.456509694134755409E+04   -0.911436255868894932E+03    0.222653855998522445E+02
    0.573410821162579909E-01    0.590411921272815921E+01    0.123342044236974431E+02    0.262712797217002617E+04   -0.420997183227888399E+04    0.865436569331586725E+04   -0.897496803445440673E+04    0.456509694134755409E+04   -0.911436255868894932E+03    0.222653855998522445E+02
    0.584330869987714357E-01    0.562533825764554862E+01    0.122293930131732775E+02    0.262213785824241040E+04   -0.418307339021415737E+04    0.859726666188580748E+04   -0.891524097662368877E+04    0.453428216069715108E+04   -0.905158186943952956E+03    0.222661713314563059E+02
    0.596584250504516300E-01    0.579814688032893422E+01    0.122783546005437287E+02    0.262553357224072533E+04   -0.420197489074968053E+04    0.863832856916250603E+04   -0.895876910025298275E+04    0.455680270534770989E+04   -0.909709394861399915E+03    0.222794259784701758E+02
    0.550875608439741482E-01    0.578729126241160863E+01    0.122732174911025105E+02    0.263314614316594725E+04   -0.424233441876064262E+04    0.872309171899739522E+04   -0.904692889628404737E+04    0.460221632644550300E+04   -0.918979593323735799E+03    0.222900302026861894E+02
    0.560296682549145941E-01    0.587599447034559397E+01    0.123039411984855640E+02    0.261752682480353224E+04   -0.415859099741803220E+04    0.854548931771478965E+04   -0.886076579120179849E+04    0.450579243093011519E+04   -0.899236970386653866E+03    0.222910303213316894E+02
    0.592688339556549926E-01    0.560974040473378910E+01    0.122276516608716559E+02    0.262488907445135374E+04   -0.419627233627805253E+04    0.862151224911026839E+04   -0.893634117849084214E+04    0.454281717855967599E+04   -0.906391059131376437E+03    0.223578074356006660E+02
    0.595658403343619219E-01    0.587310158061909515E+01    0.123110243424379338E+02    0.262983756039362606E+04   -0.422467653922904447E+04    0.868566227694997906E+04   -0.900758282998095274E+04    0.458172938138451900E+04   -0.914755966790905632E+03    0.223651477226155748E+02
    0.573669383321593965E-01    0.593297210727424407E+01    0.123445021689936603E+02    0.261911556561227144E+04   -0.416554929717558116E+04    0.855718080982471656E+04   -0.887010358125351013E+04    0.450928498363658946E+04   -0.899711104217321349E+03    0.223690915906728200E+02
    0.554588219848705447E-01    0.553849193112619620E+01    0.122028294756266362E+02    0.263081656186228611E+04   -0.422875763375366114E+04    0.869221274789868767E+04   -0.901261104838402935E+04    0.458354120319339745E+04   -0.914990617048689501E+03    0.223775044648657833E+02
    0.592556562111562629E-01    0.581270267507924121E+01    0.122923040079860790E+02    0.261584655825745767E+04   -0.414991873079758534E+04    0.852787104855199323E+04   -0.884317552191684990E+04    0.449717733635371496E+04   -0.897584306087101254E+03    0.223992459156917008E+02
    0.592556562111562629E-01    0.581270267507924121E+01    0.122923040079860790E+02    0.261584655825745767E+04   -0.414991873079758534E+04    0.852787104855199323E+04   -0.884317552191684990E+04    0.449717733635371496E+04   -0.897584306087101254E+03    0.223992459156917008E+02
    0.569808656071358818E-01    0.549785217591631703E+01    0.121969972941151319E+02    0.262285461843516759E+04   -0.418520176936249663E+04    0.859805774679086971E+04   -0.891213575002609286E+04    0.453063547107857994E+04   -0.903995259831715657E+03    0.224300302123041817E+02
    0.564791411375105412E-01    0.578135520265670433E+01    0.122900323504682447E+02    0.261608252492413249E+04   -0.415056236002712740E+04    0.852789512984151770E+04   -0.884170702237469050E+04    0.449556495071774771E+04   -0.897059386351687976E+03    0.224397548570779151E+02
    0.575671520400978243E-01    0.595578378533007857E+01    0.123370073438854444E+02    0.261736594653007614E+04   -0.415768770820252030E+04    0.854330782194004678E+04   -0.885801583142946765E+04    0.450404828966845616E+04   -0.898802498400515788E+03    0.224426711200323297E+02
    0.575671520400978243E-01    0.595578378533007857E+01    0.123370073438854444E+02    0.261736594653007614E+04   -0.415768770820252030E+04    0.854330782194004678E+04   -0.885801583142946765E+04    0.450404828966845616E+04   -0.898802498400515788E+03    0.224426711200323297E+02
    0.563957174130673006E-01    0.596652258965532667E+01    0.123328778043691791E+02    0.261888805185407773E+04   -0.416569293477908650E+04    0.856035170459901929E+04   -0.887639412562691905E+04    0.451405396618379837E+04   -0.900991401662538465E+03    0.224569702346021387E+02
    0.568117604177389574E-01    0.576240053147903897E+01    0.122836961413728201E+02    0.262703301825059134E+04   -0.421043308664011147E+04    0.865746843582284055E+04   -0.898041840847021376E+04    0.456898986916349168E+04   -0.912428837877252136E+03    0.224978020971328903E+02
    0.561591498014474624E-01    0.591703270522065683E+01    0.123092359460209071E+02    0.262588248082704604E+04   -0.420260778433948599E+04    0.863727575983729548E+04   -0.895546273193604065E+04    0.455413511259182269E+04   -0.909007705002066587E+03    0.225101571751853378E+02
    0.566765273358513719E-01    0.587090494837852717E+01    0.123239439888529816E+02    0.261885404147115287E+04   -0.416421133939491756E+04    0.855439408233081667E+04   -0.886711521636964426E+04    0.450762877793726784E+04   -0.899333592570116707E+03    0.225123523625196142E+02
    0.566765273358513719E-01    0.587090494837852717E+01    0.123239439888529816E+02    0.261885404147115287E+04   -0.416421133939491756E+04    0.855439408233081667E+04   -0.886711521636964426E+04    0.450762877793726784E+04   -0.899333592570116707E+03    0.225123523625196142E+02
    0.579859174781579625E-01    0.587342948727063163E+01    0.123101238170320091E+02    0.262119429226928150E+04   -0.417840451469932395E+04    0.858767655216169805E+04   -0.890500847523846460E+04    0.452866132195850969E+04   -0.903903855737237450E+03    0.225157155642929894E+02
    0.569966104235470339E-01    0.555875501935903937E+01    0.122162823871455650E+02    0.262422441253703346E+04   -0.419271879655807334E+04    0.861404968588042721E+04   -0.892869025446060914E+04    0.453901341150792905E+04   -0.905662148966068798E+03    0.225226037245911854E+02
    0.569966104235470339E-01    0.555875501935903937E+01    0.122162823871455650E+02    0.262422441253703346E+04   -0.419271879655807334E+04    0.861404968588042721E+04   -0.892869025446060914E+04    0.453901341150792905E+04   -0.905662148966068798E+03    0.225226037245911854E+02
    0.582647295890685382E-01    0.585394160414607612E+01    0.123004107450070812E+02    0.262083029044851719E+04   -0.417543584555715552E+04    0.857925513204562958E+04   -0.889398531497116892E+04    0.452180693190173224E+04   -0.902257982131901940E+03    0.225790645150253972E+02
    0.574575153481157869E-01    0.547133610203691667E+01    0.121884368864357100E+02    0.263709536585662136E+04   -0.426305142877210528E+04    0.876631132008617897E+04   -0.909179680563799411E+04    0.462540566193243467E+04   -0.923752689548760941E+03    0.225941067137548011E+02
    0.577151643130923708E-01    0.597615379382114220E+01    0.123419297491334419E+02    0.261732007305992374E+04   -0.415622355560269443E+04    0.853825103219753510E+04   -0.885134183255235439E+04    0.450020160159316220E+04   -0.897991893616544417E+03    0.225942111961708285E+02
    0.553344041435800335E-01    0.555585577667107966E+01    0.122089315386369233E+02    0.263787242844080038E+04   -0.426635184506509722E+04    0.877122375590875890E+04   -0.909449093333757264E+04    0.462539642773639480E+04   -0.923437957555523667E+03    0.226010916348702082E+02
    0.574849135640999667E-01    0.575319755926137155E+01    0.122811097642850910E+02    0.262552293097721986E+04   -0.419941161863061097E+04    0.862746994116144197E+04   -0.894172523970701150E+04    0.454512163228825466E+04   -0.906761385829118467E+03    0.226191517941045852E+02
    0.570758148778714655E-01    0.561709385030675001E+01    0.122220003152581924E+02    0.263046225202074129E+04   -0.422613556983682975E+04    0.868483825757381965E+04   -0.900271204170652527E+04    0.457717664493427219E+04   -0.913417044960918702E+03    0.226366688323202396E+02
    0.575335996893778998E-01    0.585032614771128845E+01    0.123165829195115570E+02    0.262455755691972854E+04   -0.419652422412681153E+04    0.862676200731626705E+04   -0.894713496778105036E+04    0.455128216228862311E+04   -0.908729474479835517E+03    0.226438519018930258E+02
    0.575335996893778998E-01    0.585032614771128845E+01    0.123165829195115570E+02    0.262455755691972854E+04   -0.419652422412681153E+04    0.862676200731626705E+04   -0.894713496778105036E+04    0.455128216228862311E+04   -0.908729474479835517E+03    0.226438519018930258E+02
    0.580511696934067761E-01    0.553479747438522907E+01    0.121947847642536562E+02    0.262318395525147525E+04   -0.418887279932667843E+04    0.860969653023933279E+04   -0.892813861569092842E+04    0.454076265289948060E+04   -0.906419309001199281E+03    0.226631327434303671E+02
    0.577352756178443963E-01    0.585218842170683029E+01    0.122970988676547819E+02    0.262791422757355758E+04   -0.421321584386140694E+04    0.865916121371375266E+04   -0.897783513468616184E+04    0.456549724897972192E+04   -0.911305888368762112E+03    0.226730845812098387E+02
    0.585333029954694800E-01    0.576974684906788404E+01    0.122709947508870254E+02    0.261850393791193937E+04   -0.416401471312499962E+04    0.855750775369579605E+04   -0.887406012822454068E+04    0.451313445388106629E+04   -0.900854619194654447E+03    0.227029406534031537E+02
    0.553675160498304300E-01    0.588628884874759528E+01    0.123105769838492538E+02    0.262648538748291594E+04   -0.420475081601523561E+04    0.863963111989275603E+04   -0.895580019058226026E+04    0.455330889887715421E+04   -0.908658277527095152E+03    0.227228144038775639E+02
    0.553675160498304300E-01    0.588628884874759528E+01    0.123105769838492538E+02    0.262648538748291594E+04   -0.420475081601523561E+04    0.863963111989275603E+04   -0.895580019058226026E+04    0.455330889887715421E+04   -0.908658277527095152E+03    0.227228144038775639E+02
    0.557875321826209539E-01    0.556585510593894295E+01    0.122146801900528672E+02    0.262928360100592681E+04   -0.422227433130852296E+04    0.868198101006897741E+04   -0.900536812314370400E+04    0.458148225270004696E+04   -0.914892520080961503E+03    0.227332742824571241E+02
    0.557875321826209539E-01    0.556585510593894295E+01    0.122146801900528672E+02    0.262928360100592681E+04   -0.422227433130852296E+04    0.868198101006897741E+04   -0.900536812314370400E+04    0.458148225270004696E+04   -0.914892520080961503E+03    0.227332742824571241E+02
    0.582024539891476470E-01    0.584391158670324984E+01    0.123001622135455779E+02    0.262743504980226135E+04   -0.421037512273388620E+04    0.865264229676421019E+04   -0.897051474006452008E+04    0.456145345521716445E+04   -0.910424409369891350E+03    0.227670688805720403E+02
    0.560783761631404309E-01    0.572849524290381851E+01    0.122692569153722211E+02    0.262804988972304864E+04   -0.421234414552844191E+04    0.865382065482098187E+04   -0.896847512107895091E+04    0.455866129847411230E+04   -0.909496149491487131E+03    0.227903035980535833E+02
    0.571061739005076924E-01    0.578523958646099778E+01    0.122883216100120016E+02    0.262509336166386174E+04   -0.419784704362158936E+04    0.862572409014235745E+04   -0.894146553227539152E+04    0.454571794999517897E+04   -0.907010054272526986E+03    0.227964014111011721E+02
    0.563907693226632784E-01    0.583449250982296874E+01    0.123032002597235710E+02    0.262803225118940054E+04   -0.421513304096821230E+04    0.866603492951472617E+04   -0.898800405175092419E+04    0.457227419899443885E+04   -0.912992025640793486E+03    0.227986908541846063E+02
    0.563907693226632784E-01    0.583449250982296874E+01    0.123032002597235710E+02    0.262803225118940054E+04   -0.421513304096821230E+04    0.866603492951472617E+04   -0.898800405175092419E+04    0.457227419899443885E+04   -0.912992025640793486E+03    0.227986908541846063E+02
    0.578852824775291167E-01    0.575015865214350974E+01    0.122561863609813031E+02    0.261937340074256690E+04   -0.416817743943858750E+04    0.856551290994087321E+04   -0.888180578316621177E+04    0.451689872580644715E+04   -0.901587253635210914E+03    0.228192798544837103E+02
    0.578852824775291167E-01    0.575015865214350974E+01    0.122561863609813031E+02    0.261937340074256690E+04   -0.416817743943858750E+04    0.856551290994087321E+04   -0.888180578316621177E+04    0.451689872580644715E+04   -0.901587253635210914E+03    0.228192798544837103E+02
    0.551265770040732794E-01    0.552511608814805033E+01    0.122048536130437437E+02    0.263351214906316545E+04   -0.424212715259633387E+04    0.871833040983437240E+04   -0.903780999616693043E+04    0.459560112590233894E+04   -0.917292320302615735E+03    0.228226873964289432E+02
    0.574428578398391287E-01    0.561356281247541844E+01    0.122413625252632468E+02    0.263663820513494011E+04   -0.426033686812128053E+04    0.875981569901985858E+04   -0.908404041557692653E+04    0.462082343932957428E+04   -0.922687420180560139E+03    0.228454787074015080E+02
    0.542532147141324000E-01    0.576587656403633986E+01    0.122724046016477075E+02    0.263048037428056750E+04   -0.422650897362677551E+04    0.868632754394391304E+04   -0.900516293765456066E+04    0.457900521436494546E+04   -0.913926588528929642E+03    0.228455974969975095E+02
    0.542532147141324000E-01    0.576587656403633986E+01    0.122724046016477075E+02    0.263048037428056750E+04   -0.422650897362677551E+04    0.868632754394391304E+04   -0.900516293765456066E+04    0.457900521436494546E+04   -0.913926588528929642E+03    0.228455974969975095E+02
    0.562996789792984606E-01    0.563149407838649108E+01    0.122267654841676894E+02    0.262995017436577382E+04   -0.422434410259204469E+04    0.868339932816371947E+04   -0.900409813991421652E+04    0.457963609848753822E+04   -0.914328693519868352E+03    0.228517753331667102E+02
    0.575414398581735390E-01    0.566526210396054974E+01    0.122454117719033810E+02    0.262769397275844221E+04   -0.421326642187323159E+04    0.866175599607584081E+04   -0.898293124376066407E+04    0.456922216069895876E+04   -0.912259979432808791E+03    0.228578227735197430E+02
    0.578484198994226109E-01    0.567006880125639157E+01    0.122461850377385435E+02    0.262615227177340876E+04   -0.420184445208657780E+04    0.863097243640164925E+04   -0.894403388069861103E+04    0.454579991603499911E+04   -0.906829407274250229E+03    0.228722636673889568E+02
    0.564573986771311417E-01    0.560149095201481728E+01    0.122311261310481267E+02    0.264029558043086763E+04   -0.427982237606495346E+04    0.880074125296770580E+04   -0.912643446958496679E+04    0.464250658915411987E+04   -0.927072615311577806E+03    0.228964891384100291E+02
    0.584714934403166645E-01    0.587682185100560517E+01    0.123185312222736592E+02    0.261504532561212181E+04   -0.414459885731813301E+04    0.851477865226614267E+04   -0.882791150345511596E+04    0.448863470688952020E+04   -0.895733142349967920E+03    0.228975077762238577E+02
    0.587336691190320781E-01    0.545125151390202323E+01    0.121762473759222836E+02    0.262921337963434689E+04   -0.422108764966624767E+04    0.867775632372682776E+04   -0.899925498049649832E+04    0.457753890362350830E+04   -0.913952368135415327E+03    0.229019675133463814E+02
    0.548760280459541713E-01    0.543650127635785285E+01    0.121668036700422650E+02    0.263402565173372295E+04   -0.424689651075556321E+04    0.873259684378205748E+04   -0.905691323588401065E+04    0.460750949806290009E+04   -0.920109746531384530E+03    0.229179378468470958E+02
    0.564185448867566552E-01    0.585573879875082959E+01    0.122951972277113590E+02    0.262749968826868007E+04   -0.421176647620417771E+04    0.865769970859597015E+04   -0.897791748973051472E+04    0.456631329895714498E+04   -0.911615155754882039E+03    0.229235962596046861E+02
    0.564185448867566552E-01    0.585573879875082959E+01    0.122951972277113590E+02    0.262749968826868007E+04   -0.421176647620417771E+04    0.865769970859597015E+04   -0.897791748973051472E+04    0.456631329895714498E+04   -0.911615155754882039E+03    0.229235962596046861E+02
    0.562313607810766627E-01    0.586976603503515193E+01    0.123237663600701310E+02    0.262547809661924475E+04   -0.420081361188083611E+04    0.863441636724026466E+04   -0.895358737511988693E+04    0.455378777312695547E+04   -0.909068894151611516E+03    0.229327219212265803E+02
    0.558680817343673447E-01    0.591998593455685196E+01    0.123308656779854040E+02    0.262947935462618580E+04   -0.422142284197083336E+04    0.867593301567394883E+04   -0.899445903035590891E+04    0.457345688848894042E+04   -0.912772976083558433E+03    0.229345114222594511E+02
    0.590779790307198738E-01    0.559731338052563654E+01    0.122108922609652524E+02    0.262640791734857112E+04   -0.420592938520403095E+04    0.864547061067188406E+04   -0.896531539739285472E+04    0.455990324794366916E+04   -0.910323496719512377E+03    0.229490686049186934E+02
    0.581593617514566605E-01    0.584439980464313624E+01    0.123160986066472198E+02    0.262598243060876666E+04   -0.420223805028003153E+04    0.863448527693201868E+04   -0.895037949560667766E+04    0.455037309875818482E+04   -0.908008508394209457E+03    0.229525284919743768E+02
    0.583652795434875873E-01    0.566515949627821946E+01    0.122578604537557361E+02    0.263159430796079687E+04   -0.423277503570331828E+04    0.870013128116222470E+04   -0.902005235654611351E+04    0.458686993049878220E+04   -0.915553898292759186E+03    0.229530179235606475E+02
    0.555677878112056101E-01    0.559430411771094516E+01    0.122225729116937050E+02    0.263667432716889425E+04   -0.426126624769629234E+04    0.876352432664410844E+04   -0.908990615969330611E+04    0.462494304940206257E+04   -0.923757308254713053E+03    0.229650808846907317E+02
    0.563834706840293381E-01    0.592816308488722754E+01    0.123302034225925876E+02    0.261982840986974998E+04   -0.417094860962043640E+04    0.857194390469350765E+04   -0.888890504598594271E+04    0.452061800739284627E+04   -0.902325394517319410E+03    0.229864164119555845E+02
    0.578913093611696239E-01    0.584928347664322246E+01    0.122953055073033362E+02    0.262533086914391242E+04   -0.420046593884500999E+04    0.863468359402379247E+04   -0.895494904175347256E+04    0.455504777912632926E+04   -0.909435236581478762E+03    0.230094181396398056E+02
    0.588852327815637261E-01    0.571560951978943610E+01    0.122651854639250928E+02    0.262253185431112115E+04   -0.418338176999794450E+04    0.859404398835153552E+04   -0.890780935549923379E+04    0.452835964981487905E+04   -0.903528551231141478E+03    0.230610993604680878E+02
    0.583982753056251913E-01    0.568107192999514332E+01    0.122404365318339217E+02    0.261828375386168909E+04   -0.416196033393673497E+04    0.855128917732346054E+04   -0.886554634354897280E+04    0.450765090706455067E+04   -0.899501114999260494E+03    0.230681958045851978E+02
    0.573957049473572886E-01    0.579395399983774606E+01    0.122808107576990952E+02    0.261565580115058765E+04   -0.414762055361083821E+04    0.852033838899795592E+04   -0.883252819028597332E+04    0.449025316866579760E+04   -0.895882884939444921E+03    0.230793756695305170E+02
    0.558337740230006249E-01    0.577428125780351653E+01    0.122738574555142481E+02    0.263472775190098764E+04   -0.424984928810551537E+04    0.873690876771014882E+04   -0.905921379650400195E+04    0.460750477737511028E+04   -0.919863940478241148E+03    0.230888730315990429E+02
    0.581308709894102354E-01    0.571108564926005524E+01    0.122661397897465694E+02    0.262827945719291347E+04   -0.421425446565320090E+04    0.865914654704754503E+04   -0.897517239739328215E+04    0.456257544212699031E+04   -0.910360022919033554E+03    0.231195694382042625E+02
    0.572423423209649507E-01    0.585315512937435223E+01    0.123025823020164129E+02    0.261154814298996098E+04   -0.412569935215187706E+04    0.847420578952623509E+04   -0.878468564881938619E+04    0.446579107825754636E+04   -0.890943680573169672E+03    0.231680630428946976E+02
    0.564809808103922603E-01    0.574282258495762044E+01    0.122682716610031353E+02    0.262931034380390838E+04   -0.421981929362527899E+04    0.867125846717462446E+04   -0.898850911311444361E+04    0.456999920337997719E+04   -0.912022617570144689E+03    0.231707018348434026E+02
    0.567983949480815667E-01    0.550616650144666053E+01    0.121915412050411760E+02    0.262591183300796365E+04   -0.420348018076378594E+04    0.864067438812528053E+04   -0.896070893674944273E+04    0.455776294302726092E+04   -0.909944527527238961E+03    0.231776956530230684E+02
    0.562421413992601343E-01    0.593847055088194686E+01    0.123395876345881632E+02    0.262389580188960963E+04   -0.419310877834872099E+04    0.861963758178235730E+04   -0.893965967406191521E+04    0.454736349831049483E+04   -0.907913717065927926E+03    0.232077552091931452E+02
    0.570892446214684782E-01    0.581402462743185211E+01    0.122841924949073089E+02    0.262407970089796299E+04   -0.419433495025430784E+04    0.862277558970575228E+04   -0.894350141620421709E+04    0.454961838574395551E+04   -0.908422516469714992E+03    0.232389044469172283E+02
    0.592089699973830999E-01    0.578018176285180552E+01    0.122811233052923967E+02    0.261554037301498920E+04   -0.414632263424738267E+04    0.851609432086480956E+04   -0.882647981916191566E+04    0.448627757703560201E+04   -0.894893206494753599E+03    0.232403471446166350E+02
    0.568353836922203398E-01    0.558700474063948604E+01    0.122175331209459959E+02    0.262728914654160189E+04   -0.421132828185505696E+04    0.865861499467717840E+04   -0.898113114074701843E+04    0.456927274301438592E+04   -0.912504903850371306E+03    0.232488873960339149E+02
    0.573771198479662015E-01    0.573085832239112847E+01    0.122528795616359716E+02    0.262133201770172082E+04   -0.417762066529227468E+04    0.858303048521438177E+04   -0.889732365753620252E+04    0.452339317980121268E+04   -0.902594438912571036E+03    0.232697776963391867E+02
    0.573497783839718930E-01    0.582136115138854215E+01    0.122903610872145759E+02    0.263016941663354555E+04   -0.422685493257649887E+04    0.869126676329981819E+04   -0.901459890025317509E+04    0.458599044946246431E+04   -0.915759566746890073E+03    0.232811002314687379E+02
    0.587395722567551209E-01    0.577235398273876399E+01    0.122682821691692272E+02    0.262001601366999557E+04   -0.417216136549246221E+04    0.857492235686838467E+04   -0.889246803681532947E+04    0.452271963866206443E+04   -0.902814913725708379E+03    0.232829546022607730E+02
    0.563593975767730723E-01    0.576932398930242485E+01    0.122834900611675586E+02    0.262373002619419412E+04   -0.419221760128085953E+04    0.861778081551716059E+04   -0.893780702922378987E+04    0.454648459983842440E+04   -0.907756572646790346E+03    0.232884490127561641E+02
    0.551424887255676441E-01    0.555569936913044415E+01    0.122049302564300319E+02    0.263381790506609423E+04   -0.424415842436581624E+04    0.872344963687021118E+04   -0.904399632071595624E+04    0.459920962097163465E+04   -0.918107366228661817E+03    0.232885652582259830E+02
    0.549424656186883326E-01    0.570620307474114608E+01    0.122607215949463288E+02    0.262414153636093397E+04   -0.419262126284698206E+04    0.861494128734592960E+04   -0.893111223368228457E+04    0.454118172732720450E+04   -0.906316341200144393E+03    0.233092931858808612E+02
    0.566372532926416941E-01    0.581232986228255388E+01    0.122879651183387590E+02    0.262769017589747182E+04   -0.421318314324541552E+04    0.866166046565289253E+04   -0.898311187918303403E+04    0.456953835054325009E+04   -0.912380095997441117E+03    0.233351641401271159E+02
    0.557230206478136272E-01    0.559757925525557809E+01    0.122189352492743915E+02    0.263416813521928543E+04   -0.424760335503332499E+04    0.873374946132687364E+04   -0.905752490931392094E+04    0.460741271984047944E+04   -0.919988118956593553E+03    0.233413264535135525E+02
    0.585427986495661509E-01    0.589631625139819349E+01    0.123119034726252181E+02    0.262125588196607032E+04   -0.417796792894453574E+04    0.858542703567533317E+04   -0.890162624366349155E+04    0.452656404774002749E+04   -0.903436367031106897E+03    0.233490211877725855E+02
    0.566557045229294926E-01    0.589449929295614972E+01    0.123083192864882420E+02    0.262401406552096569E+04   -0.419387429834105114E+04    0.862168609150304292E+04   -0.894235584792015834E+04    0.454907500317890936E+04   -0.908331217730294270E+03    0.233516737632096074E+02
    0.586186850658064681E-01    0.594475252274669774E+01    0.123284259288312246E+02    0.262006356506295651E+04   -0.417198014641791997E+04    0.857358746366802916E+04   -0.889009746598758647E+04    0.452103121833617934E+04   -0.902388668929395635E+03    0.233543854750198605E+02
    0.576758153896466119E-01    0.584881382678229578E+01    0.122972236221694544E+02    0.262485669013193137E+04   -0.419826499594517372E+04    0.863053494570884322E+04   -0.895100230971489873E+04    0.455317122355444280E+04   -0.909082291429652514E+03    0.233753686088946360E+02
    0.564033734914834300E-01    0.547785493899418263E+01    0.121789951802984557E+02    0.263328329179090724E+04   -0.424284426469512073E+04    0.872384790692905517E+04   -0.904762202440301189E+04    0.460267209532305424E+04   -0.919123579243846734E+03    0.233815652309998541E+02
    0.569653561914269663E-01    0.582786997228662607E+01    0.122987646966435378E+02    0.262456282474896489E+04   -0.419492547378116433E+04    0.861959142121731566E+04   -0.893540641863493147E+04    0.454295681428109947E+04   -0.906563764358746312E+03    0.234228520824195101E+02
    0.594033081328759621E-01    0.563932445226635970E+01    0.122435821987601212E+02    0.262327147568849477E+04   -0.418946243779427732E+04    0.861110012565137185E+04   -0.892968204247293943E+04    0.454156374118065014E+04   -0.906577354677238191E+03    0.234240897862961468E+02
    0.582896057595374412E-01    0.586433657008080012E+01    0.123083010063213063E+02    0.262201173692349766E+04   -0.418232629899003496E+04    0.859523037090585240E+04   -0.891234336058856752E+04    0.453225599390197385E+04   -0.904615015987181778E+03    0.234326532266241472E+02
    0.563767398911193748E-01    0.551681402225709672E+01    0.121971988391680704E+02    0.262479133845470051E+04   -0.419707935487528994E+04    0.862633016513133771E+04   -0.894486943128530220E+04    0.454911848314111103E+04   -0.908076918727164184E+03    0.234386986949204257E+02
    0.576902713377877227E-01    0.602403251658778327E+01    0.123542506128598077E+02    0.262285078507345406E+04   -0.418716429067401805E+04    0.860622634725276475E+04   -0.892463091172015629E+04    0.453899601825820628E+04   -0.906064879105803698E+03    0.234460224212997872E+02
    0.556260414540314246E-01    0.569769738863287412E+01    0.122618777634465435E+02    0.262920189178938108E+04   -0.422065229827598796E+04    0.867630802335095723E+04   -0.899742747163404420E+04    0.457653671689257590E+04   -0.913754139907689023E+03    0.234562924455103818E+02
    0.585243648235633240E-01    0.605935538081554714E+01    0.123748899477071497E+02    0.261444156487477721E+04   -0.414156732954914696E+04    0.850852527719995123E+04   -0.882127192597713110E+04    0.448502432130115903E+04   -0.894936381033651287E+03    0.234687573329621699E+02
    0.559929999997742442E-01    0.580123807538346448E+01    0.122906070597727002E+02    0.262153039193802442E+04   -0.417845287243807888E+04    0.858420244004633241E+04   -0.889778039771346266E+04    0.452312782553193028E+04   -0.902412580680754218E+03    0.234932594413487905E+02
    0.565804009480995462E-01    0.584306264254818064E+01    0.122968664260130147E+02    0.262191703614607286E+04   -0.418264739067995197E+04    0.859778089318746606E+04   -0.891707758971777184E+04    0.453581095869792352E+04   -0.905571699889221918E+03    0.235042008175618165E+02
    0.586377326435724711E-01    0.559110440357358218E+01    0.122241665357993980E+02    0.262357054894609655E+04   -0.419067919282896946E+04    0.861296825557266129E+04   -0.893098307033573838E+04    0.454193480164172070E+04   -0.906596765891149403E+03    0.235826669606434507E+02
    0.575369316938511149E-01    0.597119404238173423E+01    0.123397208466085644E+02    0.261538987195525215E+04   -0.414604110081797262E+04    0.851682191633389994E+04   -0.882879347940310618E+04    0.448832270542897732E+04   -0.895485700822330500E+03    0.235835395882065342E+02
    0.574029059514612125E-01    0.598787454415621578E+01    0.123536256905874140E+02    0.262331758370327816E+04   -0.418812281152784726E+04    0.860488831975708854E+04   -0.891964412420669032E+04    0.453454410957410710E+04   -0.904768996618936626E+03    0.235942600960610811E+02
    0.550790826719679966E-01    0.575101547227391841E+01    0.122763917404198306E+02    0.262216555878677900E+04   -0.418192546250577016E+04    0.859177385008980855E+04   -0.890603774259211605E+04    0.452764828729323017E+04   -0.903408775978565700E+03    0.236000297015760161E+02
    0.584976772771092293E-01    0.554891309762648266E+01    0.122042639359243896E+02    0.262918426613086513E+04   -0.422025206283949592E+04    0.867457140467993304E+04   -0.899447727205633055E+04    0.457434260955506124E+04   -0.913155486758850884E+03    0.236194247166274920E+02
    0.567446223682268464E-01    0.557974891430472031E+01    0.122171567540304782E+02    0.263656300362630145E+04   -0.426006854340100199E+04    0.875954069925324438E+04   -0.908411703250859136E+04    0.462109882210863088E+04   -0.922803642678340111E+03    0.236601060260908937E+02
    0.549360048850774246E-01    0.578851306389064746E+01    0.122859018128627842E+02    0.262655197008495179E+04   -0.420564985028264073E+04    0.864267432031063618E+04   -0.896018478524937927E+04    0.455619507888576027E+04   -0.909371339135141397E+03    0.236719777023221845E+02
    0.555917233286744167E-01    0.588499021697231051E+01    0.123097512957426787E+02    0.262545692180637525E+04   -0.420049207356112674E+04    0.863330584923045535E+04   -0.895203600246989117E+04    0.455283890839414198E+04   -0.908858168947784861E+03    0.236922144532304024E+02
    0.575983620508548275E-01    0.601159759307154218E+01    0.123637267685846552E+02    0.261803447476537849E+04   -0.416131808888183878E+04    0.855149778185092327E+04   -0.886749244298372651E+04    0.450958445687444964E+04   -0.900092081538658249E+03    0.237071020416539859E+02
    0.580984444044580425E-01    0.551524503126642252E+01    0.122060071304332460E+02    0.263205252162292936E+04   -0.423513017933941683E+04    0.870486408326470701E+04   -0.902470780669699889E+04    0.458912030939429496E+04   -0.915985297731751189E+03    0.237092924905722420E+02
    0.568110793709674863E-01    0.580636503836051610E+01    0.123049884202299840E+02    0.262534393796888480E+04   -0.419924626426328905E+04    0.862920645215788136E+04   -0.894611163165711150E+04    0.454888658728946848E+04   -0.907863991699781423E+03    0.237193896202537076E+02
    0.580092605491337107E-01    0.555619644897318121E+01    0.122056690832550103E+02    0.263402385635712881E+04   -0.424614035011304713E+04    0.872939914520242201E+04   -0.905191704913024842E+04    0.460409623400668534E+04   -0.919248200619412955E+03    0.237287210151424546E+02
    0.583017879486851312E-01    0.566323479739625846E+01    0.122499054085827463E+02    0.261879991969289631E+04   -0.416404322330808827E+04    0.855423081008451481E+04   -0.886709537263090897E+04    0.450768030585409088E+04   -0.899357232222232710E+03    0.237570100309514913E+02
    0.568950485521528271E-01    0.576289952092617597E+01    0.122874760834780385E+02    0.262398464995468748E+04   -0.419147679692606835E+04    0.861164915010270306E+04   -0.892651996678118485E+04    0.453808987499894010E+04   -0.905512778878429799E+03    0.237729353596355217E+02
    0.583305993700835024E-01    0.572414019788178674E+01    0.122613665569609847E+02    0.262734077946183652E+04   -0.421219354789434237E+04    0.866117429009847910E+04   -0.898402199525720789E+04    0.457060749925001619E+04   -0.912694211519201531E+03    0.237849950145780937E+02
    0.578293892289151665E-01    0.559680113068741925E+01    0.122339498624760683E+02    0.263213825266465756E+04   -0.423675450077558435E+04    0.871100307100383725E+04   -0.903416088628373291E+04    0.459565892603557404E+04   -0.917671814156169717E+03    0.237991617548042562E+02
    0.561066810737244556E-01    0.565509034901152141E+01    0.122572135857695166E+02    0.262804924958036645E+04   -0.421400000638787424E+04    0.866098121935213385E+04   -0.897987122941747475E+04    0.456656839494666565E+04   -0.911513847378445121E+03    0.238023575466490627E+02
    0.585664295409714930E-01    0.594924001773505307E+01    0.123299487909786816E+02    0.262162003672282572E+04   -0.417989387609916866E+04    0.858926280757927452E+04   -0.890514060231482654E+04    0.452799145104417403E+04   -0.903624691600830147E+03    0.238075007349967080E+02
    0.590810985152755569E-01    0.580256200991435556E+01    0.122914019064776028E+02    0.262579625227704946E+04   -0.420169409816763437E+04    0.863410271955896314E+04   -0.895059954488512267E+04    0.455072355344270636E+04   -0.908113265405948368E+03    0.238458354215142876E+02
    0.586060952368075844E-01    0.566319753019188799E+01    0.122409120280064201E+02    0.262770269774854796E+04   -0.421387190410362837E+04    0.866432992356842078E+04   -0.898704706798984080E+04    0.457208555491106108E+04   -0.912987960027868667E+03    0.238823637863137854E+02
    0.544953094552071485E-01    0.566965355854155106E+01    0.122446404148771091E+02    0.262834866369970632E+04   -0.421591608476142210E+04    0.866595000052597970E+04   -0.898628488809690134E+04    0.457064256227513579E+04   -0.912525737334814266E+03    0.238939930336758302E+02
    0.563554856985027594E-01    0.560344348008303239E+01    0.122179026136450304E+02    0.262901392789454303E+04   -0.421971405996617705E+04    0.867450874882155404E+04   -0.899576888667731509E+04    0.457579529747201195E+04   -0.913622829027356147E+03    0.238942465051443556E+02
    0.567066118678028822E-01    0.557220640649663324E+01    0.122137243893161980E+02    0.263493350270924566E+04   -0.425240108210657854E+04    0.874554504015422572E+04   -0.907175745927317621E+04    0.461583789519345828E+04   -0.921944365454286412E+03    0.238998214117264993E+02
    0.558929989282468606E-01    0.560366527696870165E+01    0.122278880220795418E+02    0.262848935777381985E+04   -0.421520035426068171E+04    0.866093157957687981E+04   -0.897697787825250998E+04    0.456355596914696434E+04   -0.910583364783594789E+03    0.239156095271677032E+02
    0.564616410393588980E-01    0.565322270671697336E+01    0.122399259986798512E+02    0.262716422430210878E+04   -0.421057158008761144E+04    0.865648374652605344E+04   -0.897797983656420547E+04    0.456699094821876497E+04   -0.911874317570154403E+03    0.239160160403107689E+02
    0.572940300896752699E-01    0.595999938863501111E+01    0.123356933813181673E+02    0.262105635550841271E+04   -0.417611883133689662E+04    0.857977889799620607E+04   -0.889378561340447777E+04    0.452144957219056505E+04   -0.902164262674472411E+03    0.241357776059630105E+02
    0.558292629531337639E-01    0.578431482245422224E+01    0.122849078169328969E+02    0.262203735955238653E+04   -0.418157777620083016E+04    0.859181469952336192E+04   -0.890688444759187769E+04    0.452845814330063058E+04   -0.903634861766103086E+03    0.242880269485164746E+02
    0.559436758437257889E-01    0.578560341440992065E+01    0.122747250100893091E+02    0.262216800203604998E+04   -0.418247745448083333E+04    0.859425816851445779E+04   -0.891016527989340830E+04    0.453063231300692587E+04   -0.904200503669962472E+03    0.249013080609489990E+02
    0.571338737044207179E-01    0.566923912046280964E+01    0.122368445088373647E+02    0.262387018047632409E+04   -0.419166275259024405E+04    0.861369980531875262E+04   -0.893035242571354138E+04    0.454091478801597259E+04   -0.906255555471487469E+03    0.242294278295483068E+02
    0.576502418705431077E-01    0.562932464357161688E+01    0.122256983598374411E+02    0.262392276090276710E+04   -0.419309681782049847E+04    0.861928677933204563E+04   -0.893893086893770669E+04    0.454677552989374635E+04   -0.907743831039154202E+03    0.249753307893442198E+02
    0.576502418705431077E-01    0.562932464357161688E+01    0.122256983598374411E+02    0.262392276090276710E+04   -0.419309681782049847E+04    0.861928677933204563E+04   -0.893893086893770669E+04    0.454677552989374635E+04   -0.907743831039154202E+03    0.249753307893442198E+02
    0.577740092515349191E-01    0.569449686932274712E+01    0.122561948099609914E+02    0.262259369772617765E+04   -0.418485342429431603E+04    0.859936473635630136E+04   -0.891549709381482535E+04    0.453335465047473735E+04   -0.904745720527221238E+03    0.242774884113065959E+02
    0.582259007841405413E-01    0.562879815759421742E+01    0.122389770613795363E+02    0.262707321341752095E+04   -0.420812135611992380E+04    0.864722375802451643E+04   -0.896419941328484856E+04    0.455786414853718543E+04   -0.909625537404779152E+03    0.246820226777360716E+02
    0.573645122153853271E-01    0.570366906812879559E+01    0.122565589297564976E+02    0.262598447972963277E+04   -0.420286360785555280E+04    0.863720264776674958E+04   -0.895476210492870268E+04    0.455345445414605183E+04   -0.908802318402265200E+03    0.245852484251367969E+02
    0.585759582608068041E-01    0.579263856960896462E+01    0.122880334779170930E+02    0.261889319661518994E+04   -0.416525826594419505E+04    0.855838859956824126E+04   -0.887311945698714408E+04    0.451163455515924670E+04   -0.900325151261400038E+03    0.248151260084275016E+02
    0.585759582608068041E-01    0.579263856960896462E+01    0.122880334779170930E+02    0.261889319661518994E+04   -0.416525826594419505E+04    0.855838859956824126E+04   -0.887311945698714408E+04    0.451163455515924670E+04   -0.900325151261400038E+03    0.248151260084275016E+02
    0.582681780140506117E-01    0.573526164900856905E+01    0.122671617377915698E+02    0.261810181414961335E+04   -0.416090015582656088E+04    0.854884640425100406E+04   -0.886278571094302060E+04    0.450612065999664355E+04   -0.899167392373372650E+03    0.242697488437428923E+02
    0.569664823294273384E-01    0.569356114387111845E+01    0.122580852680173642E+02    0.262532120825821175E+04   -0.420058536296638977E+04    0.863515317599962509E+04   -0.895555883569467915E+04    0.455539725126137000E+04   -0.909514675880537084E+03    0.250304250922076008E+02
    0.569664823294273384E-01    0.569356114387111845E+01    0.122580852680173642E+02    0.262532120825821175E+04   -0.420058536296638977E+04    0.863515317599962509E+04   -0.895555883569467915E+04    0.455539725126137000E+04   -0.909514675880537084E+03    0.250304250922076008E+02
    0.564476002410999184E-01    0.577015683121680567E+01    0.122773240800098122E+02    0.262634225877897461E+04   -0.420434434498222708E+04    0.863953639353816106E+04   -0.895648235419158482E+04    0.455403389526776118E+04   -0.908872264528718574E+03    0.249903827384251187E+02
    0.564476002410999184E-01    0.577015683121680567E+01    0.122773240800098122E+02    0.262634225877897461E+04   -0.420434434498222708E+04    0.863953639353816106E+04   -0.895648235419158482E+04    0.455403389526776118E+04   -0.908872264528718574E+03    0.249903827384251187E+02
    0.569637995268988742E-01    0.580215706949303023E+01    0.122861874786992935E+02    0.262900620018619566E+04   -0.422016559049245370E+04    0.867623256811912506E+04   -0.899811471842197716E+04    0.457718226372394565E+04   -0.913927125745579588E+03    0.246259600612467615E+02
    0.568693907316726310E-01    0.571668304140693984E+01    0.122488886861041006E+02    0.263071356475103448E+04   -0.422896840302055898E+04    0.869413418642937540E+04   -0.901605397558985533E+04    0.458602638097638555E+04   -0.915639252348247510E+03    0.243350810328380547E+02
    0.573426754136222502E-01    0.582052859141318990E+01    0.122843499512325351E+02    0.262537488475563987E+04   -0.420009025351204946E+04    0.863228879293905811E+04   -0.895048259384840640E+04    0.455160630664203927E+04   -0.908483616085253061E+03    0.245363040063543494E+02
    0.573724920518053558E-01    0.585246560761028434E+01    0.122942356342433232E+02    0.262231240051013629E+04   -0.418435403762149508E+04    0.860064564106521902E+04   -0.891942952115320440E+04    0.453676752106532513E+04   -0.905727081783464200E+03    0.241411302219292914E+02
    0.578356302189564492E-01    0.574701644878737028E+01    0.122744274685878612E+02    0.262089103076039692E+04   -0.417528884101419044E+04    0.857816220843216252E+04   -0.889228522570246241E+04    0.452079264248893014E+04   -0.902056564781221709E+03    0.255275039122243861E+02
    0.578356302189564492E-01    0.574701644878737028E+01    0.122744274685878612E+02    0.262089103076039692E+04   -0.417528884101419044E+04    0.857816220843216252E+04   -0.889228522570246241E+04    0.452079264248893014E+04   -0.902056564781221709E+03    0.255275039122243861E+02
    0.578356302189564492E-01    0.574701644878737028E+01    0.122744274685878612E+02    0.262089103076039692E+04   -0.417528884101419044E+04    0.857816220843216252E+04   -0.889228522570246241E+04    0.452079264248893014E+04   -0.902056564781221709E+03    0.255275039122243861E+02
    0.552087430940326473E-01    0.571022781378920197E+01    0.122490936158773529E+02    0.262839469992788008E+04   -0.421612677502549286E+04    0.866616932443088990E+04   -0.898614672751347462E+04    0.457033309241078405E+04   -0.912408100341357340E+03    0.239491201090919930E+02
    0.572555962511838573E-01    0.576928557183473867E+01    0.122814625784890001E+02    0.262465784871933784E+04   -0.419610746639260924E+04    0.862354186714392745E+04   -0.894103255594776238E+04    0.454660606364590421E+04   -0.907450180766409744E+03    0.252052340193991782E+02
    0.572555962511838573E-01    0.576928557183473867E+01    0.122814625784890001E+02    0.262465784871933784E+04   -0.419610746639260924E+04    0.862354186714392745E+04   -0.894103255594776238E+04    0.454660606364590421E+04   -0.907450180766409744E+03    0.252052340193991782E+02
    0.563683482071532863E-01    0.574296224785369080E+01    0.122766106474164598E+02    0.262565492910373405E+04   -0.420133897707198958E+04    0.863461794452918184E+04   -0.895286337278498286E+04    0.455295161872770404E+04   -0.908808915978279970E+03    0.243099242545891130E+02
    0.576538435630795515E-01    0.577359063432450093E+01    0.122844634617191861E+02    0.262290631496914875E+04   -0.418560926528814889E+04    0.859888402055636834E+04   -0.891267288601393011E+04    0.453062039484953493E+04   -0.903913338204657634E+03    0.242871123747539137E+02
    0.573154443122371321E-01    0.583678561221441505E+01    0.122964044681568225E+02    0.261974930473376435E+04   -0.417091742273447380E+04    0.857265529868399790E+04   -0.889043040792899046E+04    0.452181171244882808E+04   -0.902654613201573397E+03    0.250805910766227491E+02
    0.573154443122371321E-01    0.583678561221441505E+01    0.122964044681568225E+02    0.261974930473376435E+04   -0.417091742273447380E+04    0.857265529868399790E+04   -0.889043040792899046E+04    0.452181171244882808E+04   -0.902654613201573397E+03    0.250805910766227491E+02
    0.562829824190995212E-01    0.568399039399950290E+01    0.122498730793917332E+02    0.262721185794698113E+04   -0.420958636529386240E+04    0.865190508222521930E+04   -0.897075180597526742E+04    0.456207718984224539E+04   -0.910642768964247011E+03    0.246874226724642938E+02
    0.562829824190995212E-01    0.568399039399950290E+01    0.122498730793917332E+02    0.262721185794698113E+04   -0.420958636529386240E+04    0.865190508222521930E+04   -0.897075180597526742E+04    0.456207718984224539E+04   -0.910642768964247011E+03    0.246874226724642938E+02
    0.585530215554411690E-01    0.587248819804062805E+01    0.123054939668676493E+02    0.262079657193112280E+04   -0.417524111467361490E+04    0.857915520410414865E+04   -0.889454036744246514E+04    0.452259655446040415E+04   -0.902551946690794352E+03    0.239802092546973640E+02
    0.579464672504039907E-01    0.586930177699532862E+01    0.123063931433751996E+02    0.262398783081220381E+04   -0.419157489037962205E+04    0.861206506895032908E+04   -0.892718846034513444E+04    0.453855668406296172E+04   -0.905632126929714673E+03    0.244946883964852162E+02
    0.576694891928350162E-01    0.589591919834837519E+01    0.123172183963603938E+02    0.261892846010395215E+04   -0.416586258789192834E+04    0.856048304086667849E+04   -0.887614834067160155E+04    0.451365499089216792E+04   -0.900840818062186599E+03    0.244074121586018258E+02
    0.553929850007160718E-01    0.562411436938148235E+01    0.122283129896464597E+02    0.263235884321260164E+04   -0.423887507446966083E+04    0.871750716061338244E+04   -0.904305657629001507E+04    0.460131051927384215E+04   -0.919033093935083912E+03    0.239207462944466585E+02
    0.563802857210337557E-01    0.569480964742855456E+01    0.122544427765418824E+02    0.262487717554452911E+04   -0.419722946149994186E+04    0.862598095976108925E+04   -0.894388284049595131E+04    0.454835892846212028E+04   -0.907889311304996227E+03    0.244026152959689853E+02
    0.575478737770298288E-01    0.584043068067981519E+01    0.123006633606558360E+02    0.262012384489901797E+04   -0.417149713561577755E+04    0.857069920280509541E+04   -0.888491164507406575E+04    0.451711511490702378E+04   -0.901313997843629295E+03    0.248237415899121707E+02
    0.565496077701251668E-01    0.553068637573705235E+01    0.122010271594926856E+02    0.262815689849361934E+04   -0.421359183773976656E+04    0.865794768250021480E+04   -0.897436469544174179E+04    0.456249930299235075E+04   -0.910432794903837816E+03    0.243170994517404395E+02
    0.577221736895678975E-01    0.570579626892007941E+01    0.122588724563983789E+02    0.262947516005421585E+04   -0.422350566750879443E+04    0.868516310079855430E+04   -0.900947898760063617E+04    0.458411439277156842E+04   -0.915555471189275409E+03    0.240948717703698883E+02
    0.578668529818324381E-01    0.565552199072350259E+01    0.122364714061622575E+02    0.261912883452586402E+04   -0.416706551324752036E+04    0.856349635802265402E+04   -0.887996454052724584E+04    0.451604481171569660E+04   -0.901425470364004923E+03    0.242644228453503032E+02
    0.568727411383989981E-01    0.589141289591815376E+01    0.123179555021078393E+02    0.261524989247005988E+04   -0.414664450473538454E+04    0.852083372958426480E+04   -0.883571851854241140E+04    0.449325440482969134E+04   -0.896760540984355771E+03    0.243416876386188754E+02
    0.573347541434420516E-01    0.567180729389425498E+01    0.122317606298454749E+02    0.262458512758498091E+04   -0.419613884117042926E+04    0.862468956257272293E+04   -0.894355724096468293E+04    0.454867933314099719E+04   -0.908043484789632203E+03    0.241284401502357149E+02
    0.569044860949566092E-01    0.591935922356740640E+01    0.123327843012813272E+02    0.261995653532893948E+04   -0.417071176711581393E+04    0.856923869087650928E+04   -0.888354814692000764E+04    0.451646126645848926E+04   -0.901182494476507259E+03    0.242861707774127780E+02
    0.575668640206621549E-01    0.584760138364796767E+01    0.123046690786699688E+02    0.262365246360332731E+04   -0.418961314339118326E+04    0.860759487274288767E+04   -0.892223182499418181E+04    0.453588495077901280E+04   -0.905070809602676150E+03    0.246973553615933348E+02
    0.575668640206621549E-01    0.584760138364796767E+01    0.123046690786699688E+02    0.262365246360332731E+04   -0.418961314339118326E+04    0.860759487274288767E+04   -0.892223182499418181E+04    0.453588495077901280E+04   -0.905070809602676150E+03    0.246973553615933348E+02
    0.585860522610024276E-01    0.558539489149364776E+01    0.122120553163127994E+02    0.263313809821417908E+04   -0.424140589809406356E+04    0.871922249438208382E+04   -0.904092966258274464E+04    0.459816021040883879E+04   -0.917971230028173295E+03    0.243072121001065469E+02
    0.578721924195260140E-01    0.578966989492873374E+01    0.122856887749586274E+02    0.262326790660854613E+04   -0.418900843986631116E+04    0.860937013742609452E+04   -0.892727892793309547E+04    0.454014792657543057E+04   -0.906282338589607207E+03    0.243634060053987440E+02
    0.563652103811215568E-01    0.589989724396336612E+01    0.123147726991305877E+02    0.262010284769082864E+04   -0.417118679274585520E+04    0.857003683063206881E+04   -0.888465531809843014E+04    0.451742191392226232E+04   -0.901504889308673910E+03    0.240190675537482576E+02
    0.555737275982990317E-01    0.576434121750080841E+01    0.122810555662044170E+02    0.262143413404075955E+04   -0.417935794261187948E+04    0.858950801349673020E+04   -0.890726585129254454E+04    0.453025735929495386E+04   -0.904360700316822431E+03    0.242118020219921029E+02
    0.578766054951891373E-01    0.565276774390514802E+01    0.122428796786784986E+02    0.263551706442089653E+04   -0.425412609331418480E+04    0.874605001678614099E+04   -0.906880104113083507E+04    0.461241071806725449E+04   -0.920838596390498537E+03    0.243394293177657950E+02
    0.572282608921739905E-01    0.570868131342932994E+01    0.122570516414431125E+02    0.262892111606975959E+04   -0.421856409001375141E+04    0.867071401111565683E+04   -0.899044844037911571E+04    0.457240494637114989E+04   -0.912812995331481261E+03    0.239723321386807768E+02
    0.580727730595266139E-01    0.571506876415641951E+01    0.122570518839276659E+02    0.262339656547072218E+04   -0.418855975021316317E+04    0.860591471765536517E+04   -0.892092500417058181E+04    0.453538510807340845E+04   -0.904995940926755111E+03    0.251693700090580315E+02
    0.580727730595266139E-01    0.571506876415641951E+01    0.122570518839276659E+02    0.262339656547072218E+04   -0.418855975021316317E+04    0.860591471765536517E+04   -0.892092500417058181E+04    0.453538510807340845E+04   -0.904995940926755111E+03    0.251693700090580315E+02
    0.581543225300702044E-01    0.583684559142244375E+01    0.123061061108165308E+02    0.262617262024124284E+04   -0.420444361362718791E+04    0.864174319671337253E+04   -0.896074611850063047E+04    0.455718478749075621E+04   -0.909696531866504301E+03    0.249106866281720265E+02
    0.581543225300702044E-01    0.583684559142244375E+01    0.123061061108165308E+02    0.262617262024124284E+04   -0.420444361362718791E+04    0.864174319671337253E+04   -0.896074611850063047E+04    0.455718478749075621E+04   -0.909696531866504301E+03    0.249106866281720265E+02
