    0.527647366620519809E+00    0.783847695048876574E+02    0.187701388761478896E+02    0.797170543301061496E+01   -0.100857033731807405E+05   -0.566345040098652771E+04   -0.182605620978275169E+04    0.149659267216571266E+03    0.116867750378928322E+05    0.806783908312060589E+02
    0.549868893153957927E+00    0.783157818776986829E+02    0.187474638282116075E+02    0.688791634267208597E+01   -0.102782538496139659E+05   -0.575299820870345684E+04   -0.185545756057090193E+04    0.152348832598239369E+03    0.118766550117326933E+05    0.833099248075168788E+02
    0.560082800304250727E+00    0.781891956904449899E+02    0.186918340883440486E+02    0.656673713466573705E+01   -0.101590107350619346E+05   -0.569528657143676355E+04   -0.183958586972610283E+04    0.151581361877483886E+03    0.117581924477183238E+05    0.840447423160385796E+02
    0.559271618227432099E+00    0.782067740112497916E+02    0.185905991267861914E+02    0.662032643286998823E+01   -0.101271038858336797E+05   -0.568097056188087481E+04   -0.183414339932622352E+04    0.150922971680864322E+03    0.117269385666208600E+05    0.843465187850011233E+02
    0.532290906999468239E+00    0.783467984343563728E+02    0.188481132477174604E+02    0.739221308407909117E+01   -0.102020990362456996E+05   -0.571770964954870578E+04   -0.184376404137630425E+04    0.151244829387313501E+03    0.118015935751226189E+05    0.844126764546854105E+02
    0.538793689294140954E+00    0.783089057532064885E+02    0.188543669773236502E+02    0.773724805899628265E+01   -0.101212670950791126E+05   -0.567869519064444285E+04   -0.183278917412152464E+04    0.150667103057447861E+03    0.117213479412452907E+05    0.844245641508468196E+02
    0.576461294788151224E+00    0.783061603425034036E+02    0.189968031637778019E+02    0.620746209135345861E+01   -0.986834708443310046E+04   -0.555795664864337050E+04   -0.179710169058154770E+04    0.148333481006341799E+03    0.114707936409811409E+05    0.847123479540442901E+02
    0.549032703668283051E+00    0.783053096104276847E+02    0.187881649432909121E+02    0.739513167476266720E+01   -0.103387587188793386E+05   -0.578110813661928478E+04   -0.186483987551089535E+04    0.153220380914343906E+03    0.119362880321678531E+05    0.848310206989130506E+02
    0.550601845924186040E+00    0.782948250822303322E+02    0.186790850977916492E+02    0.651266460595317831E+01   -0.101753222962455620E+05   -0.570386503851286125E+04   -0.184091939215111870E+04    0.151408668105124264E+03    0.117746616805852318E+05    0.849186536189077543E+02
    0.563493377851111088E+00    0.783678833640785797E+02    0.188225679200536042E+02    0.725083422855158943E+01   -0.974472367965120611E+04   -0.550109588731590247E+04   -0.177757884934002891E+04    0.146352437393902449E+03    0.113491346831351912E+05    0.853077764812055221E+02
    0.560628706012590516E+00    0.783342244256032814E+02    0.186486240188128853E+02    0.624352825791437738E+01   -0.100890094707993703E+05   -0.566350771892199828E+04   -0.182808399325687560E+04    0.150288928274354589E+03    0.116894760369159194E+05    0.853395981342718812E+02
    0.538633351878413769E+00    0.782099240334021744E+02    0.186967809168792982E+02    0.746968114567929931E+01   -0.104309470474428617E+05   -0.582428069875377423E+04   -0.187872647260683948E+04    0.154406880991828615E+03    0.120272883643623081E+05    0.854322349438314745E+02
    0.547564808012266813E+00    0.783071562677698267E+02    0.187008596109254981E+02    0.705479775261616826E+01   -0.101024874304330478E+05   -0.566918916250845450E+04   -0.183067805981752463E+04    0.150711489988294517E+03    0.117025309566507094E+05    0.856726870139711139E+02
    0.526597890211657482E+00    0.783908970966777048E+02    0.185021970952543349E+02    0.730965680636059378E+01   -0.102023883951997013E+05   -0.571853935959615865E+04   -0.184313701858518129E+04    0.150976201470214789E+03    0.118021405477114113E+05    0.859334662465267911E+02
    0.578250356863873938E+00    0.784184031774379378E+02    0.187524454915775678E+02    0.593823366425785704E+01   -0.972920716299900050E+04   -0.549258874040605224E+04   -0.177636685242387171E+04    0.146636497247876662E+03    0.113333447277080613E+05    0.859397804868068675E+02
    0.548773765608046804E+00    0.783948805987941171E+02    0.185467527480734162E+02    0.667667168226609586E+01   -0.100508900820384697E+05   -0.564571152322422040E+04   -0.182217293399431128E+04    0.149774157118499772E+03    0.116518631137358298E+05    0.859981578253918428E+02
    0.584052589879380801E+00    0.782766654431307529E+02    0.189525708109178979E+02    0.617606522827058413E+01   -0.998248708669124062E+04   -0.561081429735290931E+04   -0.181468437255718754E+04    0.150015979991536824E+03    0.115832540590061544E+05    0.860403958101268813E+02
    0.539921344788367952E+00    0.783122783347630929E+02    0.186442752806030541E+02    0.754706457237985973E+01   -0.103796961973576636E+05   -0.580039630639434563E+04   -0.187082642047227091E+04    0.153699306955653583E+03    0.119767380083378412E+05    0.860879421261094535E+02
    0.553886066985329495E+00    0.784170241711230602E+02    0.186006794714097801E+02    0.691723476203960086E+01   -0.985790753115739972E+04   -0.555499262349160381E+04   -0.179358107022481454E+04    0.147442246752397011E+03    0.114612157196145763E+05    0.861424011713061617E+02
    0.544130616821468904E+00    0.783545093436906086E+02    0.186597992548690321E+02    0.719989496193353418E+01   -0.992907115411170889E+04   -0.558916350513491398E+04   -0.180352183112030411E+04    0.148025890225729938E+03    0.115317909822294969E+05    0.862048411259757046E+02
    0.515404066706490527E+00    0.783044320904904367E+02    0.185816761769216576E+02    0.849047267548388795E+01   -0.104807114010605619E+05   -0.584941390709948701E+04   -0.188431451673254037E+04    0.154320448390470943E+03    0.120771139346531691E+05    0.862573671019981987E+02
    0.542549548766628198E+00    0.783061548198646307E+02    0.187309730267493357E+02    0.741381007381905377E+01   -0.101382293314428716E+05   -0.568634608562708945E+04   -0.183557037703582046E+04    0.151001110365022157E+03    0.117379738550311122E+05    0.863529184424191811E+02
    0.557098687460635511E+00    0.783708257981029988E+02    0.188452080315296264E+02    0.695467357895448135E+01   -0.997378028611399350E+04   -0.560846120405648799E+04   -0.181185261618944787E+04    0.149245360859009821E+03    0.115752962516779007E+05    0.864075870164771089E+02
    0.565261903938236832E+00    0.782674825144443673E+02    0.188997824955133105E+02    0.686599859470177787E+01   -0.101187284947069784E+05   -0.567558630177017949E+04   -0.183423618522010929E+04    0.151383381454187941E+03    0.117181147126223241E+05    0.864178126792521937E+02
    0.577386905330677158E+00    0.783107982207794748E+02    0.188444291103751489E+02    0.672349059355413203E+01   -0.990654241835980065E+04   -0.557544753346980451E+04   -0.180313096637376589E+04    0.148970781824501216E+03    0.115083520654619570E+05    0.864408524321194704E+02
    0.558490685070095916E+00    0.782837268234072496E+02    0.188592382666018388E+02    0.655292289450856735E+01   -0.100776869009326292E+05   -0.565741048317470722E+04   -0.182703926173051491E+04    0.150450497336413150E+03    0.116779949568876364E+05    0.867067973381866466E+02
    0.546589817266197042E+00    0.782826810143203602E+02    0.187963846907004672E+02    0.706932480308298672E+01   -0.102112332002222756E+05   -0.572102052107608779E+04   -0.184611272732977523E+04    0.151744374711051051E+03    0.118102360558876371E+05    0.869044607659250801E+02
    0.584430783074041060E+00    0.783377113971554877E+02    0.188063209816399954E+02    0.623652596246766500E+01   -0.977318549799688481E+04   -0.551263245958314292E+04   -0.178345712165231112E+04    0.147408610182668355E+03    0.113765586931959206E+05    0.869555617886980770E+02
    0.550632205254277807E+00    0.784228823089613769E+02    0.186771220329093453E+02    0.720477166169292715E+01   -0.994274878017218180E+04   -0.559425845042769834E+04   -0.180674798801211568E+04    0.148712969120858702E+03    0.115447873389193155E+05    0.869606443798528801E+02
    0.553913362652466712E+00    0.783406520815131131E+02    0.185499182258297139E+02    0.694269898395708829E+01   -0.100272178647815799E+05   -0.563381508636013132E+04   -0.181948000514502746E+04    0.149796500334821332E+03    0.116281737879440152E+05    0.871481269742725999E+02
    0.554459507222306192E+00    0.783823534692817816E+02    0.187227908134769123E+02    0.683513833062424769E+01   -0.986755750505184005E+04   -0.555849305469714182E+04   -0.179599720159151047E+04    0.147965788954565312E+03    0.114703494860546652E+05    0.872001475791897036E+02
    0.550870271439774961E+00    0.783241369750218155E+02    0.187004254519933362E+02    0.712722393737475901E+01   -0.102163597578669524E+05   -0.572308949039731033E+04   -0.184719266919281404E+04    0.151935150713931932E+03    0.118151763245820694E+05    0.872662792226165465E+02
    0.559326897160592029E+00    0.783823647712433882E+02    0.186897900241021553E+02    0.674619675391808649E+01   -0.996336555368467816E+04   -0.560435511464562205E+04   -0.180948646250230036E+04    0.148800485133659237E+03    0.115653200751483819E+05    0.874742765984812962E+02
    0.540623513694916791E+00    0.783031882636733201E+02    0.186579667260640782E+02    0.648144848508654103E+01   -0.100660197867338684E+05   -0.565360395455778507E+04   -0.182377687303406424E+04    0.149657832223279854E+03    0.116671032677391722E+05    0.875050971993775306E+02
    0.556808547187880309E+00    0.782657845279434383E+02    0.187930592454341792E+02    0.686835552889070566E+01   -0.100169976208765565E+05   -0.562927673997432794E+04   -0.181780885206243670E+04    0.149569058025104454E+03    0.116181903310170692E+05    0.875130460871646818E+02
    0.554795037747481845E+00    0.783611342865582543E+02    0.189223504419303730E+02    0.652987670489536232E+01   -0.994112259916635958E+04   -0.559372184414255662E+04   -0.180631236849010816E+04    0.148600126034361438E+03    0.115432785122289024E+05    0.875155856744112555E+02
    0.571465815425039936E+00    0.782973316906443983E+02    0.188609744680131541E+02    0.695427946145803233E+01   -0.992469607970140351E+04   -0.558449343702091028E+04   -0.180534136958746626E+04    0.148989095102426120E+03    0.115264804846130646E+05    0.875259857881511749E+02
    0.547780661429162929E+00    0.784188050764112319E+02    0.188004164388373738E+02    0.715739505882855997E+01   -0.101111139943165053E+05   -0.567389634751571430E+04   -0.183118944593799552E+04    0.150544934242647457E+03    0.117113185362653167E+05    0.876674471412568010E+02
    0.562302585032810165E+00    0.782961134357814217E+02    0.187590198566637696E+02    0.618300045842162493E+01   -0.997961375967166350E+04   -0.561083291137379638E+04   -0.181304843768687897E+04    0.149459222829413591E+03    0.115809193927778724E+05    0.878831659806221666E+02
    0.541783288756462200E+00    0.783285743575692095E+02    0.185176416576064966E+02    0.663280668958127784E+01   -0.101643114912480160E+05   -0.569960243002420430E+04   -0.183851399469782473E+04    0.150924682843264520E+03    0.117641257209121322E+05    0.878961906159884876E+02
    0.532324971703682426E+00    0.783460096808203303E+02    0.187269498719935221E+02    0.744311317003142392E+01   -0.101048825910407559E+05   -0.567185970123361858E+04   -0.182944863226587222E+04    0.150126022732874901E+03    0.117054935297588472E+05    0.879410208677254417E+02
    0.566046734327359857E+00    0.783971553108194001E+02    0.188040067842834837E+02    0.717879232837824599E+01   -0.984245600912806185E+04   -0.554646188698538299E+04   -0.179260075911706690E+04    0.147757427241618842E+03    0.114454653726515953E+05    0.880420716072652141E+02
    0.543215155535715200E+00    0.784011019502823956E+02    0.187283516004616573E+02    0.748432617936921751E+01   -0.100282721023918020E+05   -0.563479660455282919E+04   -0.181913515939263675E+04    0.149616609387845216E+03    0.116294031676611539E+05    0.881804244086541900E+02
    0.541326468092508506E+00    0.783028527379967016E+02    0.187263401719620646E+02    0.670571706071860962E+01   -0.102397181648267670E+05   -0.573446454466113391E+04   -0.185023115562494490E+04    0.152061258953871118E+03    0.118384014610190770E+05    0.882308978348066688E+02
    0.562602976147456246E+00    0.783782991108232352E+02    0.188081441560225109E+02    0.692962157353084063E+01   -0.977017989864731499E+04   -0.551274048304858206E+04   -0.178167890577450544E+04    0.146790875156576760E+03    0.113741511763131566E+05    0.882692121288203140E+02
    0.548218487169811586E+00    0.783202432610870289E+02    0.186712092888515500E+02    0.674466645754837213E+01   -0.101542534988046991E+05   -0.569481168284852447E+04   -0.183714138105316556E+04    0.150827855338261486E+03    0.117541750533735994E+05    0.882934667284383607E+02
    0.561819699029425190E+00    0.783987260943531226E+02    0.187738873921298790E+02    0.646372446187868910E+01   -0.100765613052961817E+05   -0.565713746688981610E+04   -0.182663334434441913E+04    0.150332794111823631E+03    0.116769886677243630E+05    0.883358430419897047E+02
    0.529434245896636568E+00    0.783202747544190458E+02    0.185905652581212664E+02    0.733253971557649997E+01   -0.101201685806765781E+05   -0.567934335993565946E+04   -0.183148190171059332E+04    0.150202629119809671E+03    0.117206982837450541E+05    0.883414922411679839E+02
    0.560620384698699348E+00    0.783168978941560141E+02    0.188410982688758253E+02    0.678923219396961919E+01   -0.100004167988358386E+05   -0.562112997108945092E+04   -0.181565241845966148E+04    0.149505194155545496E+03    0.116016723468685032E+05    0.883976844436825502E+02
    0.558104542150940408E+00    0.783496438675284992E+02    0.186850693329185447E+02    0.662764879688804687E+01   -0.100800588152009041E+05   -0.565799013067330907E+04   -0.182787570035354270E+04    0.150686786683761966E+03    0.116801324670019967E+05    0.885016283466958953E+02
    0.571466866056159817E+00    0.782874196772908704E+02    0.190019966992647653E+02    0.642649841429772106E+01   -0.999296693803929156E+04   -0.561637597014790481E+04   -0.181567950681997149E+04    0.149898720815978322E+03    0.115938439428409711E+05    0.885466465361339203E+02
    0.565964037738045267E+00    0.783403141082785908E+02    0.188941272729130141E+02    0.630582942548688496E+01   -0.101627303797927780E+05   -0.569741084537449387E+04   -0.183962605059156681E+04    0.151460112995008757E+03    0.117620361654735043E+05    0.885750792195678258E+02
    0.547516239877785638E+00    0.782742586424198521E+02    0.188794691907923742E+02    0.692832539175477091E+01   -0.102808697207660553E+05   -0.575388914228968315E+04   -0.185625656782377291E+04    0.152524334409716687E+03    0.118790947743689103E+05    0.886251002476374765E+02
    0.554226788337231602E+00    0.783714343690380133E+02    0.187164382481881688E+02    0.647718190335842703E+01   -0.999968661732922010E+04   -0.562096371828928841E+04   -0.181520872112957022E+04    0.149414972505338199E+03    0.116010274414195210E+05    0.886268267285891085E+02
    0.550754980300784958E+00    0.783188065227538317E+02    0.186693541016879188E+02    0.633809685695849279E+01   -0.102278944834721897E+05   -0.572919145560349625E+04   -0.184824167863995626E+04    0.151806434637516503E+03    0.118268356270665972E+05    0.886734164267603262E+02
    0.554345464523695042E+00    0.783091497684343238E+02    0.187240872592579102E+02    0.671930028013103797E+01   -0.100252621322464274E+05   -0.563308586723504322E+04   -0.181908970784162625E+04    0.149698233084019449E+03    0.116263230463511791E+05    0.886850900655265519E+02
    0.560818827906573336E+00    0.782912945721750049E+02    0.187915960762797205E+02    0.718990646150427537E+01   -0.996848647101708411E+04   -0.560586863209019884E+04   -0.181115640020437763E+04    0.149217055565219596E+03    0.115700340847970911E+05    0.886942854137778909E+02
    0.561265738999266128E+00    0.782957619947534340E+02    0.187934484854477368E+02    0.655280928209412838E+01   -0.101544371440294672E+05   -0.569296020464736648E+04   -0.183891852181464537E+04    0.151582273476995766E+03    0.117536199255798001E+05    0.887536544899544424E+02
    0.576852747053920201E+00    0.783189922391395896E+02    0.187262826315506778E+02    0.604148985824153151E+01   -0.984427711518241631E+04   -0.554652314937327992E+04   -0.179357119033576396E+04    0.148085182947390393E+03    0.114469663718883330E+05    0.888965245572429836E+02
    0.548087105968567023E+00    0.782890831518603250E+02    0.188340495988952554E+02    0.680740080811947657E+01   -0.101278352243629033E+05   -0.568200884058916290E+04   -0.183355989492595040E+04    0.150660073685828650E+03    0.117279239379568098E+05    0.888986259077079382E+02
    0.537495614253794440E+00    0.783344549808036561E+02    0.186273455614242494E+02    0.758633555368564139E+01   -0.101058523220422776E+05   -0.567235682412979531E+04   -0.182964411076961687E+04    0.150131233821818029E+03    0.117064590503205945E+05    0.889467402862141228E+02
    0.549099500799993923E+00    0.783401947908009220E+02    0.187823864069010646E+02    0.683500435482529145E+01   -0.100981139588233527E+05   -0.566842363533742173E+04   -0.182873966982600609E+04    0.150139758551098538E+03    0.116987242557167829E+05    0.889794099164782608E+02
    0.551826550904833901E+00    0.783288333016762124E+02    0.186358423182391419E+02    0.645659155413578745E+01   -0.103244124341038332E+05   -0.577403160140974251E+04   -0.186299339569520885E+04    0.153174230153545977E+03    0.119219895976154257E+05    0.889888632545381029E+02
    0.540409746508454858E+00    0.782105789309481025E+02    0.186512592737526575E+02    0.658307478856444561E+01   -0.103731751897891409E+05   -0.579804665801814008E+04   -0.186925421806644999E+04    0.153344440073523458E+03    0.119705716166823349E+05    0.890468801147125788E+02
    0.543608862098668766E+00    0.782468003298465078E+02    0.187624757337539023E+02    0.697953548933746948E+01   -0.103735563997025893E+05   -0.579764147938156475E+04   -0.186988626281424558E+04    0.153574453314192908E+03    0.119707323234559008E+05    0.891292039728966188E+02
    0.525891411550907129E+00    0.782747400710424586E+02    0.186443202684871103E+02    0.776994189470723562E+01   -0.103331086166185669E+05   -0.577978572878055002E+04   -0.186274276194894287E+04    0.152637572582291227E+03    0.119312035399078031E+05    0.891467529173913675E+02
    0.577690244031204281E+00    0.783254019101183445E+02    0.187896457592552721E+02    0.587858014588267697E+01   -0.987667270059042494E+04   -0.556176375362270755E+04   -0.179842318108048312E+04    0.148475458820217455E+03    0.114789724257708185E+05    0.891904902216320181E+02
    0.559871272994848512E+00    0.783013740610888505E+02    0.186673544252797150E+02    0.665797726941516377E+01   -0.101072438378958632E+05   -0.567116932947286659E+04   -0.183161229443307843E+04    0.150862712874779731E+03    0.117071437889270419E+05    0.892360107564594216E+02
    0.565030038534687140E+00    0.783423439354611304E+02    0.187975761672768940E+02    0.628411052306492834E+01   -0.100323704895090723E+05   -0.563601872982243731E+04   -0.182038401406295839E+04    0.149929321262798737E+03    0.116332074742609020E+05    0.892641354154495161E+02
    0.528937990843722172E+00    0.782787863143785927E+02    0.186790113859312861E+02    0.793461846992672104E+01   -0.102664543391165116E+05   -0.574843168327694730E+04   -0.185287794084492020E+04    0.151839365958431614E+03    0.118653476680269450E+05    0.892903455581001424E+02
    0.568511755681001540E+00    0.782904650367855766E+02    0.188903795478152432E+02    0.654484711012844489E+01   -0.995291304719820619E+04   -0.559817929313366039E+04   -0.180914024275035695E+04    0.149167278110588768E+03    0.115545142612995915E+05    0.892928468583207859E+02
    0.526987344814347503E+00    0.783411515104647407E+02    0.185769255981380184E+02    0.733173857292098674E+01   -0.101373576492336542E+05   -0.568776217771682877E+04   -0.183374879184370138E+04    0.150279438604498722E+03    0.117378086384679063E+05    0.893845939831182079E+02
    0.556295348299851944E+00    0.782942519450785852E+02    0.187098980936948145E+02    0.646721280225178319E+01   -0.103104300261737208E+05   -0.576715502535702490E+04   -0.186118539773498969E+04    0.153121572373009400E+03    0.119080657778981349E+05    0.894035338319685309E+02
    0.539841283033471342E+00    0.783724093943166622E+02    0.186480223555124631E+02    0.758224752272488178E+01   -0.101585289026714272E+05   -0.569627534269273565E+04   -0.183817401092093610E+04    0.151088297096336476E+03    0.117581851722387055E+05    0.894160054840076839E+02
    0.569761822681448149E+00    0.782919340167900231E+02    0.187787922682580657E+02    0.657386966808326800E+01   -0.994749037495669108E+04   -0.559547103772652008E+04   -0.180844018840788021E+04    0.149160874875210141E+03    0.115491000963001461E+05    0.894587277372176146E+02
    0.562456737931976480E+00    0.782562096214554117E+02    0.188146170968834596E+02    0.699573700266742815E+01   -0.101635572696380932E+05   -0.569722510786278144E+04   -0.184034775042176238E+04    0.151702897525058916E+03    0.117626193030526592E+05    0.894989853428689912E+02
    0.545569900138569319E+00    0.782478519768231138E+02    0.186435061739309020E+02    0.655062945944025099E+01   -0.103075462190642775E+05   -0.576608622057952380E+04   -0.186057823290922374E+04    0.152988447774316825E+03    0.119053050670233697E+05    0.895221973981808645E+02
    0.553145021661402891E+00    0.782993528086888091E+02    0.186511824682157510E+02    0.661892335989302794E+01   -0.101106722930546221E+05   -0.567344524901916066E+04   -0.183144412714113400E+04    0.150638238415343096E+03    0.117107883275346612E+05    0.895567577025934298E+02
    0.552390399505395147E+00    0.783230212217296753E+02    0.187331126480179826E+02    0.679590136333360384E+01   -0.999575336028671336E+04   -0.561977318686807030E+04   -0.181417435581834252E+04    0.149124290643641103E+03    0.115973808014206388E+05    0.895618959065961207E+02
    0.557765170452866554E+00    0.783098154074184549E+02    0.187739949396608807E+02    0.699697255665663320E+01   -0.101737406494256356E+05   -0.570273226698548660E+04   -0.184116953471590091E+04    0.151546190456639636E+03    0.117729514449649232E+05    0.895688763939696457E+02
    0.544430521765372988E+00    0.782695911613032251E+02    0.187549699800327616E+02    0.711220623190328460E+01   -0.102858186138084584E+05   -0.575633436075162990E+04   -0.185696317433679792E+04    0.152542707215352550E+03    0.118840269097765013E+05    0.895994625707531469E+02
    0.529993646082145164E+00    0.782646198386069472E+02    0.186345564460369104E+02    0.736561144434640624E+01   -0.102295335259964813E+05   -0.573102428588951898E+04   -0.184752482695490016E+04    0.151418886444939091E+03    0.118288492883374984E+05    0.896695630200982663E+02
    0.531306204009144745E+00    0.782290701292993305E+02    0.185928324438691881E+02    0.678705743769625869E+01   -0.105050222147372187E+05   -0.586037476947128380E+04   -0.188839380225181071E+04    0.154795531842936953E+03    0.121009601529250176E+05    0.896786433641271259E+02
    0.556276570125098235E+00    0.783930059104640407E+02    0.187916460400932799E+02    0.673094520790889916E+01   -0.101328491416683537E+05   -0.568337211310797738E+04   -0.183518030082872519E+04    0.151100166246216190E+03    0.117325072263211387E+05    0.896890218441789386E+02
    0.539231998560717574E+00    0.783675740499990070E+02    0.186127444042035144E+02    0.734281229791819445E+01   -0.101973840016191207E+05   -0.571470903936473769E+04   -0.184380320870433843E+04    0.151494340386173889E+03    0.117966315180243237E+05    0.897156776042814670E+02
    0.553830547439308929E+00    0.782890036360993093E+02    0.187169564195932558E+02    0.697972499919245326E+01   -0.100000063263877219E+05   -0.562169319936293323E+04   -0.181486025419433258E+04    0.149202991380866962E+03    0.116015586738004768E+05    0.897339801636615135E+02
    0.567503408645612994E+00    0.782677941275132412E+02    0.188619192748702034E+02    0.600209571000971120E+01   -0.101267981774429172E+05   -0.567999427737202313E+04   -0.183482572999518629E+04    0.151235950122873277E+03    0.117263298006820896E+05    0.897559419599674158E+02
    0.535859667245442095E+00    0.782880951714761011E+02    0.187229822275580204E+02    0.694827005273922182E+01   -0.102096992731730370E+05   -0.572088318169666309E+04   -0.184527304796187877E+04    0.151493391110871130E+03    0.118089477184612733E+05    0.898789461143240658E+02
    0.565864782592652715E+00    0.783077703211596088E+02    0.189074053858283371E+02    0.685396174289374205E+01   -0.997644376973929684E+04   -0.560933470744037186E+04   -0.181248648656318460E+04    0.149412454580428658E+03    0.115777983039448682E+05    0.900378844167207717E+02
    0.565864782592652715E+00    0.783077703211596088E+02    0.189074053858283371E+02    0.685396174289374205E+01   -0.997644376973929684E+04   -0.560933470744037186E+04   -0.181248648656318460E+04    0.149412454580428658E+03    0.115777983039448682E+05    0.900378844167207717E+02
    0.554922999372168491E+00    0.782938390416571082E+02    0.187034365271712062E+02    0.656521122267621227E+01   -0.100101852163605126E+05   -0.562662471262554027E+04   -0.181623399614210848E+04    0.149269220887613841E+03    0.116116694580914318E+05    0.900396230919484992E+02
    0.533421644273992079E+00    0.783124110244862948E+02    0.186907405042868611E+02    0.737009507273540265E+01   -0.104328848648931016E+05   -0.582607269788303347E+04   -0.187807276273389471E+04    0.154074407890721375E+03    0.120295500500757462E+05    0.900594599896315344E+02
    0.532258238690337948E+00    0.782606318606597853E+02    0.186502959408204596E+02    0.742309030280089832E+01   -0.102139377051956453E+05   -0.572331467060783052E+04   -0.184558347896044165E+04    0.151380621623756241E+03    0.118132940366276853E+05    0.900899469054914022E+02
    0.532258238690337948E+00    0.782606318606597853E+02    0.186502959408204596E+02    0.742309030280089832E+01   -0.102139377051956453E+05   -0.572331467060783052E+04   -0.184558347896044165E+04    0.151380621623756241E+03    0.118132940366276853E+05    0.900899469054914022E+02
    0.550548473603095556E+00    0.783165785721948140E+02    0.188917228346624491E+02    0.674417564986248586E+01   -0.101215123440126918E+05   -0.567905126110145829E+04   -0.183258542833879892E+04    0.150570371190070716E+03    0.117216957515031463E+05    0.901264172431098132E+02
    0.550548473603095556E+00    0.783165785721948140E+02    0.188917228346624491E+02    0.674417564986248586E+01   -0.101215123440126918E+05   -0.567905126110145829E+04   -0.183258542833879892E+04    0.150570371190070716E+03    0.117216957515031463E+05    0.901264172431098132E+02
    0.549135758823730225E+00    0.783332756124939493E+02    0.186631057087867980E+02    0.697248488393434052E+01   -0.101333376330262872E+05   -0.568432203333364760E+04   -0.183459892516115360E+04    0.150826570881488351E+03    0.117332645299519645E+05    0.901598220790823888E+02
    0.535417708691971472E+00    0.782518279803502708E+02    0.187255583190079875E+02    0.704122980774331175E+01   -0.102557838351429727E+05   -0.574283037747545131E+04   -0.185187280498276732E+04    0.151942453381277176E+03    0.118545801891304509E+05    0.901648250674199971E+02
    0.535417708691971472E+00    0.782518279803502708E+02    0.187255583190079875E+02    0.704122980774331175E+01   -0.102557838351429727E+05   -0.574283037747545131E+04   -0.185187280498276732E+04    0.151942453381277176E+03    0.118545801891304509E+05    0.901648250674199971E+02
    0.546028349880553820E+00    0.783306289211305824E+02    0.186650297281143374E+02    0.746885199998386806E+01   -0.101756518093005507E+05   -0.570426177849040323E+04   -0.184084720523541137E+04    0.151325216405983099E+03    0.117750753106605425E+05    0.902330696629450699E+02
    0.561370127466763291E+00    0.783519699344464016E+02    0.187382275248918795E+02    0.622627754041517267E+01   -0.986883631002159382E+04   -0.555944025536348545E+04   -0.179589674681280326E+04    0.147847129447462095E+03    0.114717472654364883E+05    0.902380690504138414E+02
    0.562282774083994408E+00    0.782806890747524733E+02    0.187198749499792996E+02    0.668525476812920516E+01   -0.101739959358740944E+05   -0.570249985767074486E+04   -0.184156308299002012E+04    0.151687919994132898E+03    0.117730714697356107E+05    0.902842744255459309E+02
    0.534464373869197762E+00    0.783486499594834669E+02    0.186904740571869326E+02    0.711710383118785561E+01   -0.103272497636182270E+05   -0.577640776930773518E+04   -0.186240593329614694E+04    0.152805400898089971E+03    0.119251811146652508E+05    0.903033117956520357E+02
    0.534464373869197762E+00    0.783486499594834669E+02    0.186904740571869326E+02    0.711710383118785561E+01   -0.103272497636182270E+05   -0.577640776930773518E+04   -0.186240593329614694E+04    0.152805400898089971E+03    0.119251811146652508E+05    0.903033117956520357E+02
    0.558488635315272486E+00    0.782967197722320947E+02    0.186614945857576764E+02    0.696633111744210964E+01   -0.100490272770497613E+05   -0.564362526727651039E+04   -0.182312194812930375E+04    0.150230168011263231E+03    0.116495569949407873E+05    0.903040448224672616E+02
    0.558488635315272486E+00    0.782967197722320947E+02    0.186614945857576764E+02    0.696633111744210964E+01   -0.100490272770497613E+05   -0.564362526727651039E+04   -0.182312194812930375E+04    0.150230168011263231E+03    0.116495569949407873E+05    0.903040448224672616E+02
    0.563394439472626019E+00    0.782837543564859430E+02    0.189000364382821324E+02    0.614730087550789950E+01   -0.100460641457866750E+05   -0.564248484927354912E+04   -0.182248244904098306E+04    0.150092126179890386E+03    0.116467373928447814E+05    0.903378883563425035E+02
    0.563394439472626019E+00    0.782837543564859430E+02    0.189000364382821324E+02    0.614730087550789950E+01   -0.100460641457866750E+05   -0.564248484927354912E+04   -0.182248244904098306E+04    0.150092126179890386E+03    0.116467373928447814E+05    0.903378883563425035E+02
    0.564207226325594280E+00    0.784095110817834495E+02    0.187348628107280177E+02    0.652020258301403466E+01   -0.990003775324148592E+04   -0.557406960363658436E+04   -0.180060346466424198E+04    0.148240400558340099E+03    0.115025592601289845E+05    0.903971354084749805E+02
    0.550042131137841395E+00    0.782294061922623598E+02    0.187117813853469244E+02    0.687880855369406952E+01   -0.102269362048703915E+05   -0.572787436276032804E+04   -0.184892066310781206E+04    0.152133821199595474E+03    0.118255578962365289E+05    0.904667647660613881E+02
    0.566522932378904609E+00    0.783772825997310321E+02    0.189355300899884753E+02    0.659668257522213342E+01   -0.994395373900546292E+04   -0.559408906030125672E+04   -0.180770834302064327E+04    0.149011028260235889E+03    0.115457127194514906E+05    0.905112294194283891E+02
    0.551984178585242402E+00    0.782728808472458155E+02    0.187408955884842641E+02    0.644146596011617056E+01   -0.102775146077379686E+05   -0.575194967410256322E+04   -0.185608972770789615E+04    0.152622735055192607E+03    0.118756438890504578E+05    0.905201137321338081E+02
    0.551984178585242402E+00    0.782728808472458155E+02    0.187408955884842641E+02    0.644146596011617056E+01   -0.102775146077379686E+05   -0.575194967410256322E+04   -0.185608972770789615E+04    0.152622735055192607E+03    0.118756438890504578E+05    0.905201137321338081E+02
    0.547056763436866822E+00    0.783448837611218778E+02    0.187193303913327043E+02    0.745351193774860388E+01   -0.994661086742157931E+04   -0.559656505221183033E+04   -0.180692766894193596E+04    0.148572658158651564E+03    0.115487869445410506E+05    0.905565793078244496E+02
    0.547056763436866822E+00    0.783448837611218778E+02    0.187193303913327043E+02    0.745351193774860388E+01   -0.994661086742157931E+04   -0.559656505221183033E+04   -0.180692766894193596E+04    0.148572658158651564E+03    0.115487869445410506E+05    0.905565793078244496E+02
    0.570040408911799967E+00    0.783569175820755675E+02    0.188045980706428821E+02    0.678819635760243667E+01   -0.988722461587852740E+04   -0.556708597174866645E+04   -0.179962181389787565E+04    0.148458665185657992E+03    0.114895375041781408E+05    0.905657856301388335E+02
    0.529311018911614251E+00    0.783547192648585451E+02    0.185733558979034470E+02    0.744893415401878567E+01   -0.101780763936434978E+05   -0.570667825002293648E+04   -0.183993645289366941E+04    0.150853134013701720E+03    0.117779541229310926E+05    0.905799276472574775E+02
    0.527482941018904583E+00    0.782761737538970976E+02    0.185391130530255985E+02    0.737597571638328997E+01   -0.104134828302437636E+05   -0.581714491826264930E+04   -0.187499371689897293E+04    0.153767979677905089E+03    0.120104472825105022E+05    0.906032650347653288E+02
    0.555206808716429245E+00    0.783283040469458314E+02    0.186607171618355316E+02    0.668983969161982106E+01   -0.100329731491208349E+05   -0.563689445584763143E+04   -0.181994799367205246E+04    0.149711456954709575E+03    0.116340150739523397E+05    0.906347090373441517E+02
    0.532925144442762511E+00    0.783206284875464149E+02    0.186594862362496094E+02    0.712925709071324487E+01   -0.101638732981711255E+05   -0.570010799356704865E+04   -0.183781649386558615E+04    0.150643271931740230E+03    0.117639659204484778E+05    0.906374709041424609E+02
    0.552078281387890835E+00    0.782853988663500928E+02    0.188474361703796554E+02    0.696877807236467550E+01   -0.103107292972304967E+05   -0.576727556104963878E+04   -0.186127935774645766E+04    0.153137109088408465E+03    0.119083486080322018E+05    0.906651547927289698E+02
    0.552078281387890835E+00    0.782853988663500928E+02    0.188474361703796554E+02    0.696877807236467550E+01   -0.103107292972304967E+05   -0.576727556104963878E+04   -0.186127935774645766E+04    0.153137109088408465E+03    0.119083486080322018E+05    0.906651547927289698E+02
    0.547045988419011642E+00    0.783881690758360605E+02    0.186497608626813332E+02    0.713058833774077616E+01   -0.100242875959959783E+05   -0.563289839507278066E+04   -0.181856795573388058E+04    0.149578065919137913E+03    0.116254574057926511E+05    0.906992193689148678E+02
    0.550559151228877552E+00    0.783051687021121410E+02    0.187683527507262475E+02    0.713298961746751559E+01   -0.994316117798316191E+04   -0.559479799947109495E+04   -0.180654918189147429E+04    0.148584180843797895E+03    0.115453307073384603E+05    0.906994644545593474E+02
    0.550559151228877552E+00    0.783051687021121410E+02    0.187683527507262475E+02    0.713298961746751559E+01   -0.994316117798316191E+04   -0.559479799947109495E+04   -0.180654918189147429E+04    0.148584180843797895E+03    0.115453307073384603E+05    0.906994644545593474E+02
    0.558578944206187145E+00    0.783955917171526551E+02    0.187290502070393750E+02    0.669303081541826295E+01   -0.996791865532917473E+04   -0.560581596214944511E+04   -0.181077329466096967E+04    0.149124376663971162E+03    0.115695512029767197E+05    0.907193790799973669E+02
    0.557944312180398305E+00    0.783995558354418733E+02    0.187839276384043714E+02    0.641531621015978093E+01   -0.993165250932322851E+04   -0.558882790206021764E+04   -0.180534417221013541E+04    0.148662109037481002E+03    0.115337492373470104E+05    0.908120202654990578E+02
    0.561194084547599226E+00    0.782861146325460737E+02    0.187806149491893599E+02    0.716418965566090193E+01   -0.101101861690810201E+05   -0.567219442342310504E+04   -0.183236220136717293E+04    0.151034468509027676E+03    0.117099171523821478E+05    0.908147695402634270E+02
    0.564180377363106778E+00    0.783545573500907722E+02    0.188514428253018131E+02    0.640907018834982178E+01   -0.993440360235168009E+04   -0.559012877549039422E+04   -0.180582956436136146E+04    0.148695887395394379E+03    0.115364706916288615E+05    0.908283824433381142E+02
    0.555607311905092827E+00    0.783117873729675864E+02    0.187329588453042994E+02    0.655561813386132286E+01   -0.102255689370161017E+05   -0.572669573924721408E+04   -0.184916179095534085E+04    0.152321862487827616E+03    0.118240065893563351E+05    0.908299382114697522E+02
    0.555607311905092827E+00    0.783117873729675864E+02    0.187329588453042994E+02    0.655561813386132286E+01   -0.102255689370161017E+05   -0.572669573924721408E+04   -0.184916179095534085E+04    0.152321862487827616E+03    0.118240065893563351E+05    0.908299382114697522E+02
    0.561727318557756594E+00    0.782854281646282715E+02    0.188150398271314394E+02    0.631895831576897304E+01   -0.102685791768843465E+05   -0.574704500206351622E+04   -0.185539989948197262E+04    0.152785173981681339E+03    0.118665568437789661E+05    0.908443393584280443E+02
    0.561727318557756594E+00    0.782854281646282715E+02    0.188150398271314394E+02    0.631895831576897304E+01   -0.102685791768843465E+05   -0.574704500206351622E+04   -0.185539989948197262E+04    0.152785173981681339E+03    0.118665568437789661E+05    0.908443393584280443E+02
    0.566742847579606690E+00    0.783714144373969646E+02    0.188241317146744436E+02    0.658496506296399087E+01   -0.989367160118210995E+04   -0.557025843168722986E+04   -0.180044646035767278E+04    0.148482964683622242E+03    0.114959568364629722E+05    0.909010871430980529E+02
    0.549946908611779528E+00    0.783648199543803372E+02    0.187112576716475836E+02    0.702967876710511064E+01   -0.100508041448799959E+05   -0.564572339038832888E+04   -0.182223834675712874E+04    0.149760329277450552E+03    0.116517945034128807E+05    0.909311583243746497E+02
    0.573010151624872011E+00    0.783837840409041604E+02    0.188051411032445479E+02    0.617790596621161470E+01   -0.984290648417191005E+04   -0.554659381139155357E+04   -0.179266521131473451E+04    0.147787392212859686E+03    0.114458866675260488E+05    0.909463518522547503E+02
    0.526474564089173147E+00    0.783278732184496533E+02    0.186296506136651381E+02    0.734864692338394221E+01   -0.101956192634981235E+05   -0.571519930538870994E+04   -0.184232371912319627E+04    0.150961057526005277E+03    0.117953884402023159E+05    0.909672038945915773E+02
    0.582021539284105383E+00    0.783453945800562082E+02    0.189136025790854312E+02    0.633212415351536340E+01   -0.980283113122638861E+04   -0.552673429495539312E+04   -0.178778525062934023E+04    0.147705331363185593E+03    0.114059084517104293E+05    0.909768113597541941E+02
    0.568218583575522684E+00    0.782905222966231520E+02    0.188176021490127248E+02    0.660346887792469772E+01   -0.991412976980931126E+04   -0.558017211525640050E+04   -0.180323405510525890E+04    0.148618789328784885E+03    0.115162787274203838E+05    0.909812954035025996E+02
    0.545372877826360458E+00    0.783112853498202810E+02    0.187025744094601052E+02    0.722585572591293612E+01   -0.102526943702556109E+05   -0.574005089043608041E+04   -0.185257681975902574E+04    0.152413451362671310E+03    0.118510308076578331E+05    0.909884970317280022E+02
    0.576178331883268169E+00    0.783980228790879750E+02    0.188827622081052446E+02    0.656969720575619753E+01   -0.980878746324916938E+04   -0.553001210480877216E+04   -0.178819456897058876E+04    0.147590905359046758E+03    0.114119729517765463E+05    0.910446813016292396E+02
    0.551640826116796879E+00    0.783864181619735234E+02    0.187238827793560390E+02    0.726738245851895570E+01   -0.990291893634814551E+04   -0.557591107800382906E+04   -0.180057080936161128E+04    0.148088045851397737E+03    0.115055833073202193E+05    0.911504964146116663E+02
    0.551640826116796879E+00    0.783864181619735234E+02    0.187238827793560390E+02    0.726738245851895570E+01   -0.990291893634814551E+04   -0.557591107800382906E+04   -0.180057080936161128E+04    0.148088045851397737E+03    0.115055833073202193E+05    0.911504964146116663E+02
    0.529612332101388583E+00    0.782476562936301008E+02    0.186167419253744235E+02    0.698292352415063000E+01   -0.104494788431622965E+05   -0.583430046283255433E+04   -0.188016215591473133E+04    0.154113556843105243E+03    0.120460976155408680E+05    0.911731715222937140E+02
    0.549265741693350851E+00    0.783125382017435356E+02    0.188195373359354399E+02    0.674159268828707336E+01   -0.100402949089243939E+05   -0.564068448297188661E+04   -0.182077975343040885E+04    0.149671941903458020E+03    0.116413762359098928E+05    0.911889957825615625E+02
    0.549265741693350851E+00    0.783125382017435356E+02    0.188195373359354399E+02    0.674159268828707336E+01   -0.100402949089243939E+05   -0.564068448297188661E+04   -0.182077975343040885E+04    0.149671941903458020E+03    0.116413762359098928E+05    0.911889957825615625E+02
    0.560603613848343230E+00    0.782816100495578837E+02    0.187263808136268821E+02    0.618382871554595148E+01   -0.100862400719853067E+05   -0.566143103716506175E+04   -0.182832971041756764E+04    0.150550472688093123E+03    0.116864508274986074E+05    0.911904065937738437E+02
    0.560603613848343230E+00    0.782816100495578837E+02    0.187263808136268821E+02    0.618382871554595148E+01   -0.100862400719853067E+05   -0.566143103716506175E+04   -0.182832971041756764E+04    0.150550472688093123E+03    0.116864508274986074E+05    0.911904065937738437E+02
    0.540936785625833694E+00    0.782422714553669039E+02    0.187531011723860885E+02    0.743396536018100651E+01   -0.102549092690433135E+05   -0.574184821019655283E+04   -0.185230784422747774E+04    0.152153901982695459E+03    0.118535027659197222E+05    0.912392437018999800E+02
    0.553929214172713014E+00    0.783440451029148193E+02    0.186086319809137208E+02    0.653811108002498820E+01   -0.996353436396877441E+04   -0.560418698361968109E+04   -0.180973396095021030E+04    0.148902551063332766E+03    0.115653855744198409E+05    0.912573771131214500E+02
    0.553929214172713014E+00    0.783440451029148193E+02    0.186086319809137208E+02    0.653811108002498820E+01   -0.996353436396877441E+04   -0.560418698361968109E+04   -0.180973396095021030E+04    0.148902551063332766E+03    0.115653855744198409E+05    0.912573771131214500E+02
    0.551661880271102634E+00    0.783873031732528602E+02    0.187069886492911301E+02    0.684659444165205144E+01   -0.100734629078676753E+05   -0.565597188444448238E+04   -0.182588304464849443E+04    0.150184799465077987E+03    0.116740283588883540E+05    0.913105149279519708E+02
    0.551661880271102634E+00    0.783873031732528602E+02    0.187069886492911301E+02    0.684659444165205144E+01   -0.100734629078676753E+05   -0.565597188444448238E+04   -0.182588304464849443E+04    0.150184799465077987E+03    0.116740283588883540E+05    0.913105149279519708E+02
    0.549305033871392734E+00    0.783009483305638696E+02    0.187627489592838295E+02    0.635357003106580009E+01   -0.101825774370245053E+05   -0.570739510023986077E+04   -0.184197598487551204E+04    0.151453454163504063E+03    0.117818763074904946E+05    0.913367116250507394E+02
    0.549305033871392734E+00    0.783009483305638696E+02    0.187627489592838295E+02    0.635357003106580009E+01   -0.101825774370245053E+05   -0.570739510023986077E+04   -0.184197598487551204E+04    0.151453454163504063E+03    0.117818763074904946E+05    0.913367116250507394E+02
    0.546112556544371186E+00    0.782817745870144108E+02    0.187338622509286807E+02    0.675018989004416170E+01   -0.102284793720718408E+05   -0.572949121483713861E+04   -0.184834141203752779E+04    0.151806776728257660E+03    0.118274201331114964E+05    0.913443505326265637E+02
    0.565963008654849831E+00    0.783972091784650758E+02    0.187043073063015548E+02    0.643868495362202964E+01   -0.989458711476770077E+04   -0.557136631470419070E+04   -0.179989697337881989E+04    0.148226408151433446E+03    0.114971242063651316E+05    0.913678748219041523E+02
    0.565963008654849831E+00    0.783972091784650758E+02    0.187043073063015548E+02    0.643868495362202964E+01   -0.989458711476770077E+04   -0.557136631470419070E+04   -0.179989697337881989E+04    0.148226408151433446E+03    0.114971242063651316E+05    0.913678748219041523E+02
    0.552923425465187579E+00    0.782879741445460979E+02    0.186157982652543623E+02    0.634626705323651663E+01   -0.101871845937238504E+05   -0.570988972637891038E+04   -0.184234737299421454E+04    0.151378291320985142E+03    0.117865564824108496E+05    0.913849595648914317E+02
    0.552923425465187579E+00    0.782879741445460979E+02    0.186157982652543623E+02    0.634626705323651663E+01   -0.101871845937238504E+05   -0.570988972637891038E+04   -0.184234737299421454E+04    0.151378291320985142E+03    0.117865564824108496E+05    0.913849595648914317E+02
    0.562292748368888762E+00    0.783000206105875804E+02    0.188625344817106573E+02    0.679174755237085837E+01   -0.101539612935926216E+05   -0.569278949648492380E+04   -0.183877451550862224E+04    0.151549098969138129E+03    0.117531780830961125E+05    0.914003057810252528E+02
    0.562292748368888762E+00    0.783000206105875804E+02    0.188625344817106573E+02    0.679174755237085837E+01   -0.101539612935926216E+05   -0.569278949648492380E+04   -0.183877451550862224E+04    0.151549098969138129E+03    0.117531780830961125E+05    0.914003057810252528E+02
    0.551920925775632454E+00    0.783564713321898978E+02    0.187679356487830873E+02    0.676218615657290822E+01   -0.101545509874907439E+05   -0.569396115529129474E+04   -0.183801491281748986E+04    0.151208849603341321E+03    0.117540986728802691E+05    0.914104195658641459E+02
    0.543733039202270674E+00    0.782896106377800720E+02    0.185778692036200894E+02    0.693712505840698856E+01   -0.102973567962095658E+05   -0.576178921208054271E+04   -0.185857427714975324E+04    0.152670492287815534E+03    0.118954303532357226E+05    0.914137264187444316E+02
    0.554628951265931702E+00    0.783905528021617783E+02    0.187007407170473776E+02    0.676214595522531248E+01   -0.990765281239448996E+04   -0.557839144801435305E+04   -0.180100615195480123E+04    0.148041618475942784E+03    0.115103644286470171E+05    0.914283584090017314E+02
    0.556067918412003204E+00    0.783253440051297787E+02    0.187548053404240029E+02    0.652104624079264106E+01   -0.100359237333076362E+05   -0.563822516038126469E+04   -0.182050442897017138E+04    0.149775517760581607E+03    0.116369030819072887E+05    0.915028866781091210E+02
    0.556067918412003204E+00    0.783253440051297787E+02    0.187548053404240029E+02    0.652104624079264106E+01   -0.100359237333076362E+05   -0.563822516038126469E+04   -0.182050442897017138E+04    0.149775517760581607E+03    0.116369030819072887E+05    0.915028866781091210E+02
    0.554294232393266251E+00    0.783936827441784487E+02    0.187965767086483666E+02    0.659044646777332410E+01   -0.100183514610991151E+05   -0.563020957212218582E+04   -0.181760724085385482E+04    0.149462957453586910E+03    0.116196428334241227E+05    0.915143036642016483E+02
    0.533191308980132672E+00    0.782798527336716887E+02    0.186833949906948646E+02    0.710898572158613629E+01   -0.103849893511836854E+05   -0.580396602181754952E+04   -0.187063440786002366E+04    0.153343003466631075E+03    0.119823826098864047E+05    0.915155274959022194E+02
    0.546716549184641742E+00    0.782798387991819880E+02    0.187613508607023149E+02    0.683407183358444303E+01   -0.102819646571159992E+05   -0.575470618279805967E+04   -0.185613470671619439E+04    0.152418679421389186E+03    0.118802949634463257E+05    0.915157000294568519E+02
    0.546716549184641742E+00    0.782798387991819880E+02    0.187613508607023149E+02    0.683407183358444303E+01   -0.102819646571159992E+05   -0.575470618279805967E+04   -0.185613470671619439E+04    0.152418679421389186E+03    0.118802949634463257E+05    0.915157000294568519E+02
    0.552818941465446634E+00    0.782335009040603353E+02    0.187984384907513409E+02    0.695811931990557397E+01   -0.102600265563878111E+05   -0.574340937041693542E+04   -0.185383635389950405E+04    0.152541837995980785E+03    0.118582415076586130E+05    0.915261905771591415E+02
    0.552818941465446634E+00    0.782335009040603353E+02    0.187984384907513409E+02    0.695811931990557397E+01   -0.102600265563878111E+05   -0.574340937041693542E+04   -0.185383635389950405E+04    0.152541837995980785E+03    0.118582415076586130E+05    0.915261905771591415E+02
    0.549388564852836270E+00    0.782510921158432495E+02    0.186545497259433866E+02    0.682712801152493665E+01   -0.102245293437252622E+05   -0.572685072671679882E+04   -0.184843071549541992E+04    0.152064208612759586E+03    0.118232151752201935E+05    0.915300226835813362E+02
    0.550053585524384769E+00    0.783190333747552785E+02    0.187361157846401127E+02    0.673685654443853910E+01   -0.101586199265977411E+05   -0.569638447181676565E+04   -0.183825589331828814E+04    0.151069795381438865E+03    0.117583011577495672E+05    0.915315780638971432E+02
    0.555116749986167446E+00    0.782464911252791495E+02    0.188201537777361487E+02    0.678346550084268074E+01   -0.101573669561610950E+05   -0.569469758587835076E+04   -0.183906244070574553E+04    0.151481405621848239E+03    0.117566450209497525E+05    0.915487769678670702E+02
    0.549602133702282614E+00    0.782319041515575861E+02    0.186867991758781500E+02    0.659728028217450557E+01   -0.102302511013168878E+05   -0.572959182163147761E+04   -0.184923407533785030E+04    0.152111997280504710E+03    0.118288909829205368E+05    0.915635470875931219E+02
    0.549602133702282614E+00    0.782319041515575861E+02    0.186867991758781500E+02    0.659728028217450557E+01   -0.102302511013168878E+05   -0.572959182163147761E+04   -0.184923407533785030E+04    0.152111997280504710E+03    0.118288909829205368E+05    0.915635470875931219E+02
    0.557318903538600363E+00    0.783102240546343467E+02    0.188307095210501352E+02    0.646738434379124350E+01   -0.101455915911955090E+05   -0.568953958145964771E+04   -0.183690152004503739E+04    0.151184757393594083E+03    0.117451667499256691E+05    0.915816099930581373E+02
    0.561776251824201656E+00    0.782734151440469930E+02    0.187730915499610838E+02    0.668191817214826411E+01   -0.101874397495484136E+05   -0.570873352123107452E+04   -0.184361830473258010E+04    0.151882454365070259E+03    0.117863189253606342E+05    0.915840553088731326E+02
    0.561776251824201656E+00    0.782734151440469930E+02    0.187730915499610838E+02    0.668191817214826411E+01   -0.101874397495484136E+05   -0.570873352123107452E+04   -0.184361830473258010E+04    0.151882454365070259E+03    0.117863189253606342E+05    0.915840553088731326E+02
    0.547426030504458261E+00    0.782805676560588637E+02    0.186869061499200519E+02    0.659994956898921448E+01   -0.102588232391198908E+05   -0.574372268448303839E+04   -0.185280034592304128E+04    0.152181854695095751E+03    0.118573899283534320E+05    0.915914354165085172E+02
    0.551218008512536106E+00    0.782760023412898249E+02    0.187416762192540851E+02    0.660463327251200294E+01   -0.100722062882330301E+05   -0.565581805417290616E+04   -0.182537989400816082E+04    0.150004758172304321E+03    0.116729535238900389E+05    0.915993560452912163E+02
    0.550513326913526835E+00    0.783462983668975852E+02    0.187198174306557590E+02    0.713488177105610877E+01   -0.999126095647923830E+04   -0.561759515758956331E+04   -0.181346690818977117E+04    0.149088059150082529E+03    0.115929231009866926E+05    0.916048935167663529E+02
    0.550513326913526835E+00    0.783462983668975852E+02    0.187198174306557590E+02    0.713488177105610877E+01   -0.999126095647923830E+04   -0.561759515758956331E+04   -0.181346690818977117E+04    0.149088059150082529E+03    0.115929231009866926E+05    0.916048935167663529E+02
    0.554209223434634302E+00    0.782234679107719870E+02    0.187806751760194501E+02    0.667193344758324791E+01   -0.103042371716917296E+05   -0.576434301649705048E+04   -0.186025843703560281E+04    0.153016327238841313E+03    0.119019769706585139E+05    0.916275436548988154E+02
    0.546069457023963811E+00    0.783576702898956796E+02    0.187759241648047244E+02    0.696444962525466504E+01   -0.101978389612616411E+05   -0.571452910706430976E+04   -0.184417942051848354E+04    0.151645081201588596E+03    0.117969436390917199E+05    0.916444339315418830E+02
    0.569598847445322187E+00    0.783762805714226261E+02    0.187608999318548513E+02    0.618152729717198923E+01   -0.100154135429789421E+05   -0.562757679921622275E+04   -0.181832953277966863E+04    0.149910341608317395E+03    0.116162709863880573E+05    0.916768084857400680E+02
    0.542607430225225396E+00    0.783360707602197408E+02    0.187500028336173692E+02    0.676576230608200113E+01   -0.101757172755942738E+05   -0.570469639920498139E+04   -0.184046692220417685E+04    0.151164051055307681E+03    0.117753012063963488E+05    0.917204343079837514E+02
    0.542607430225225396E+00    0.783360707602197408E+02    0.187500028336173692E+02    0.676576230608200113E+01   -0.101757172755942738E+05   -0.570469639920498139E+04   -0.184046692220417685E+04    0.151164051055307681E+03    0.117753012063963488E+05    0.917204343079837514E+02
    0.527443298510287040E+00    0.783083624041346837E+02    0.186580733187876184E+02    0.740454940020276631E+01   -0.103430849863723815E+05   -0.578425149273783154E+04   -0.186443399849967955E+04    0.152845502131494840E+03    0.119409728799206696E+05    0.918273256772209123E+02
    0.546708895627195268E+00    0.783190408849360722E+02    0.186800441687280987E+02    0.712612806885286343E+01   -0.100909690947313957E+05   -0.566477598048251730E+04   -0.182802702276186051E+04    0.150179606002065810E+03    0.116915358768509395E+05    0.918517660122881523E+02
    0.550613026708647757E+00    0.783368179065786592E+02    0.187156526106472079E+02    0.698625243943953844E+01   -0.101674152002109568E+05   -0.569977232027686659E+04   -0.184019760790347141E+04    0.151462955359223514E+03    0.117667079009763856E+05    0.918660042484691388E+02
    0.550613026708647757E+00    0.783368179065786592E+02    0.187156526106472079E+02    0.698625243943953844E+01   -0.101674152002109568E+05   -0.569977232027686659E+04   -0.184019760790347141E+04    0.151462955359223514E+03    0.117667079009763856E+05    0.918660042484691388E+02
    0.556335213880489676E+00    0.782576653641821309E+02    0.186971008885838081E+02    0.673243177292036599E+01   -0.101791908687955929E+05   -0.570539356052864969E+04   -0.184190298547636326E+04    0.151574066008139255E+03    0.117783727585819324E+05    0.918812603855254224E+02
    0.551394559782208749E+00    0.783691190665492172E+02    0.188309807268194653E+02    0.701822040159498517E+01   -0.100714054545244308E+05   -0.565466839212562445E+04   -0.182587929838080731E+04    0.150287242940791799E+03    0.116718748224422925E+05    0.918827849464420154E+02
    0.551394559782208749E+00    0.783691190665492172E+02    0.188309807268194653E+02    0.701822040159498517E+01   -0.100714054545244308E+05   -0.565466839212562445E+04   -0.182587929838080731E+04    0.150287242940791799E+03    0.116718748224422925E+05    0.918827849464420154E+02
    0.574407214227441232E+00    0.783533499415882204E+02    0.188343539322370255E+02    0.646284939253985868E+01   -0.983382123712754037E+04   -0.554150922075226572E+04   -0.179212341256417540E+04    0.147997329672120202E+03    0.114366002095338154E+05    0.918925358768212135E+02
    0.541252467018013772E+00    0.782716485608203385E+02    0.186583717342650530E+02    0.722382423824103181E+01   -0.102492709771386217E+05   -0.573893736029005049E+04   -0.185165796469273960E+04    0.152184684153632816E+03    0.118478329726094271E+05    0.919034628440275156E+02
    0.541252467018013772E+00    0.782716485608203385E+02    0.186583717342650530E+02    0.722382423824103181E+01   -0.102492709771386217E+05   -0.573893736029005049E+04   -0.185165796469273960E+04    0.152184684153632816E+03    0.118478329726094271E+05    0.919034628440275156E+02
    0.535345867941277476E+00    0.783122847569844964E+02    0.186963653851542233E+02    0.754414577254035290E+01   -0.101446887496964137E+05   -0.569045965261586480E+04   -0.183551610626366096E+04    0.150655671166348412E+03    0.117447716635793640E+05    0.920334398551539437E+02
    0.556977788653885031E+00    0.783133383589351695E+02    0.188507553837791164E+02    0.681105302046939709E+01   -0.101833234835889143E+05   -0.570736584830091579E+04   -0.184247575051956505E+04    0.151609768859497194E+03    0.117824726814157875E+05    0.920810842193524053E+02
    0.535952878780599051E+00    0.782277627041753760E+02    0.187112715099102971E+02    0.717303248344589051E+01   -0.103869359623034434E+05   -0.580447556653703668E+04   -0.187129532945925644E+04    0.153523700086318627E+03    0.119841520473158962E+05    0.921125268980117085E+02
    0.535952878780599051E+00    0.782277627041753760E+02    0.187112715099102971E+02    0.717303248344589051E+01   -0.103869359623034434E+05   -0.580447556653703668E+04   -0.187129532945925644E+04    0.153523700086318627E+03    0.119841520473158962E+05    0.921125268980117085E+02
    0.526658078763033610E+00    0.782882790126693351E+02    0.186339418696955335E+02    0.758168899890000336E+01   -0.103217886727408149E+05   -0.577421358794553998E+04   -0.186131465853867553E+04    0.152601199886315101E+03    0.119199189393024590E+05    0.921138336479244089E+02
    0.547997623012287272E+00    0.783419081060610409E+02    0.187011626214211759E+02    0.691618102277123548E+01   -0.100306741110433959E+05   -0.563614636655311642E+04   -0.181934576554321688E+04    0.149562629455095276E+03    0.116318619874802389E+05    0.921176461531683657E+02
    0.547997623012287272E+00    0.783419081060610409E+02    0.187011626214211759E+02    0.691618102277123548E+01   -0.100306741110433959E+05   -0.563614636655311642E+04   -0.181934576554321688E+04    0.149562629455095276E+03    0.116318619874802389E+05    0.921176461531683657E+02
    0.557340935894831913E+00    0.783647962450120588E+02    0.187935317053948445E+02    0.691493837045970938E+01   -0.100478721412610485E+05   -0.564379673775026004E+04   -0.182227673806475354E+04    0.149933890443782673E+03    0.116486955018506214E+05    0.921370997666792562E+02
    0.557340935894831913E+00    0.783647962450120588E+02    0.187935317053948445E+02    0.691493837045970938E+01   -0.100478721412610485E+05   -0.564379673775026004E+04   -0.182227673806475354E+04    0.149933890443782673E+03    0.116486955018506214E+05    0.921370997666792562E+02
    0.571991954278934345E+00    0.783427918081160186E+02    0.188373932989047113E+02    0.634492009961797887E+01   -0.997903334193122464E+04   -0.560995601134562821E+04   -0.181346519347759704E+04    0.149677323568951522E+03    0.115801284522805672E+05    0.921611165031984569E+02
    0.571991954278934345E+00    0.783427918081160186E+02    0.188373932989047113E+02    0.634492009961797887E+01   -0.997903334193122464E+04   -0.560995601134562821E+04   -0.181346519347759704E+04    0.149677323568951522E+03    0.115801284522805672E+05    0.921611165031984569E+02
    0.543102855368801540E+00    0.782712445560699308E+02    0.187285612341709822E+02    0.693707186469367088E+01   -0.102585057689446021E+05   -0.574333273782872584E+04   -0.185301073116608268E+04    0.152275193754945008E+03    0.118569802055308319E+05    0.921629652900521990E+02
    0.537923375349122157E+00    0.782526417356793900E+02    0.187163905421818875E+02    0.756328911945478755E+01   -0.102932283312671534E+05   -0.576024139503704373E+04   -0.185760204060672550E+04    0.152465205355197554E+03    0.118915055579102664E+05    0.922101124215028420E+02
    0.562786617842432779E+00    0.783884189038189731E+02    0.187927456188468263E+02    0.677049998048279011E+01   -0.986353095655951620E+04   -0.555646413500051403E+04   -0.179558537405954894E+04    0.147974220094940932E+03    0.114663193655997457E+05    0.922128395760324935E+02
    0.543050799134149775E+00    0.782873196182743811E+02    0.186566854845430825E+02    0.715460904840463474E+01   -0.100957731482064810E+05   -0.566722551048494188E+04   -0.182854875803274649E+04    0.150161072151299095E+03    0.116963565231016255E+05    0.922185637835186895E+02
    0.560260303235857737E+00    0.782657204054460891E+02    0.187955125239769671E+02    0.644497142672450529E+01   -0.100625512294166219E+05   -0.565051016976067967E+04   -0.182466833421185629E+04    0.150184097933240196E+03    0.116631283673194193E+05    0.922601282897573327E+02
    0.560710381113908474E+00    0.783889390632594001E+02    0.187651467881405907E+02    0.678776413757225416E+01   -0.995249398708511399E+04   -0.559825282828459785E+04   -0.180878559800501398E+04    0.149056076244060222E+03    0.115542010623116348E+05    0.922941716294490959E+02
    0.555676667987526796E+00    0.783186176141112753E+02    0.186962507291769278E+02    0.655327663897743484E+01   -0.102233278086980790E+05   -0.572590518171133499E+04   -0.184857478169727801E+04    0.152192588222511574E+03    0.118218922942573372E+05    0.922978140332298977E+02
    0.558981323846145295E+00    0.783001811075952219E+02    0.188578000746307310E+02    0.670158489063008833E+01   -0.101789328152068829E+05   -0.570508468659120444E+04   -0.184196876266794175E+04    0.151634291067670745E+03    0.117780613569215475E+05    0.923286275992538918E+02
    0.549893041726554732E+00    0.783389008026709632E+02    0.188593737756665014E+02    0.715056117932148805E+01   -0.100098606218790592E+05   -0.562605369117129703E+04   -0.181651097024184060E+04    0.149426197091089477E+03    0.116111887387478237E+05    0.923841021523587500E+02
    0.549893041726554732E+00    0.783389008026709632E+02    0.188593737756665014E+02    0.715056117932148805E+01   -0.100098606218790592E+05   -0.562605369117129703E+04   -0.181651097024184060E+04    0.149426197091089477E+03    0.116111887387478237E+05    0.923841021523587500E+02
    0.568041208913826701E+00    0.783270154075096201E+02    0.189038415972432361E+02    0.654874026910197404E+01   -0.986832256970205708E+04   -0.555841410270514825E+04   -0.179660948073998247E+04    0.148147918940385381E+03    0.114709439977105958E+05    0.923869801453143111E+02
    0.568041208913826701E+00    0.783270154075096201E+02    0.189038415972432361E+02    0.654874026910197404E+01   -0.986832256970205708E+04   -0.555841410270514825E+04   -0.179660948073998247E+04    0.148147918940385381E+03    0.114709439977105958E+05    0.923869801453143111E+02
    0.557928719872244905E+00    0.783429069486501248E+02    0.188282192488687663E+02    0.702576192609757655E+01   -0.996466450288980741E+04   -0.560445238937475733E+04   -0.181019789111885166E+04    0.149020212112857877E+03    0.115664045169371257E+05    0.924003523714737014E+02
    0.541303186751883714E+00    0.782660240066234110E+02    0.186081376169066424E+02    0.693999719239114476E+01   -0.102473477115175720E+05   -0.573804408885883549E+04   -0.185137448868588513E+04    0.152159148696660907E+03    0.118459333085309936E+05    0.924176576228347955E+02
    0.553486355497401217E+00    0.782532184895741239E+02    0.187294577208855451E+02    0.697682040712822271E+01   -0.101346268263962811E+05   -0.568431068931621212E+04   -0.183544120879733282E+04    0.151091319623491415E+03    0.117342922910820653E+05    0.924358428498445051E+02
    0.553486355497401217E+00    0.782532184895741239E+02    0.187294577208855451E+02    0.697682040712822271E+01   -0.101346268263962811E+05   -0.568431068931621212E+04   -0.183544120879733282E+04    0.151091319623491415E+03    0.117342922910820653E+05    0.924358428498445051E+02
    0.565928171677864800E+00    0.783342074228962559E+02    0.188215782786410841E+02    0.694624167190590036E+01   -0.997057742718976260E+04   -0.560672297014937340E+04   -0.181150377379910378E+04    0.149286571475291538E+03    0.115720565703841330E+05    0.924417545431913084E+02
    0.543679590866978035E+00    0.782939946401083091E+02    0.186714247160599314E+02    0.670268634658502371E+01   -0.102805565946045826E+05   -0.575384951268207715E+04   -0.185609511599676784E+04    0.152477060787029870E+03    0.118788274234271539E+05    0.924669944887919542E+02
    0.543679590866978035E+00    0.782939946401083091E+02    0.186714247160599314E+02    0.670268634658502371E+01   -0.102805565946045826E+05   -0.575384951268207715E+04   -0.185609511599676784E+04    0.152477060787029870E+03    0.118788274234271539E+05    0.924669944887919542E+02
    0.569980546934421906E+00    0.783115521610063468E+02    0.188269447762715281E+02    0.648918443722928817E+01   -0.994636640878361868E+04   -0.559481199894592555E+04   -0.180847759564388343E+04    0.149204950597038930E+03    0.115479346069528692E+05    0.924859899043128735E+02
    0.565981060542783854E+00    0.783227665917841307E+02    0.187506361361708613E+02    0.655590210489765646E+01   -0.998359796369976357E+04   -0.561238219145674157E+04   -0.181389863659147886E+04    0.149627662319715739E+03    0.115847375943174848E+05    0.924866905237582415E+02
    0.559261345264688403E+00    0.783499503326110727E+02    0.188529502954184380E+02    0.694881511813110730E+01   -0.999228491998879326E+04   -0.561760209882465006E+04   -0.181411158389463253E+04    0.149286218552754946E+03    0.115937586863519809E+05    0.925004096414944712E+02
    0.551536781575461377E+00    0.782878127784677815E+02    0.188102672858168773E+02    0.717270477175342602E+01   -0.102479048097401483E+05   -0.573778744432653275E+04   -0.185194322374944068E+04    0.152360674047638213E+03    0.118463003581910598E+05    0.925270224005752624E+02
    0.551536781575461377E+00    0.782878127784677815E+02    0.188102672858168773E+02    0.717270477175342602E+01   -0.102479048097401483E+05   -0.573778744432653275E+04   -0.185194322374944068E+04    0.152360674047638213E+03    0.118463003581910598E+05    0.925270224005752624E+02
    0.555316965207476088E+00    0.783481758194076008E+02    0.186690955166132291E+02    0.658357372537856467E+01   -0.101009988711284186E+05   -0.566891009135352760E+04   -0.182996768672683061E+04    0.150514410232313935E+03    0.117012391421693428E+05    0.925284575572570560E+02
    0.557514817115945527E+00    0.783423263450474963E+02    0.187231704841055908E+02    0.643771939295510087E+01   -0.100356986626940761E+05   -0.563826429402239228E+04   -0.182026186608248281E+04    0.149709208879472385E+03    0.116367461538246898E+05    0.925712959558614017E+02
    0.553216547118712931E+00    0.782975361074548033E+02    0.187483451371459218E+02    0.639320630265072509E+01   -0.101691695149672905E+05   -0.570091116963346940E+04   -0.184020741925956236E+04    0.151364678457032170E+03    0.117685592835456664E+05    0.925739892952517920E+02
    0.542981648258696104E+00    0.783032062799290856E+02    0.185808909797339510E+02    0.665629291129248468E+01   -0.102353041720058281E+05   -0.573280377107766617E+04   -0.184920997824540245E+04    0.151849503567819113E+03    0.118341975311683964E+05    0.925945773698420140E+02
    0.563570887167805901E+00    0.782801070544956019E+02    0.188868597664053901E+02    0.657466173946773846E+01   -0.100086191899306978E+05   -0.562479521781037874E+04   -0.181700524294733850E+04    0.149673782376236886E+03    0.116097112507971397E+05    0.925962059758597462E+02
    0.559106785485307678E+00    0.783746055069803731E+02    0.188427111954755304E+02    0.668555849590480289E+01   -0.100083919039525099E+05   -0.562495016186238263E+04   -0.181672210358978350E+04    0.149569696371602646E+03    0.116095837459858449E+05    0.926017144144065725E+02
    0.537950273127191902E+00    0.782965393261267053E+02    0.186264706235965889E+02    0.708195382678320762E+01   -0.102191830781049812E+05   -0.572517472854782500E+04   -0.184679957885807812E+04    0.151669438483981736E+03    0.118182546762235379E+05    0.926581260555110191E+02
    0.559905481029207452E+00    0.783452765921535246E+02    0.188645772697977030E+02    0.659284543308167503E+01   -0.101393400337706171E+05   -0.568635217676293087E+04   -0.183624108225762552E+04    0.151206537986578780E+03    0.117388960566272708E+05    0.926619544191166824E+02
    0.567494106916910268E+00    0.783721239510582990E+02    0.188553109844818110E+02    0.652928246187137162E+01   -0.986083226520249445E+04   -0.555539609064334400E+04   -0.179498729541480543E+04    0.147857411145527976E+03    0.114637409825799987E+05    0.926806305553085394E+02
    0.550520059685889573E+00    0.782762135387629030E+02    0.187359530997276096E+02    0.690728409287393053E+01   -0.101485273308923115E+05   -0.569133433768190116E+04   -0.183697671422041230E+04    0.151062026248178739E+03    0.117482166119281646E+05    0.926818198365252499E+02
    0.568785395805676885E+00    0.783378411779671922E+02    0.188315220871497147E+02    0.661990204301818075E+01   -0.100217476306972785E+05   -0.563050843794865341E+04   -0.181938297510965322E+04    0.150010670931152106E+03    0.116225076633921999E+05    0.926907733344714302E+02
    0.568785395805676885E+00    0.783378411779671922E+02    0.188315220871497147E+02    0.661990204301818075E+01   -0.100217476306972785E+05   -0.563050843794865341E+04   -0.181938297510965322E+04    0.150010670931152106E+03    0.116225076633921999E+05    0.926907733344714302E+02
    0.554736837071568512E+00    0.783524904756240375E+02    0.186727170505606921E+02    0.686065847965218722E+01   -0.100102541346845246E+05   -0.562630785113078400E+04   -0.181646049832752624E+04    0.149398881499748882E+03    0.116116088229813431E+05    0.926975940408439669E+02
    0.541719248834008460E+00    0.783005107773255844E+02    0.186222146016188610E+02    0.707720100321241485E+01   -0.101424665231002054E+05   -0.568882583779500601E+04   -0.183574817618396514E+04    0.150858037706833954E+03    0.117423537488906932E+05    0.927255986406966173E+02
    0.554222943978470939E+00    0.783675182504092191E+02    0.187255807036116906E+02    0.678508152948689869E+01   -0.100732183859260858E+05   -0.565569784879825784E+04   -0.182602245733410746E+04    0.150241236681195176E+03    0.116737332276947800E+05    0.927266449215405117E+02
    0.554168400634698743E+00    0.782658438384847557E+02    0.188111434498426391E+02    0.659489965839050463E+01   -0.101245739533782125E+05   -0.567988556954920114E+04   -0.183365876588182300E+04    0.150848967165546753E+03    0.117244820160301024E+05    0.927335943758517516E+02
    0.554168400634698743E+00    0.782658438384847557E+02    0.188111434498426391E+02    0.659489965839050463E+01   -0.101245739533782125E+05   -0.567988556954920114E+04   -0.183365876588182300E+04    0.150848967165546753E+03    0.117244820160301024E+05    0.927335943758517516E+02
    0.561903403268380952E+00    0.783299772357118940E+02    0.188276486264149838E+02    0.669984070679172383E+01   -0.992010476600141010E+04   -0.558319099547717542E+04   -0.180383609334660719E+04    0.148601587348756823E+03    0.115222675005673609E+05    0.927545282051088975E+02
    0.553579891013825098E+00    0.783078377624449757E+02    0.188747661190209080E+02    0.686432501907422044E+01   -0.101432661053248739E+05   -0.568864013698794770E+04   -0.183644548780852233E+04    0.151085845297407559E+03    0.117429389042510957E+05    0.927704848522686945E+02
    0.553579891013825098E+00    0.783078377624449757E+02    0.188747661190209080E+02    0.686432501907422044E+01   -0.101432661053248739E+05   -0.568864013698794770E+04   -0.183644548780852233E+04    0.151085845297407559E+03    0.117429389042510957E+05    0.927704848522686945E+02
    0.538449293854395328E+00    0.783275722870013595E+02    0.186095018370410337E+02    0.720760572550224765E+01   -0.102466419592474176E+05   -0.573826048324353087E+04   -0.185069864805914926E+04    0.151930371190081928E+03    0.118454508852121580E+05    0.927778080878063349E+02
    0.534213165732521533E+00    0.783134098720705651E+02    0.186416752131255556E+02    0.737350327205640177E+01   -0.102552864158384946E+05   -0.574233717672935836E+04   -0.185200403804778625E+04    0.152035389189537398E+03    0.118539897909484152E+05    0.928239279910865918E+02
    0.571113360080503174E+00    0.783323138781557873E+02    0.188008872106449623E+02    0.618421823702060269E+01   -0.100638876685688265E+05   -0.565019573797424255E+04   -0.182567969291385884E+04    0.150561202193210477E+03    0.116640969142992180E+05    0.928283640414339288E+02
    0.558815879128625959E+00    0.782927981803966730E+02    0.187814095289800136E+02    0.652572115361696703E+01   -0.100756173570184710E+05   -0.565618802922886789E+04   -0.182702790659055836E+04    0.150527141966075760E+03    0.116758512600401446E+05    0.928438483498470788E+02
    0.555670778890367756E+00    0.783222039953043065E+02    0.187588444390988300E+02    0.643609115003039189E+01   -0.102091450141053774E+05   -0.571954477870253049E+04   -0.184623947940365110E+04    0.151902911004450630E+03    0.118080001168626259E+05    0.928595583064333567E+02
    0.555782297185150376E+00    0.783007239662566121E+02    0.187505075869420033E+02    0.705398114748521543E+01   -0.102158704002670002E+05   -0.572261144420837809E+04   -0.184730545866262082E+04    0.152021255760952414E+03    0.118146063913412654E+05    0.928597059160581750E+02
    0.547523524697097530E+00    0.782889336905066671E+02    0.187717224252463737E+02    0.679894436373904387E+01   -0.102254641335813867E+05   -0.572743995699982588E+04   -0.184846997089480715E+04    0.152019094027499648E+03    0.118241976183534553E+05    0.928653003462281674E+02
    0.559692945531213848E+00    0.783063332031157984E+02    0.188338242756638579E+02    0.664350152633023772E+01   -0.100941922999059570E+05   -0.566479944176732079E+04   -0.182984562461869155E+04    0.150793534602998307E+03    0.116941610056946465E+05    0.928887000419718873E+02
    0.563824563570986648E+00    0.783350499796382849E+02    0.188623853155810295E+02    0.638537481070360791E+01   -0.100179573055132114E+05   -0.562931033517834658E+04   -0.181826333838123037E+04    0.149738258365690882E+03    0.116189830955647612E+05    0.929221566795458784E+02
    0.551201090692062357E+00    0.782901285009305639E+02    0.186848530163941824E+02    0.690337513575629735E+01   -0.101366518068395908E+05   -0.568587058748980326E+04   -0.183511477628686680E+04    0.150875822050468486E+03    0.117365262636192201E+05    0.929272486595375113E+02
    0.558592273524246452E+00    0.783256395503521361E+02    0.187024101963582368E+02    0.693880061090225286E+01   -0.998625595658025486E+04   -0.561454918466395702E+04   -0.181344896512890750E+04    0.149305123821716791E+03    0.115877097404030173E+05    0.929875529542671586E+02
    0.567332419368465679E+00    0.783106621182422771E+02    0.187440716617509260E+02    0.640186623663099308E+01   -0.100727812601604255E+05   -0.565478705278775760E+04   -0.182664120342550882E+04    0.150512062386477282E+03    0.116730359744741563E+05    0.929921980571274247E+02
    0.542564291092394790E+00    0.783239915017001636E+02    0.186905399951398614E+02    0.687072757277638235E+01   -0.102802069933174989E+05   -0.575395886436915680E+04   -0.185580435983003281E+04    0.152368447748026853E+03    0.118785841200263239E+05    0.929937688527121225E+02
    0.551493730629268319E+00    0.782862862180851522E+02    0.186907621586603980E+02    0.722242539811393236E+01   -0.101573490808740789E+05   -0.569523745335964213E+04   -0.183851367132403857E+04    0.151264427384022810E+03    0.117568392722724257E+05    0.930048501938659626E+02
    0.562794925808573598E+00    0.783009944260172972E+02    0.187941173630293825E+02    0.660986113535509379E+01   -0.101000090204659500E+05   -0.566786248758057718E+04   -0.183040423249569153E+04    0.150729944526068010E+03    0.117000428185316923E+05    0.930064307298117399E+02
    0.551304987801596424E+00    0.783443233285389766E+02    0.187009556409845175E+02    0.676408635393435365E+01   -0.100482845940224288E+05   -0.564419973924808164E+04   -0.182219008489011230E+04    0.149863010177810935E+03    0.116491743350305605E+05    0.930213734533665644E+02
    0.556861956738982533E+00    0.783567577803809030E+02    0.186864187846537710E+02    0.668203838955990381E+01   -0.996670274269526635E+04   -0.560573971705289841E+04   -0.181018714928518921E+04    0.148917809095296946E+03    0.115685419470214147E+05    0.930301255438412937E+02
    0.539943319091882312E+00    0.783206466788271314E+02    0.186068999789543561E+02    0.697329954138353880E+01   -0.102287189062731049E+05   -0.572994189494101920E+04   -0.184801619485182755E+04    0.151678765897633269E+03    0.118277813211930206E+05    0.930691505494615967E+02
    0.561561785769942201E+00    0.783683185773693083E+02    0.187621379266117216E+02    0.669366609715638283E+01   -0.996204832777810225E+04   -0.560294468267703724E+04   -0.180998030389729411E+04    0.149089476919505699E+03    0.115637216558395012E+05    0.930845567019325699E+02
    0.551708346079975875E+00    0.783949562314842865E+02    0.187097818252663117E+02    0.680906719920990877E+01   -0.995985534808712509E+04   -0.560258737081923118E+04   -0.180905166093305525E+04    0.148807399251707579E+03    0.115617997374044990E+05    0.931062040879519799E+02
    0.541703782521764432E+00    0.782687615535760415E+02    0.187402014693841465E+02    0.705533345761662911E+01   -0.103419682012432895E+05   -0.578274608354446809E+04   -0.186518590597513548E+04    0.153209190784392518E+03    0.119395067802580961E+05    0.931062784458828645E+02
    0.561104086860407691E+00    0.783087966099913899E+02    0.188343890989463709E+02    0.684910619191571612E+01   -0.994508433105625591E+04   -0.559494957025411986E+04   -0.180755206094220512E+04    0.148899638715274904E+03    0.115469471118439651E+05    0.931092786617261652E+02
    0.541457561792594078E+00    0.782762701394146205E+02    0.187188158694385614E+02    0.684028191682065501E+01   -0.102579865492055396E+05   -0.574333043376577643E+04   -0.185272668271886118E+04    0.152175342929751139E+03    0.118565574312307672E+05    0.931125004369339138E+02
    0.539091729165814937E+00    0.782725495010430592E+02    0.186983557041367909E+02    0.698728141771134936E+01   -0.103780305522044255E+05   -0.579988014776350337E+04   -0.187037917501322158E+04    0.153577723263905682E+03    0.119751964121577003E+05    0.931249548932802469E+02
    0.546074803281760168E+00    0.783149522873811605E+02    0.187147825161253998E+02    0.705200959744014355E+01   -0.100486322474866211E+05   -0.564499867484164679E+04   -0.182160478055912199E+04    0.149615792529924875E+03    0.116497641698047792E+05    0.931290180319602428E+02
    0.559735656387708502E+00    0.783507252212210688E+02    0.188451831981261009E+02    0.643274748766039384E+01   -0.999255299137109796E+04   -0.561746259003956220E+04   -0.181435357014922442E+04    0.149391089368646476E+03    0.115939232318727263E+05    0.931432337587362724E+02
    0.546127573469629257E+00    0.783362998108278248E+02    0.186235023305565939E+02    0.695697381103428558E+01   -0.101924903262889165E+05   -0.571210652996678164E+04   -0.184337978020223636E+04    0.151552580974187862E+03    0.117916863273354229E+05    0.931500115657758414E+02
    0.538935099142848428E+00    0.783236069881936032E+02    0.186399307657105240E+02    0.705685408699015504E+01   -0.101773116170797948E+05   -0.570573785886749374E+04   -0.184040890182632006E+04    0.151072168399701440E+03    0.117769807275625881E+05    0.931551780393561586E+02
    0.558093701128291153E+00    0.783124976872627769E+02    0.187939357171249988E+02    0.676433034631532148E+01   -0.100938301466168723E+05   -0.566518889420576033E+04   -0.182928606295269537E+04    0.150569298419533737E+03    0.116940190105255697E+05    0.931565390724547200E+02
    0.552371051119997292E+00    0.783323334192826906E+02    0.187635952224599407E+02    0.652998375443297085E+01   -0.997788827422055692E+04   -0.561111903936885119E+04   -0.181169098996930529E+04    0.149003574223846783E+03    0.115796384663879526E+05    0.931648595822010321E+02
    0.552813393603578507E+00    0.782876714605208122E+02    0.187206678884882507E+02    0.683109069974672245E+01   -0.101051778637358548E+05   -0.567048898819161877E+04   -0.183099194376640298E+04    0.150724419282428812E+03    0.117052087040832248E+05    0.931708860946495747E+02
    0.550810103576509946E+00    0.783545896986370565E+02    0.186734072141815375E+02    0.700321530912952728E+01   -0.100688499665072231E+05   -0.565418737325175243E+04   -0.182486295868375100E+04    0.149979971336459727E+03    0.116696195935922296E+05    0.932567325198864978E+02
    0.557726413021163991E+00    0.782967739025591811E+02    0.188550819500564515E+02    0.694982957898786502E+01   -0.100410738793393393E+05   -0.564041184863699527E+04   -0.182147016619862006E+04    0.149925994108957326E+03    0.116419087547796262E+05    0.933191850546838566E+02
    0.561115206090724294E+00    0.783005707281966181E+02    0.188035411916796598E+02    0.626198464230591512E+01   -0.101316425998004524E+05   -0.568281097448743640E+04   -0.183506703335267048E+04    0.151088262665742178E+03    0.117313163214548604E+05    0.933204338103159046E+02
    0.568054226351131897E+00    0.783072374183878708E+02    0.187718350303242687E+02    0.642818114328267232E+01   -0.100494290330360436E+05   -0.564349777396542777E+04   -0.182348320341020349E+04    0.150351712810618892E+03    0.116498458994122630E+05    0.933222832200763435E+02
    0.562930793604804025E+00    0.783035463087754522E+02    0.187384996152722820E+02    0.685783248469321194E+01   -0.100532968587024498E+05   -0.564568160850784716E+04   -0.182373437564983828E+04    0.150259635337456302E+03    0.116538009579430727E+05    0.933664435267336472E+02
    0.559603197148713649E+00    0.782782687225127205E+02    0.187472462650639962E+02    0.682995358415089804E+01   -0.101440210862957811E+05   -0.568845901698090893E+04   -0.183701682679988517E+04    0.151302795412586562E+03    0.117434784221930804E+05    0.933952302430217429E+02
    0.555874828789581166E+00    0.782998911880755770E+02    0.187834809423928739E+02    0.664598718032932556E+01   -0.102481843479565105E+05   -0.573761231796568700E+04   -0.185226969770114147E+04    0.152484022624197507E+03    0.118464587955141233E+05    0.934379308851060273E+02
    0.546461240334440213E+00    0.783593286495914043E+02    0.187342352396838407E+02    0.705605889578294043E+01   -0.100491655025124874E+05   -0.564484843922204891E+04   -0.182200821241424046E+04    0.149776368587892421E+03    0.116501364996466909E+05    0.934402968880016687E+02
    0.542339902442217969E+00    0.783130129373782466E+02    0.186818316437227807E+02    0.705550565443308031E+01   -0.101338867401253683E+05   -0.568509847390022605E+04   -0.183424617227587487E+04    0.150639543870806818E+03    0.117339914699738438E+05    0.934543663601031653E+02
    0.563745897369493210E+00    0.783528432741461671E+02    0.188260336790501626E+02    0.635481827468755522E+01   -0.991695437325515013E+04   -0.558177150400812934E+04   -0.180333303503222169E+04    0.148541618535514999E+03    0.115191752806097265E+05    0.934819314486303767E+02
    0.549469422452941392E+00    0.783326382744575085E+02    0.187278995452266130E+02    0.672856707051276004E+01   -0.101436801615707773E+05   -0.568906943945855164E+04   -0.183622173379201445E+04    0.150994932333636996E+03    0.117434372225447878E+05    0.935149876098595598E+02
    0.551744219403891178E+00    0.783156170331503318E+02    0.188000401461246263E+02    0.683318198511017894E+01   -0.101864877744926944E+05   -0.570895262669464773E+04   -0.184275149303207036E+04    0.151603258071216828E+03    0.117856388475009371E+05    0.935158125163154494E+02
    0.553444703203872401E+00    0.783584573311229775E+02    0.187264597497487983E+02    0.692235089659889447E+01   -0.100581640619375175E+05   -0.564847902754552069E+04   -0.182389874300492988E+04    0.150117088179792461E+03    0.116588006304889168E+05    0.935234460406237105E+02
    0.553535753672970698E+00    0.783138033486322485E+02    0.187772192838475327E+02    0.685113143748132813E+01   -0.100831428379376084E+05   -0.566026863975265314E+04   -0.182758576005380337E+04    0.150402861795990447E+03    0.116834940689960204E+05    0.935366282035140131E+02
    0.566342217104108370E+00    0.783226887380665175E+02    0.188226632251110075E+02    0.622219051223522790E+01   -0.100715118869412327E+05   -0.565428527416237193E+04   -0.182638566735598215E+04    0.150461122994315474E+03    0.116718171569547194E+05    0.935437738736162316E+02
    0.544693804977335883E+00    0.782801804290998291E+02    0.187568205867534417E+02    0.699138237982375621E+01   -0.103159046481336027E+05   -0.577049585038773967E+04   -0.186129554102557836E+04    0.152891613917578070E+03    0.119137599000382452E+05    0.935772355537263252E+02
    0.546001629148034517E+00    0.782563414698101809E+02    0.187383579606740831E+02    0.672084777455571736E+01   -0.103297757131743383E+05   -0.577686676362238268E+04   -0.186355259880408857E+04    0.153123102980740555E+03    0.119274011856126399E+05    0.935912895727286980E+02
    0.541494369451773538E+00    0.783181871707482458E+02    0.186961628198413408E+02    0.712714389875765431E+01   -0.101936769097430333E+05   -0.571284992411429903E+04   -0.184339964477326612E+04    0.151496134051170628E+03    0.117929266149876148E+05    0.936098524744871696E+02
    0.541567505631110002E+00    0.783280333024440552E+02    0.186227144092774175E+02    0.707694389710727911E+01   -0.101204727958263229E+05   -0.567863764969353542E+04   -0.183236747388955905E+04    0.150536903667644566E+03    0.117206792684806915E+05    0.936229090207168468E+02
    0.556059081412111800E+00    0.783561529104630949E+02    0.187201204910603280E+02    0.697224857459616842E+01   -0.997184639443809283E+04   -0.560798824556162890E+04   -0.181106647495110701E+04    0.149045009821127991E+03    0.115735567496473395E+05    0.936252411686131865E+02
    0.542718129781695091E+00    0.782830252943006712E+02    0.186178013143743435E+02    0.685090599252162491E+01   -0.102438843379503087E+05   -0.573693689790863209E+04   -0.185040045393393962E+04    0.151912368593584659E+03    0.118427157382085989E+05    0.936264392654897932E+02
    0.564029187029283396E+00    0.783458530535610294E+02    0.187334300982169211E+02    0.658800780719140988E+01   -0.996421717785413057E+04   -0.560382761654313981E+04   -0.181049256566893246E+04    0.149176460373329888E+03    0.115658046407110032E+05    0.936287783250974428E+02
    0.550418526208082293E+00    0.783463660376674369E+02    0.187450079537755734E+02    0.695802602124523961E+01   -0.100805231078564229E+05   -0.565903259876899483E+04   -0.182719666716453298E+04    0.150371841224043607E+03    0.116809052489062160E+05    0.943130977070383096E+02
    0.565009135983022937E+00    0.783067608589119857E+02    0.187445063527190570E+02    0.626295190082159259E+01   -0.101209614013394093E+05   -0.567761300370545905E+04   -0.183360816861772560E+04    0.151023487091818453E+03    0.117207020410386704E+05    0.936975914007840771E+02
    0.539349102951659720E+00    0.782803239541632081E+02    0.186773595557702379E+02    0.703100982239890815E+01   -0.102970690674220114E+05   -0.576176728382995861E+04   -0.185842795033712196E+04    0.152622000327279125E+03    0.118951896717315540E+05    0.945348888713129156E+02
    0.565518318290994193E+00    0.783366952032287713E+02    0.188343221430396177E+02    0.686137452434775774E+01   -0.995914414328948806E+04   -0.560110777967246213E+04   -0.181005576657610231E+04    0.149243577740353203E+03    0.115606686063387042E+05    0.939050036724773065E+02
    0.550987238994935513E+00    0.783017912150349957E+02    0.187314794821756792E+02    0.674478858045287666E+01   -0.101445115703009906E+05   -0.568926771940566232E+04   -0.183654203629164249E+04    0.151083965298876564E+03    0.117441796044314906E+05    0.941871633401524093E+02
    0.539135941027618859E+00    0.782572553149301342E+02    0.186464389137335971E+02    0.717954721935626505E+01   -0.103365600853683300E+05   -0.578037326903678968E+04   -0.186422291523934564E+04    0.153079686483918124E+03    0.119342231313213106E+05    0.941430690206654788E+02
    0.557072515206896490E+00    0.782671733416162283E+02    0.188455601250418425E+02    0.672498288314927439E+01   -0.101660508773503643E+05   -0.569908852456034583E+04   -0.184005921366396865E+04    0.151463122040252983E+03    0.117653480118100488E+05    0.938522202832364769E+02
    0.543791721489658597E+00    0.782722563226720922E+02    0.186354159958782759E+02    0.696549206298640211E+01   -0.102573076332740493E+05   -0.574303822477887024E+04   -0.185260181467908433E+04    0.152157457794467803E+03    0.118558963398699489E+05    0.938899213592936093E+02
    0.554623177434224401E+00    0.783153426973909319E+02    0.187981559546484362E+02    0.689676871364350053E+01   -0.100384652037718679E+05   -0.563912387443633907E+04   -0.182114175229546299E+04    0.149921236897829601E+03    0.116393013340788166E+05    0.945046924274669493E+02
    0.555886779079013849E+00    0.782944502917545009E+02    0.187288902670504989E+02    0.651527774457877928E+01   -0.101372435378557202E+05   -0.568581470185173112E+04   -0.183553600779134649E+04    0.151012167331857654E+03    0.117369873226050076E+05    0.948837806704853790E+02
    0.555886779079013849E+00    0.782944502917545009E+02    0.187288902670504989E+02    0.651527774457877928E+01   -0.101372435378557202E+05   -0.568581470185173112E+04   -0.183553600779134649E+04    0.151012167331857654E+03    0.117369873226050076E+05    0.948837806704853790E+02
    0.555369950521260147E+00    0.783011071473123934E+02    0.187114567736097435E+02    0.653876803547639618E+01   -0.101428307862105066E+05   -0.568837292753253678E+04   -0.183643664353094528E+04    0.151107782547629512E+03    0.117424791172899604E+05    0.942052983543935341E+02
    0.549560337680977562E+00    0.782865170612702173E+02    0.186657946300369240E+02    0.668396006110843466E+01   -0.101610312467461117E+05   -0.569721772419755052E+04   -0.183881176852426779E+04    0.151209849858569697E+03    0.117605732669322133E+05    0.938514974874704535E+02
    0.564338915625489546E+00    0.783362679647941889E+02    0.188295029210835771E+02    0.632665787962109505E+01   -0.997081585290175644E+04   -0.560682584718626549E+04   -0.181155704929932426E+04    0.149292605267757210E+03    0.115722898782707271E+05    0.936514272931835876E+02
    0.549773422314694726E+00    0.783147887609830775E+02    0.187590777253759242E+02    0.676693794783128233E+01   -0.102343459283196262E+05   -0.573167610124555540E+04   -0.184967640883343688E+04    0.152094409932661307E+03    0.118330048480004898E+05    0.942392260345698816E+02
    0.563055528204592481E+00    0.783160430018214981E+02    0.187431823404330196E+02    0.669451315465175334E+01   -0.100283256132896058E+05   -0.563412595802104534E+04   -0.181981961919427340E+04    0.149882828408730120E+03    0.116292052906142999E+05    0.942353612909481058E+02
    0.563038634875881350E+00    0.783372811038184835E+02    0.187895488950074103E+02    0.639772735939405468E+01   -0.991416543529977571E+04   -0.558042909999139920E+04   -0.180296043773696033E+04    0.148520927282935475E+03    0.115164075280851212E+05    0.942739870983486838E+02
    0.551586160421547067E+00    0.783399706913251350E+02    0.187725777367705611E+02    0.672342958336085861E+01   -0.100989173024223855E+05   -0.566792151659157935E+04   -0.182972761595816405E+04    0.150501324112847215E+03    0.116991693573697194E+05    0.945781310069536545E+02
    0.551586160421547067E+00    0.783399706913251350E+02    0.187725777367705611E+02    0.672342958336085861E+01   -0.100989173024223855E+05   -0.566792151659157935E+04   -0.182972761595816405E+04    0.150501324112847215E+03    0.116991693573697194E+05    0.945781310069536545E+02
    0.556850707084656338E+00    0.783417076192315278E+02    0.187456237787539344E+02    0.670895332637500186E+01   -0.100885794852393319E+05   -0.566281755253971642E+04   -0.182835812175186084E+04    0.150464754118403107E+03    0.116888716556289855E+05    0.945170728118148133E+02
    0.551035724171264452E+00    0.783054860064093248E+02    0.187332070015798244E+02    0.655617181862633025E+01   -0.101579156972295877E+05   -0.569611855542510239E+04   -0.183800519446789099E+04    0.151027842999143530E+03    0.117576385306047305E+05    0.938570555255839594E+02
    0.554030576598370184E+00    0.783292164465046596E+02    0.187626384182194741E+02    0.645576830125481305E+01   -0.101270796429981365E+05   -0.568130535599080122E+04   -0.183374375757409939E+04    0.150781003991174117E+03    0.117270518764086646E+05    0.938874613188829414E+02
    0.554871003369635130E+00    0.783325798390010561E+02    0.187298338999228875E+02    0.665236236819083970E+01   -0.100418238035612776E+05   -0.564108435719054251E+04   -0.182125141617359463E+04    0.149808834879119104E+03    0.116427699721642257E+05    0.954356781376263115E+02
    0.554871003369635130E+00    0.783325798390010561E+02    0.187298338999228875E+02    0.665236236819083970E+01   -0.100418238035612776E+05   -0.564108435719054251E+04   -0.182125141617359463E+04    0.149808834879119104E+03    0.116427699721642257E+05    0.954356781376263115E+02
    0.554871003369635130E+00    0.783325798390010561E+02    0.187298338999228875E+02    0.665236236819083970E+01   -0.100418238035612776E+05   -0.564108435719054251E+04   -0.182125141617359463E+04    0.149808834879119104E+03    0.116427699721642257E+05    0.954356781376263115E+02
    0.554871003369635130E+00    0.783325798390010561E+02    0.187298338999228875E+02    0.665236236819083970E+01   -0.100418238035612776E+05   -0.564108435719054251E+04   -0.182125141617359463E+04    0.149808834879119104E+03    0.116427699721642257E+05    0.954356781376263115E+02
    0.555966128329332565E+00    0.782797741966570584E+02    0.188094652057679497E+02    0.679624446623994682E+01   -0.100729579385058387E+05   -0.565531360076835063E+04   -0.182628658102115401E+04    0.150346986652585429E+03    0.116733705533369866E+05    0.942125665585151921E+02
    0.561211359389877540E+00    0.782860355674169028E+02    0.187162276198282882E+02    0.669441506904648698E+01   -0.101340187828204507E+05   -0.568367759385060344E+04   -0.183563744294746607E+04    0.151214088286757288E+03    0.117335669603018123E+05    0.939099228802668904E+02
    0.545252838730178824E+00    0.783192425408664974E+02    0.186978142172367612E+02    0.688142939470055026E+01   -0.101571104462060666E+05   -0.569539197781601979E+04   -0.183819340002153172E+04    0.151156996563135948E+03    0.117567026436822962E+05    0.937338804600114344E+02
    0.547507628568498106E+00    0.783271803375815239E+02    0.186873924119875916E+02    0.692069598790788465E+01   -0.101978532251509096E+05   -0.571467696747980790E+04   -0.184413728552047223E+04    0.151597133069062522E+03    0.117970051510994472E+05    0.943976175747750261E+02
    0.552725919925832532E+00    0.783251034518235940E+02    0.186872323470982273E+02    0.706887871188724581E+01   -0.101196303987240281E+05   -0.567751329389163220E+04   -0.183288867148466875E+04    0.150804416461137947E+03    0.117195793465908337E+05    0.940684715907576532E+02
    0.559974271131838175E+00    0.783069108992826273E+02    0.187935418707048569E+02    0.660863061165832377E+01   -0.100365869157871093E+05   -0.563796465346903460E+04   -0.182108422710498394E+04    0.150001113628303557E+03    0.116373465364561398E+05    0.937753583446514654E+02
    0.556797536720963437E+00    0.783498628223449458E+02    0.187824866362804066E+02    0.661826654500524647E+01   -0.996581307796156398E+04   -0.560512643286448110E+04   -0.181020539596146159E+04    0.148979185711165485E+03    0.115675933497116130E+05    0.939415487311688224E+02
    0.539721483955492021E+00    0.783213846297848022E+02    0.186679679780813323E+02    0.734140005640092230E+01   -0.102306521882462057E+05   -0.573080003104279876E+04   -0.184831154932591926E+04    0.151716869958174868E+03    0.118296774247556859E+05    0.940298576094097314E+02
    0.568084070225210236E+00    0.783315860891357687E+02    0.188237995296091931E+02    0.648630634999461275E+01   -0.100016646541836290E+05   -0.562097443754103188E+04   -0.181648807966746608E+04    0.149805460786434821E+03    0.116026293335585924E+05    0.939531014528241144E+02
    0.553285215798605123E+00    0.783154741649413921E+02    0.187740289127507403E+02    0.693582972041469858E+01   -0.101057540354071953E+05   -0.567097295520158877E+04   -0.183084313549908984E+04    0.150642124028273770E+03    0.117058662516882614E+05    0.941409954120836971E+02
    0.545856968933427056E+00    0.783085554035871496E+02    0.186722600735475552E+02    0.702365653212939201E+01   -0.101551771645382833E+05   -0.569462019661983140E+04   -0.183782496984446561E+04    0.151082589810162233E+03    0.117548434257418030E+05    0.948710722076306467E+02
    0.545856968933427056E+00    0.783085554035871496E+02    0.186722600735475552E+02    0.702365653212939201E+01   -0.101551771645382833E+05   -0.569462019661983140E+04   -0.183782496984446561E+04    0.151082589810162233E+03    0.117548434257418030E+05    0.948710722076306467E+02
    0.558822917083779513E+00    0.783507588192931479E+02    0.187381663383177823E+02    0.692001728360144597E+01   -0.100278093150474451E+05   -0.563415727919308029E+04   -0.181950854959335948E+04    0.149772439191581213E+03    0.116287959755755637E+05    0.938843995227955048E+02
    0.561328928848233377E+00    0.782800844479649243E+02    0.187688877853431144E+02    0.645742031657302995E+01   -0.101377000186849564E+05   -0.568574470552438288E+04   -0.183587597704013092E+04    0.151126580921597906E+03    0.117373347700779323E+05    0.943450299772357539E+02
    0.551506493435050982E+00    0.783216278285070473E+02    0.186732101044060954E+02    0.688048987056001682E+01   -0.101178156433003605E+05   -0.567709611407577813E+04   -0.183223546806433478E+04    0.150612336662500951E+03    0.117179547806472910E+05    0.940936835541514540E+02
    0.548692092786932539E+00    0.782904273520757243E+02    0.186714579876102320E+02    0.688086111616115037E+01   -0.101590325593017333E+05   -0.569644681921867050E+04   -0.183836756216643084E+04    0.151122724042904963E+03    0.117586589953191178E+05    0.949583203588559144E+02
    0.548692092786932539E+00    0.782904273520757243E+02    0.186714579876102320E+02    0.688086111616115037E+01   -0.101590325593017333E+05   -0.569644681921867050E+04   -0.183836756216643084E+04    0.151122724042904963E+03    0.117586589953191178E+05    0.949583203588559144E+02
    0.555643128386624663E+00    0.783604784393294267E+02    0.187901254122944792E+02    0.684965504243270917E+01   -0.100397230610834195E+05   -0.563988944474702657E+04   -0.182112748721287335E+04    0.149864297229792896E+03    0.116406158417340630E+05    0.948798370675587819E+02
    0.555643128386624663E+00    0.783604784393294267E+02    0.187901254122944792E+02    0.684965504243270917E+01   -0.100397230610834195E+05   -0.563988944474702657E+04   -0.182112748721287335E+04    0.149864297229792896E+03    0.116406158417340630E+05    0.948798370675587819E+02
    0.543614251491937428E+00    0.783042861750849966E+02    0.186124725039028860E+02    0.674462602949938717E+01   -0.101693655760161600E+05   -0.570185101477537410E+04   -0.183939052338615829E+04    0.151034682834526507E+03    0.117690741129854105E+05    0.938143521883008589E+02
